%YAML:1.0
---
opencv_ml_svm:
   format: 3
   svmType: C_SVC
   kernel:
      type: RBF
      gamma: 5.0625000000000009e-01
   C: 6.2500000000000000e+01
   term_criteria: { epsilon:9.9999999999999995e-07, iterations:100 }
   var_count: 32
   class_count: 30
   class_labels: !!opencv-matrix
      rows: 30
      cols: 1
      dt: i
      data: [ 0, 1, 2, 3, 4, 5, 6, 7, 8, 9, 10, 11, 12, 13, 14, 15, 16,
          17, 18, 19, 20, 21, 22, 23, 24, 25, 26, 27, 28, 29 ]
   sv_total: 300
   support_vectors:
      - [ 7.17703328e-02, 1.18022330e-01, 1.21212125e-01, 6.37958497e-02,
          7.01754391e-02, 0., 0., 7.33652338e-02, 6.85805455e-02, 0., 0.,
          7.49601275e-02, 6.22009560e-02, 1.06858052e-01, 1.10047847e-01,
          5.90111651e-02, 3.74800622e-01, 1.43540680e-01, 1.43540680e-01,
          3.38118017e-01, 2.72727281e-01, 2.24880382e-01, 2.31259972e-01,
          2.71132380e-01, 1.30781502e-01, 1.25996798e-01, 2.59968102e-01,
          2.58373201e-01, 2.37639546e-01, 2.44019136e-01, 0., 1. ]
      - [ 6.37254938e-02, 1.09477125e-01, 1.04575165e-01, 6.04575165e-02,
          8.49673226e-02, 0., 0., 6.69934675e-02, 8.33333358e-02, 0., 0.,
          7.35294148e-02, 6.04575165e-02, 1.25817001e-01, 1.07843138e-01,
          5.88235296e-02, 3.38235289e-01, 1.51960790e-01, 1.56862751e-01,
          3.52941185e-01, 2.92483658e-01, 2.35294133e-01, 2.12418303e-01,
          2.59803921e-01, 1.22549027e-01, 1.20915033e-01, 2.58169949e-01,
          2.32026145e-01, 2.69607842e-01, 2.40196079e-01, 0., 1. ]
      - [ 6.37254938e-02, 1.09477125e-01, 1.04575165e-01, 6.04575165e-02,
          8.49673226e-02, 0., 0., 6.69934675e-02, 8.33333358e-02, 0., 0.,
          7.35294148e-02, 6.04575165e-02, 1.25817001e-01, 1.07843138e-01,
          5.88235296e-02, 3.38235289e-01, 1.51960790e-01, 1.56862751e-01,
          3.52941185e-01, 2.92483658e-01, 2.35294133e-01, 2.12418303e-01,
          2.59803921e-01, 1.22549027e-01, 1.20915033e-01, 2.58169949e-01,
          2.32026145e-01, 2.69607842e-01, 2.40196079e-01, 0., 1. ]
      - [ 6.36215359e-02, 1.09298535e-01, 1.04404569e-01, 6.03588894e-02,
          8.64600316e-02, 0., 0., 6.68841749e-02, 8.31973925e-02, 0., 0.,
          7.34094605e-02, 6.03588894e-02, 1.25611752e-01, 1.07667208e-01,
          5.87275699e-02, 3.37683529e-01, 1.53344214e-01, 1.56606853e-01,
          3.52365434e-01, 2.93637842e-01, 2.34910280e-01, 2.12071776e-01,
          2.59380102e-01, 1.22349106e-01, 1.20717779e-01, 2.59380102e-01,
          2.31647640e-01, 2.69168019e-01, 2.39804238e-01, 0., 1. ]
      - [ 6.36215359e-02, 1.09298535e-01, 1.04404569e-01, 6.03588894e-02,
          8.64600316e-02, 0., 0., 6.68841749e-02, 8.31973925e-02, 0., 0.,
          7.34094605e-02, 6.03588894e-02, 1.25611752e-01, 1.07667208e-01,
          5.87275699e-02, 3.37683529e-01, 1.53344214e-01, 1.56606853e-01,
          3.52365434e-01, 2.93637842e-01, 2.34910280e-01, 2.12071776e-01,
          2.59380102e-01, 1.22349106e-01, 1.20717779e-01, 2.59380102e-01,
          2.31647640e-01, 2.69168019e-01, 2.39804238e-01, 0., 1. ]
      - [ 6.36215359e-02, 1.09298535e-01, 1.04404569e-01, 6.03588894e-02,
          8.64600316e-02, 0., 0., 6.68841749e-02, 8.31973925e-02, 0., 0.,
          7.34094605e-02, 6.03588894e-02, 1.25611752e-01, 1.07667208e-01,
          5.87275699e-02, 3.37683529e-01, 1.53344214e-01, 1.56606853e-01,
          3.52365434e-01, 2.93637842e-01, 2.34910280e-01, 2.12071776e-01,
          2.59380102e-01, 1.22349106e-01, 1.20717779e-01, 2.59380102e-01,
          2.31647640e-01, 2.69168019e-01, 2.39804238e-01, 0., 1. ]
      - [ 6.36215359e-02, 1.09298535e-01, 1.04404569e-01, 6.03588894e-02,
          8.64600316e-02, 0., 0., 6.68841749e-02, 8.31973925e-02, 0., 0.,
          7.34094605e-02, 6.03588894e-02, 1.25611752e-01, 1.07667208e-01,
          5.87275699e-02, 3.37683529e-01, 1.53344214e-01, 1.56606853e-01,
          3.52365434e-01, 2.93637842e-01, 2.34910280e-01, 2.12071776e-01,
          2.59380102e-01, 1.22349106e-01, 1.20717779e-01, 2.59380102e-01,
          2.31647640e-01, 2.69168019e-01, 2.39804238e-01, 0., 1. ]
      - [ 6.36215359e-02, 1.09298535e-01, 1.04404569e-01, 6.03588894e-02,
          8.64600316e-02, 0., 0., 6.68841749e-02, 8.31973925e-02, 0., 0.,
          7.34094605e-02, 6.03588894e-02, 1.25611752e-01, 1.07667208e-01,
          5.87275699e-02, 3.37683529e-01, 1.53344214e-01, 1.56606853e-01,
          3.52365434e-01, 2.93637842e-01, 2.34910280e-01, 2.12071776e-01,
          2.59380102e-01, 1.22349106e-01, 1.20717779e-01, 2.59380102e-01,
          2.31647640e-01, 2.69168019e-01, 2.39804238e-01, 0., 1. ]
      - [ 6.36215359e-02, 1.09298535e-01, 1.04404569e-01, 6.03588894e-02,
          8.64600316e-02, 0., 0., 6.68841749e-02, 8.31973925e-02, 0., 0.,
          7.34094605e-02, 6.03588894e-02, 1.25611752e-01, 1.07667208e-01,
          5.87275699e-02, 3.37683529e-01, 1.53344214e-01, 1.56606853e-01,
          3.52365434e-01, 2.93637842e-01, 2.34910280e-01, 2.12071776e-01,
          2.59380102e-01, 1.22349106e-01, 1.20717779e-01, 2.59380102e-01,
          2.31647640e-01, 2.69168019e-01, 2.39804238e-01, 0., 1. ]
      - [ 7.17703328e-02, 1.18022330e-01, 1.21212125e-01, 6.37958497e-02,
          7.01754391e-02, 0., 0., 7.33652338e-02, 6.85805455e-02, 0., 0.,
          7.49601275e-02, 6.22009560e-02, 1.06858052e-01, 1.10047847e-01,
          5.90111651e-02, 3.74800622e-01, 1.43540680e-01, 1.43540680e-01,
          3.38118017e-01, 2.72727281e-01, 2.24880382e-01, 2.31259972e-01,
          2.71132380e-01, 1.30781502e-01, 1.25996798e-01, 2.59968102e-01,
          2.58373201e-01, 2.37639546e-01, 2.44019136e-01, 0., 1. ]
      - [ 3.80622819e-02, 0., 0., 0., 9.86159146e-02, 0., 0., 0.,
          1.43598616e-01, 1.38408303e-01, 1.38408303e-01, 1.14186853e-01,
          5.88235296e-02, 8.30449834e-02, 1.03806227e-01, 8.30449834e-02,
          3.80622819e-02, 9.86159146e-02, 5.34602046e-01, 3.28719735e-01,
          3.39100331e-01, 2.21453279e-01, 2.42214531e-01, 1.97231829e-01,
          2.59515584e-01, 1.97231829e-01, 1.36678189e-01, 0.,
          4.23875421e-01, 4.39446360e-01, 2.76816607e-01, 7.23183393e-01 ]
      - [ 3.80622819e-02, 0., 0., 0., 9.86159146e-02, 0., 0., 0.,
          1.43598616e-01, 1.38408303e-01, 1.38408303e-01, 1.14186853e-01,
          5.88235296e-02, 8.30449834e-02, 1.03806227e-01, 8.30449834e-02,
          3.80622819e-02, 9.86159146e-02, 5.34602046e-01, 3.28719735e-01,
          3.39100331e-01, 2.21453279e-01, 2.42214531e-01, 1.97231829e-01,
          2.59515584e-01, 1.97231829e-01, 1.36678189e-01, 0.,
          4.23875421e-01, 4.39446360e-01, 2.76816607e-01, 7.23183393e-01 ]
      - [ 3.80622819e-02, 0., 0., 0., 9.86159146e-02, 0., 0., 0.,
          1.43598616e-01, 1.38408303e-01, 1.38408303e-01, 1.14186853e-01,
          5.88235296e-02, 8.30449834e-02, 1.03806227e-01, 8.30449834e-02,
          3.80622819e-02, 9.86159146e-02, 5.34602046e-01, 3.28719735e-01,
          3.39100331e-01, 2.21453279e-01, 2.42214531e-01, 1.97231829e-01,
          2.59515584e-01, 1.97231829e-01, 1.36678189e-01, 0.,
          4.23875421e-01, 4.39446360e-01, 2.76816607e-01, 7.23183393e-01 ]
      - [ 3.80622819e-02, 0., 0., 0., 9.86159146e-02, 0., 0., 0.,
          1.43598616e-01, 1.38408303e-01, 1.38408303e-01, 1.14186853e-01,
          5.88235296e-02, 8.30449834e-02, 1.03806227e-01, 8.30449834e-02,
          3.80622819e-02, 9.86159146e-02, 5.34602046e-01, 3.28719735e-01,
          3.39100331e-01, 2.21453279e-01, 2.42214531e-01, 1.97231829e-01,
          2.59515584e-01, 1.97231829e-01, 1.36678189e-01, 0.,
          4.23875421e-01, 4.39446360e-01, 2.76816607e-01, 7.23183393e-01 ]
      - [ 3.80622819e-02, 0., 0., 0., 9.86159146e-02, 0., 0., 0.,
          1.43598616e-01, 1.38408303e-01, 1.38408303e-01, 1.14186853e-01,
          5.88235296e-02, 8.30449834e-02, 1.03806227e-01, 8.30449834e-02,
          3.80622819e-02, 9.86159146e-02, 5.34602046e-01, 3.28719735e-01,
          3.39100331e-01, 2.21453279e-01, 2.42214531e-01, 1.97231829e-01,
          2.59515584e-01, 1.97231829e-01, 1.36678189e-01, 0.,
          4.23875421e-01, 4.39446360e-01, 2.76816607e-01, 7.23183393e-01 ]
      - [ 4.65444289e-02, 5.64174913e-03, 0., 0., 9.16784182e-02,
          1.26939351e-02, 1.41043719e-02, 1.97461210e-02, 1.25528917e-01,
          1.39633283e-01, 1.41043723e-01, 1.26939356e-01, 7.47531727e-02,
          7.05218613e-02, 7.05218613e-02, 6.06488027e-02, 5.21861762e-02,
          1.38222843e-01, 5.33145308e-01, 2.76445687e-01, 3.38504940e-01,
          2.28490829e-01, 2.25669950e-01, 2.07334280e-01, 2.60930896e-01,
          2.28490829e-01, 1.56558529e-01, 3.38504910e-02, 4.10437226e-01,
          3.99153739e-01, 3.07475299e-01, 6.92524672e-01 ]
      - [ 3.80622819e-02, 0., 0., 0., 9.86159146e-02, 0., 0., 0.,
          1.43598616e-01, 1.38408303e-01, 1.38408303e-01, 1.14186853e-01,
          5.88235296e-02, 8.30449834e-02, 1.03806227e-01, 8.30449834e-02,
          3.80622819e-02, 9.86159146e-02, 5.34602046e-01, 3.28719735e-01,
          3.39100331e-01, 2.21453279e-01, 2.42214531e-01, 1.97231829e-01,
          2.59515584e-01, 1.97231829e-01, 1.36678189e-01, 0.,
          4.23875421e-01, 4.39446360e-01, 2.76816607e-01, 7.23183393e-01 ]
      - [ 3.80622819e-02, 0., 0., 0., 9.86159146e-02, 0., 0., 0.,
          1.43598616e-01, 1.38408303e-01, 1.38408303e-01, 1.14186853e-01,
          5.88235296e-02, 8.30449834e-02, 1.03806227e-01, 8.30449834e-02,
          3.80622819e-02, 9.86159146e-02, 5.34602046e-01, 3.28719735e-01,
          3.39100331e-01, 2.21453279e-01, 2.42214531e-01, 1.97231829e-01,
          2.59515584e-01, 1.97231829e-01, 1.36678189e-01, 0.,
          4.23875421e-01, 4.39446360e-01, 2.76816607e-01, 7.23183393e-01 ]
      - [ 3.80622819e-02, 0., 0., 0., 9.86159146e-02, 0., 0., 0.,
          1.43598616e-01, 1.38408303e-01, 1.38408303e-01, 1.14186853e-01,
          5.88235296e-02, 8.30449834e-02, 1.03806227e-01, 8.30449834e-02,
          3.80622819e-02, 9.86159146e-02, 5.34602046e-01, 3.28719735e-01,
          3.39100331e-01, 2.21453279e-01, 2.42214531e-01, 1.97231829e-01,
          2.59515584e-01, 1.97231829e-01, 1.36678189e-01, 0.,
          4.23875421e-01, 4.39446360e-01, 2.76816607e-01, 7.23183393e-01 ]
      - [ 4.88656200e-02, 0., 0., 0., 9.07504335e-02, 0., 0., 0.,
          1.50087267e-01, 1.39616057e-01, 1.39616057e-01, 1.16928443e-01,
          6.28272220e-02, 6.98080286e-02, 9.07504335e-02, 9.07504335e-02,
          4.88656200e-02, 9.07504335e-02, 5.46247840e-01, 3.14136118e-01,
          3.52530539e-01, 2.09424078e-01, 2.30366498e-01, 2.07678884e-01,
          2.79232115e-01, 2.02443272e-01, 1.39616057e-01, 0.,
          4.22338575e-01, 4.38045382e-01, 2.79232115e-01, 7.20767856e-01 ]
      - [ 6.08365014e-02, 1.14068445e-02, 1.90114067e-03, 1.10266156e-01,
          1.04562737e-01, 0., 8.17490518e-02, 1.17870726e-01,
          8.93536136e-02, 3.42205316e-02, 7.60456249e-02, 7.60456249e-02,
          7.22433478e-02, 1.08365022e-01, 1.90114067e-03, 5.32319397e-02,
          1.84410647e-01, 3.04182529e-01, 2.75665402e-01, 2.35741451e-01,
          3.26996207e-01, 1.53992400e-01, 1.61596954e-01, 3.57414454e-01,
          1.90114066e-01, 2.98479080e-01, 1.76806077e-01, 3.11787069e-01,
          3.04182529e-01, 2.07224324e-01, 1.92015201e-01, 8.07984769e-01 ]
      - [ 6.04575165e-02, 1.96078438e-02, 1.63398695e-03, 1.07843138e-01,
          9.31372568e-02, 1.63398695e-03, 7.84313753e-02, 1.07843138e-01,
          8.82352963e-02, 3.43137272e-02, 7.51634017e-02, 8.16993490e-02,
          7.02614412e-02, 1.14379086e-01, 1.63398695e-03, 6.37254938e-02,
          1.89542487e-01, 2.81045765e-01, 2.79411763e-01, 2.50000000e-01,
          3.12091500e-01, 1.69934645e-01, 1.56862751e-01, 3.61111104e-01,
          2.00980395e-01, 2.90849686e-01, 1.74836606e-01, 2.95751631e-01,
          3.07189554e-01, 2.22222239e-01, 1.89542487e-01, 8.10457528e-01 ]
      - [ 6.04575165e-02, 1.96078438e-02, 1.63398695e-03, 1.07843138e-01,
          9.31372568e-02, 1.63398695e-03, 7.84313753e-02, 1.07843138e-01,
          8.82352963e-02, 3.43137272e-02, 7.51634017e-02, 8.16993490e-02,
          7.02614412e-02, 1.14379086e-01, 1.63398695e-03, 6.37254938e-02,
          1.89542487e-01, 2.81045765e-01, 2.79411763e-01, 2.50000000e-01,
          3.12091500e-01, 1.69934645e-01, 1.56862751e-01, 3.61111104e-01,
          2.00980395e-01, 2.90849686e-01, 1.74836606e-01, 2.95751631e-01,
          3.07189554e-01, 2.22222239e-01, 1.89542487e-01, 8.10457528e-01 ]
      - [ 6.04575165e-02, 1.96078438e-02, 1.63398695e-03, 1.07843138e-01,
          9.31372568e-02, 1.63398695e-03, 7.84313753e-02, 1.07843138e-01,
          8.82352963e-02, 3.43137272e-02, 7.51634017e-02, 8.16993490e-02,
          7.02614412e-02, 1.14379086e-01, 1.63398695e-03, 6.37254938e-02,
          1.89542487e-01, 2.81045765e-01, 2.79411763e-01, 2.50000000e-01,
          3.12091500e-01, 1.69934645e-01, 1.56862751e-01, 3.61111104e-01,
          2.00980395e-01, 2.90849686e-01, 1.74836606e-01, 2.95751631e-01,
          3.07189554e-01, 2.22222239e-01, 1.89542487e-01, 8.10457528e-01 ]
      - [ 6.04575165e-02, 1.96078438e-02, 1.63398695e-03, 1.07843138e-01,
          9.31372568e-02, 1.63398695e-03, 7.84313753e-02, 1.07843138e-01,
          8.82352963e-02, 3.43137272e-02, 7.51634017e-02, 8.16993490e-02,
          7.02614412e-02, 1.14379086e-01, 1.63398695e-03, 6.37254938e-02,
          1.89542487e-01, 2.81045765e-01, 2.79411763e-01, 2.50000000e-01,
          3.12091500e-01, 1.69934645e-01, 1.56862751e-01, 3.61111104e-01,
          2.00980395e-01, 2.90849686e-01, 1.74836606e-01, 2.95751631e-01,
          3.07189554e-01, 2.22222239e-01, 1.89542487e-01, 8.10457528e-01 ]
      - [ 6.04575165e-02, 1.96078438e-02, 1.63398695e-03, 1.07843138e-01,
          9.31372568e-02, 1.63398695e-03, 7.84313753e-02, 1.07843138e-01,
          8.82352963e-02, 3.43137272e-02, 7.51634017e-02, 8.16993490e-02,
          7.02614412e-02, 1.14379086e-01, 1.63398695e-03, 6.37254938e-02,
          1.89542487e-01, 2.81045765e-01, 2.79411763e-01, 2.50000000e-01,
          3.12091500e-01, 1.69934645e-01, 1.56862751e-01, 3.61111104e-01,
          2.00980395e-01, 2.90849686e-01, 1.74836606e-01, 2.95751631e-01,
          3.07189554e-01, 2.22222239e-01, 1.89542487e-01, 8.10457528e-01 ]
      - [ 8.90207738e-02, 0., 7.41839781e-03, 1.02373891e-01,
          8.75370950e-02, 0., 9.64391679e-02, 1.15727000e-01,
          7.86350146e-02, 7.71513358e-02, 6.37982190e-02, 7.41839781e-02,
          6.97329342e-02, 7.27002993e-02, 0., 6.52818978e-02,
          1.98813066e-01, 2.99703270e-01, 2.93768555e-01, 2.07715124e-01,
          3.24925810e-01, 1.49851635e-01, 1.67655781e-01, 3.57566774e-01,
          2.18100891e-01, 3.45697343e-01, 1.76557869e-01, 3.21958452e-01,
          2.98219591e-01, 2.03264087e-01, 2.37388730e-01, 7.62611270e-01 ]
      - [ 6.04575165e-02, 1.96078438e-02, 1.63398695e-03, 1.07843138e-01,
          9.31372568e-02, 1.63398695e-03, 7.84313753e-02, 1.07843138e-01,
          8.82352963e-02, 3.43137272e-02, 7.51634017e-02, 8.16993490e-02,
          7.02614412e-02, 1.14379086e-01, 1.63398695e-03, 6.37254938e-02,
          1.89542487e-01, 2.81045765e-01, 2.79411763e-01, 2.50000000e-01,
          3.12091500e-01, 1.69934645e-01, 1.56862751e-01, 3.61111104e-01,
          2.00980395e-01, 2.90849686e-01, 1.74836606e-01, 2.95751631e-01,
          3.07189554e-01, 2.22222239e-01, 1.89542487e-01, 8.10457528e-01 ]
      - [ 6.04575165e-02, 1.96078438e-02, 1.63398695e-03, 1.07843138e-01,
          9.31372568e-02, 1.63398695e-03, 7.84313753e-02, 1.07843138e-01,
          8.82352963e-02, 3.43137272e-02, 7.51634017e-02, 8.16993490e-02,
          7.02614412e-02, 1.14379086e-01, 1.63398695e-03, 6.37254938e-02,
          1.89542487e-01, 2.81045765e-01, 2.79411763e-01, 2.50000000e-01,
          3.12091500e-01, 1.69934645e-01, 1.56862751e-01, 3.61111104e-01,
          2.00980395e-01, 2.90849686e-01, 1.74836606e-01, 2.95751631e-01,
          3.07189554e-01, 2.22222239e-01, 1.89542487e-01, 8.10457528e-01 ]
      - [ 6.08365014e-02, 1.14068445e-02, 1.90114067e-03, 1.10266156e-01,
          1.04562737e-01, 0., 8.17490518e-02, 1.17870726e-01,
          8.93536136e-02, 3.42205316e-02, 7.60456249e-02, 7.60456249e-02,
          7.22433478e-02, 1.08365022e-01, 1.90114067e-03, 5.32319397e-02,
          1.84410647e-01, 3.04182529e-01, 2.75665402e-01, 2.35741451e-01,
          3.26996207e-01, 1.53992400e-01, 1.61596954e-01, 3.57414454e-01,
          1.90114066e-01, 2.98479080e-01, 1.76806077e-01, 3.11787069e-01,
          3.04182529e-01, 2.07224324e-01, 1.92015201e-01, 8.07984769e-01 ]
      - [ 8.67279917e-02, 0., 0., 4.20499332e-02, 8.54139253e-02,
          2.49671489e-02, 1.83968470e-02, 8.27858075e-02, 1.01182655e-01,
          1.02496713e-01, 8.01576898e-02, 9.06701684e-02, 4.59921174e-02,
          7.22733214e-02, 9.59264114e-02, 7.09592625e-02, 1.28777921e-01,
          2.11563736e-01, 3.74507219e-01, 2.85151124e-01, 3.19316685e-01,
          1.99737191e-01, 1.94480956e-01, 2.86465168e-01, 2.62812078e-01,
          2.08935618e-01, 1.97109073e-01, 1.43232584e-01, 3.21944803e-01,
          3.37713540e-01, 2.26018399e-01, 7.73981571e-01 ]
      - [ 8.67279917e-02, 0., 0., 4.20499332e-02, 8.54139253e-02,
          2.49671489e-02, 1.83968470e-02, 8.27858075e-02, 1.01182655e-01,
          1.02496713e-01, 8.01576898e-02, 9.06701684e-02, 4.59921174e-02,
          7.22733214e-02, 9.59264114e-02, 7.09592625e-02, 1.28777921e-01,
          2.11563736e-01, 3.74507219e-01, 2.85151124e-01, 3.19316685e-01,
          1.99737191e-01, 1.94480956e-01, 2.86465168e-01, 2.62812078e-01,
          2.08935618e-01, 1.97109073e-01, 1.43232584e-01, 3.21944803e-01,
          3.37713540e-01, 2.26018399e-01, 7.73981571e-01 ]
      - [ 8.67279917e-02, 0., 0., 4.20499332e-02, 8.54139253e-02,
          2.49671489e-02, 1.83968470e-02, 8.27858075e-02, 1.01182655e-01,
          1.02496713e-01, 8.01576898e-02, 9.06701684e-02, 4.59921174e-02,
          7.22733214e-02, 9.59264114e-02, 7.09592625e-02, 1.28777921e-01,
          2.11563736e-01, 3.74507219e-01, 2.85151124e-01, 3.19316685e-01,
          1.99737191e-01, 1.94480956e-01, 2.86465168e-01, 2.62812078e-01,
          2.08935618e-01, 1.97109073e-01, 1.43232584e-01, 3.21944803e-01,
          3.37713540e-01, 2.26018399e-01, 7.73981571e-01 ]
      - [ 8.67279917e-02, 0., 0., 4.20499332e-02, 8.54139253e-02,
          2.49671489e-02, 1.83968470e-02, 8.27858075e-02, 1.01182655e-01,
          1.02496713e-01, 8.01576898e-02, 9.06701684e-02, 4.59921174e-02,
          7.22733214e-02, 9.59264114e-02, 7.09592625e-02, 1.28777921e-01,
          2.11563736e-01, 3.74507219e-01, 2.85151124e-01, 3.19316685e-01,
          1.99737191e-01, 1.94480956e-01, 2.86465168e-01, 2.62812078e-01,
          2.08935618e-01, 1.97109073e-01, 1.43232584e-01, 3.21944803e-01,
          3.37713540e-01, 2.26018399e-01, 7.73981571e-01 ]
      - [ 8.67279917e-02, 0., 0., 4.20499332e-02, 8.54139253e-02,
          2.49671489e-02, 1.83968470e-02, 8.27858075e-02, 1.01182655e-01,
          1.02496713e-01, 8.01576898e-02, 9.06701684e-02, 4.59921174e-02,
          7.22733214e-02, 9.59264114e-02, 7.09592625e-02, 1.28777921e-01,
          2.11563736e-01, 3.74507219e-01, 2.85151124e-01, 3.19316685e-01,
          1.99737191e-01, 1.94480956e-01, 2.86465168e-01, 2.62812078e-01,
          2.08935618e-01, 1.97109073e-01, 1.43232584e-01, 3.21944803e-01,
          3.37713540e-01, 2.26018399e-01, 7.73981571e-01 ]
      - [ 8.67279917e-02, 0., 0., 4.20499332e-02, 8.54139253e-02,
          2.49671489e-02, 1.83968470e-02, 8.27858075e-02, 1.01182655e-01,
          1.02496713e-01, 8.01576898e-02, 9.06701684e-02, 4.59921174e-02,
          7.22733214e-02, 9.59264114e-02, 7.09592625e-02, 1.28777921e-01,
          2.11563736e-01, 3.74507219e-01, 2.85151124e-01, 3.19316685e-01,
          1.99737191e-01, 1.94480956e-01, 2.86465168e-01, 2.62812078e-01,
          2.08935618e-01, 1.97109073e-01, 1.43232584e-01, 3.21944803e-01,
          3.37713540e-01, 2.26018399e-01, 7.73981571e-01 ]
      - [ 8.67279917e-02, 0., 0., 4.20499332e-02, 8.54139253e-02,
          2.49671489e-02, 1.83968470e-02, 8.27858075e-02, 1.01182655e-01,
          1.02496713e-01, 8.01576898e-02, 9.06701684e-02, 4.59921174e-02,
          7.22733214e-02, 9.59264114e-02, 7.09592625e-02, 1.28777921e-01,
          2.11563736e-01, 3.74507219e-01, 2.85151124e-01, 3.19316685e-01,
          1.99737191e-01, 1.94480956e-01, 2.86465168e-01, 2.62812078e-01,
          2.08935618e-01, 1.97109073e-01, 1.43232584e-01, 3.21944803e-01,
          3.37713540e-01, 2.26018399e-01, 7.73981571e-01 ]
      - [ 8.67279917e-02, 0., 0., 4.20499332e-02, 8.54139253e-02,
          2.49671489e-02, 1.83968470e-02, 8.27858075e-02, 1.01182655e-01,
          1.02496713e-01, 8.01576898e-02, 9.06701684e-02, 4.59921174e-02,
          7.22733214e-02, 9.59264114e-02, 7.09592625e-02, 1.28777921e-01,
          2.11563736e-01, 3.74507219e-01, 2.85151124e-01, 3.19316685e-01,
          1.99737191e-01, 1.94480956e-01, 2.86465168e-01, 2.62812078e-01,
          2.08935618e-01, 1.97109073e-01, 1.43232584e-01, 3.21944803e-01,
          3.37713540e-01, 2.26018399e-01, 7.73981571e-01 ]
      - [ 8.67279917e-02, 0., 0., 4.20499332e-02, 8.54139253e-02,
          2.49671489e-02, 1.83968470e-02, 8.27858075e-02, 1.01182655e-01,
          1.02496713e-01, 8.01576898e-02, 9.06701684e-02, 4.59921174e-02,
          7.22733214e-02, 9.59264114e-02, 7.09592625e-02, 1.28777921e-01,
          2.11563736e-01, 3.74507219e-01, 2.85151124e-01, 3.19316685e-01,
          1.99737191e-01, 1.94480956e-01, 2.86465168e-01, 2.62812078e-01,
          2.08935618e-01, 1.97109073e-01, 1.43232584e-01, 3.21944803e-01,
          3.37713540e-01, 2.26018399e-01, 7.73981571e-01 ]
      - [ 8.67279917e-02, 0., 0., 4.20499332e-02, 8.54139253e-02,
          2.49671489e-02, 1.83968470e-02, 8.27858075e-02, 1.01182655e-01,
          1.02496713e-01, 8.01576898e-02, 9.06701684e-02, 4.59921174e-02,
          7.22733214e-02, 9.59264114e-02, 7.09592625e-02, 1.28777921e-01,
          2.11563736e-01, 3.74507219e-01, 2.85151124e-01, 3.19316685e-01,
          1.99737191e-01, 1.94480956e-01, 2.86465168e-01, 2.62812078e-01,
          2.08935618e-01, 1.97109073e-01, 1.43232584e-01, 3.21944803e-01,
          3.37713540e-01, 2.26018399e-01, 7.73981571e-01 ]
      - [ 1.81311015e-02, 6.69456050e-02, 1.04602508e-01, 3.76569033e-02,
          1.31101817e-01, 1.32496506e-01, 9.34449062e-02, 4.32357043e-02,
          5.29986061e-02, 1.25523014e-02, 7.11297095e-02, 1.31101817e-01,
          0., 0., 3.76569033e-02, 6.69456050e-02, 2.27336124e-01,
          4.00278926e-01, 2.67782420e-01, 1.04602508e-01, 2.02231526e-01,
          2.11994410e-01, 3.06834042e-01, 2.78940022e-01, 2.88702935e-01,
          1.43654108e-01, 3.48675042e-01, 2.78940022e-01, 6.55509084e-02,
          3.06834042e-01, 3.09623420e-01, 6.90376580e-01 ]
      - [ 1.81311015e-02, 6.69456050e-02, 1.04602508e-01, 3.76569033e-02,
          1.31101817e-01, 1.32496506e-01, 9.34449062e-02, 4.32357043e-02,
          5.29986061e-02, 1.25523014e-02, 7.11297095e-02, 1.31101817e-01,
          0., 0., 3.76569033e-02, 6.69456050e-02, 2.27336124e-01,
          4.00278926e-01, 2.67782420e-01, 1.04602508e-01, 2.02231526e-01,
          2.11994410e-01, 3.06834042e-01, 2.78940022e-01, 2.88702935e-01,
          1.43654108e-01, 3.48675042e-01, 2.78940022e-01, 6.55509084e-02,
          3.06834042e-01, 3.09623420e-01, 6.90376580e-01 ]
      - [ 1.81311015e-02, 6.69456050e-02, 1.04602508e-01, 3.76569033e-02,
          1.31101817e-01, 1.32496506e-01, 9.34449062e-02, 4.32357043e-02,
          5.29986061e-02, 1.25523014e-02, 7.11297095e-02, 1.31101817e-01,
          0., 0., 3.76569033e-02, 6.69456050e-02, 2.27336124e-01,
          4.00278926e-01, 2.67782420e-01, 1.04602508e-01, 2.02231526e-01,
          2.11994410e-01, 3.06834042e-01, 2.78940022e-01, 2.88702935e-01,
          1.43654108e-01, 3.48675042e-01, 2.78940022e-01, 6.55509084e-02,
          3.06834042e-01, 3.09623420e-01, 6.90376580e-01 ]
      - [ 1.70454551e-02, 6.81818202e-02, 1.07954547e-01, 3.69318165e-02,
          1.22159094e-01, 1.34943187e-01, 9.65909064e-02, 4.26136367e-02,
          5.11363633e-02, 1.42045459e-02, 7.24431798e-02, 1.29261360e-01,
          0., 0., 3.83522734e-02, 6.81818202e-02, 2.30113640e-01,
          3.96306813e-01, 2.67045438e-01, 1.06534094e-01, 1.90340906e-01,
          2.17329547e-01, 3.15340906e-01, 2.76988626e-01, 2.92613655e-01,
          1.47727266e-01, 3.42329562e-01, 2.84090906e-01, 6.53409064e-02,
          3.08238626e-01, 3.18181813e-01, 6.81818187e-01 ]
      - [ 1.81311015e-02, 6.69456050e-02, 1.04602508e-01, 3.76569033e-02,
          1.31101817e-01, 1.32496506e-01, 9.34449062e-02, 4.32357043e-02,
          5.29986061e-02, 1.25523014e-02, 7.11297095e-02, 1.31101817e-01,
          0., 0., 3.76569033e-02, 6.69456050e-02, 2.27336124e-01,
          4.00278926e-01, 2.67782420e-01, 1.04602508e-01, 2.02231526e-01,
          2.11994410e-01, 3.06834042e-01, 2.78940022e-01, 2.88702935e-01,
          1.43654108e-01, 3.48675042e-01, 2.78940022e-01, 6.55509084e-02,
          3.06834042e-01, 3.09623420e-01, 6.90376580e-01 ]
      - [ 1.81311015e-02, 6.69456050e-02, 1.04602508e-01, 3.76569033e-02,
          1.31101817e-01, 1.32496506e-01, 9.34449062e-02, 4.32357043e-02,
          5.29986061e-02, 1.25523014e-02, 7.11297095e-02, 1.31101817e-01,
          0., 0., 3.76569033e-02, 6.69456050e-02, 2.27336124e-01,
          4.00278926e-01, 2.67782420e-01, 1.04602508e-01, 2.02231526e-01,
          2.11994410e-01, 3.06834042e-01, 2.78940022e-01, 2.88702935e-01,
          1.43654108e-01, 3.48675042e-01, 2.78940022e-01, 6.55509084e-02,
          3.06834042e-01, 3.09623420e-01, 6.90376580e-01 ]
      - [ 1.81311015e-02, 6.69456050e-02, 1.04602508e-01, 3.76569033e-02,
          1.31101817e-01, 1.32496506e-01, 9.34449062e-02, 4.32357043e-02,
          5.29986061e-02, 1.25523014e-02, 7.11297095e-02, 1.31101817e-01,
          0., 0., 3.76569033e-02, 6.69456050e-02, 2.27336124e-01,
          4.00278926e-01, 2.67782420e-01, 1.04602508e-01, 2.02231526e-01,
          2.11994410e-01, 3.06834042e-01, 2.78940022e-01, 2.88702935e-01,
          1.43654108e-01, 3.48675042e-01, 2.78940022e-01, 6.55509084e-02,
          3.06834042e-01, 3.09623420e-01, 6.90376580e-01 ]
      - [ 1.81311015e-02, 6.69456050e-02, 1.04602508e-01, 3.76569033e-02,
          1.31101817e-01, 1.32496506e-01, 9.34449062e-02, 4.32357043e-02,
          5.29986061e-02, 1.25523014e-02, 7.11297095e-02, 1.31101817e-01,
          0., 0., 3.76569033e-02, 6.69456050e-02, 2.27336124e-01,
          4.00278926e-01, 2.67782420e-01, 1.04602508e-01, 2.02231526e-01,
          2.11994410e-01, 3.06834042e-01, 2.78940022e-01, 2.88702935e-01,
          1.43654108e-01, 3.48675042e-01, 2.78940022e-01, 6.55509084e-02,
          3.06834042e-01, 3.09623420e-01, 6.90376580e-01 ]
      - [ 1.81311015e-02, 6.69456050e-02, 1.04602508e-01, 3.76569033e-02,
          1.31101817e-01, 1.32496506e-01, 9.34449062e-02, 4.32357043e-02,
          5.29986061e-02, 1.25523014e-02, 7.11297095e-02, 1.31101817e-01,
          0., 0., 3.76569033e-02, 6.69456050e-02, 2.27336124e-01,
          4.00278926e-01, 2.67782420e-01, 1.04602508e-01, 2.02231526e-01,
          2.11994410e-01, 3.06834042e-01, 2.78940022e-01, 2.88702935e-01,
          1.43654108e-01, 3.48675042e-01, 2.78940022e-01, 6.55509084e-02,
          3.06834042e-01, 3.09623420e-01, 6.90376580e-01 ]
      - [ 1.81311015e-02, 6.69456050e-02, 1.04602508e-01, 3.76569033e-02,
          1.31101817e-01, 1.32496506e-01, 9.34449062e-02, 4.32357043e-02,
          5.29986061e-02, 1.25523014e-02, 7.11297095e-02, 1.31101817e-01,
          0., 0., 3.76569033e-02, 6.69456050e-02, 2.27336124e-01,
          4.00278926e-01, 2.67782420e-01, 1.04602508e-01, 2.02231526e-01,
          2.11994410e-01, 3.06834042e-01, 2.78940022e-01, 2.88702935e-01,
          1.43654108e-01, 3.48675042e-01, 2.78940022e-01, 6.55509084e-02,
          3.06834042e-01, 3.09623420e-01, 6.90376580e-01 ]
      - [ 9.75999981e-02, 1.16800003e-01, 5.92000000e-02, 6.08000010e-02,
          7.19999969e-02, 7.84000009e-02, 0., 7.36000016e-02,
          6.40000030e-02, 7.84000009e-02, 2.08000001e-02, 7.84000009e-02,
          5.27999997e-02, 2.08000001e-02, 9.44000036e-02, 3.20000015e-02,
          3.34399998e-01, 2.24000007e-01, 2.41600007e-01, 2.00000003e-01,
          2.86399990e-01, 2.94400007e-01, 1.74400002e-01, 2.44800001e-01,
          2.28799999e-01, 1.92000002e-01, 3.64800006e-01, 1.93599999e-01,
          2.16000006e-01, 2.25600004e-01, 1.77599996e-01, 8.22400033e-01 ]
      - [ 9.75999981e-02, 1.16800003e-01, 5.92000000e-02, 6.08000010e-02,
          7.19999969e-02, 7.84000009e-02, 0., 7.36000016e-02,
          6.40000030e-02, 7.84000009e-02, 2.08000001e-02, 7.84000009e-02,
          5.27999997e-02, 2.08000001e-02, 9.44000036e-02, 3.20000015e-02,
          3.34399998e-01, 2.24000007e-01, 2.41600007e-01, 2.00000003e-01,
          2.86399990e-01, 2.94400007e-01, 1.74400002e-01, 2.44800001e-01,
          2.28799999e-01, 1.92000002e-01, 3.64800006e-01, 1.93599999e-01,
          2.16000006e-01, 2.25600004e-01, 1.77599996e-01, 8.22400033e-01 ]
      - [ 9.75999981e-02, 1.16800003e-01, 5.92000000e-02, 6.08000010e-02,
          7.19999969e-02, 7.84000009e-02, 0., 7.36000016e-02,
          6.40000030e-02, 7.84000009e-02, 2.08000001e-02, 7.84000009e-02,
          5.27999997e-02, 2.08000001e-02, 9.44000036e-02, 3.20000015e-02,
          3.34399998e-01, 2.24000007e-01, 2.41600007e-01, 2.00000003e-01,
          2.86399990e-01, 2.94400007e-01, 1.74400002e-01, 2.44800001e-01,
          2.28799999e-01, 1.92000002e-01, 3.64800006e-01, 1.93599999e-01,
          2.16000006e-01, 2.25600004e-01, 1.77599996e-01, 8.22400033e-01 ]
      - [ 9.75999981e-02, 1.16800003e-01, 5.92000000e-02, 6.08000010e-02,
          7.19999969e-02, 7.84000009e-02, 0., 7.36000016e-02,
          6.40000030e-02, 7.84000009e-02, 2.08000001e-02, 7.84000009e-02,
          5.27999997e-02, 2.08000001e-02, 9.44000036e-02, 3.20000015e-02,
          3.34399998e-01, 2.24000007e-01, 2.41600007e-01, 2.00000003e-01,
          2.86399990e-01, 2.94400007e-01, 1.74400002e-01, 2.44800001e-01,
          2.28799999e-01, 1.92000002e-01, 3.64800006e-01, 1.93599999e-01,
          2.16000006e-01, 2.25600004e-01, 1.77599996e-01, 8.22400033e-01 ]
      - [ 9.75999981e-02, 1.16800003e-01, 5.92000000e-02, 6.08000010e-02,
          7.19999969e-02, 7.84000009e-02, 0., 7.36000016e-02,
          6.40000030e-02, 7.84000009e-02, 2.08000001e-02, 7.84000009e-02,
          5.27999997e-02, 2.08000001e-02, 9.44000036e-02, 3.20000015e-02,
          3.34399998e-01, 2.24000007e-01, 2.41600007e-01, 2.00000003e-01,
          2.86399990e-01, 2.94400007e-01, 1.74400002e-01, 2.44800001e-01,
          2.28799999e-01, 1.92000002e-01, 3.64800006e-01, 1.93599999e-01,
          2.16000006e-01, 2.25600004e-01, 1.77599996e-01, 8.22400033e-01 ]
      - [ 9.75999981e-02, 1.16800003e-01, 5.92000000e-02, 6.08000010e-02,
          7.19999969e-02, 7.84000009e-02, 0., 7.36000016e-02,
          6.40000030e-02, 7.84000009e-02, 2.08000001e-02, 7.84000009e-02,
          5.27999997e-02, 2.08000001e-02, 9.44000036e-02, 3.20000015e-02,
          3.34399998e-01, 2.24000007e-01, 2.41600007e-01, 2.00000003e-01,
          2.86399990e-01, 2.94400007e-01, 1.74400002e-01, 2.44800001e-01,
          2.28799999e-01, 1.92000002e-01, 3.64800006e-01, 1.93599999e-01,
          2.16000006e-01, 2.25600004e-01, 1.77599996e-01, 8.22400033e-01 ]
      - [ 9.75999981e-02, 1.16800003e-01, 5.92000000e-02, 6.08000010e-02,
          7.19999969e-02, 7.84000009e-02, 0., 7.36000016e-02,
          6.40000030e-02, 7.84000009e-02, 2.08000001e-02, 7.84000009e-02,
          5.27999997e-02, 2.08000001e-02, 9.44000036e-02, 3.20000015e-02,
          3.34399998e-01, 2.24000007e-01, 2.41600007e-01, 2.00000003e-01,
          2.86399990e-01, 2.94400007e-01, 1.74400002e-01, 2.44800001e-01,
          2.28799999e-01, 1.92000002e-01, 3.64800006e-01, 1.93599999e-01,
          2.16000006e-01, 2.25600004e-01, 1.77599996e-01, 8.22400033e-01 ]
      - [ 9.75999981e-02, 1.16800003e-01, 5.92000000e-02, 6.08000010e-02,
          7.19999969e-02, 7.84000009e-02, 0., 7.36000016e-02,
          6.40000030e-02, 7.84000009e-02, 2.08000001e-02, 7.84000009e-02,
          5.27999997e-02, 2.08000001e-02, 9.44000036e-02, 3.20000015e-02,
          3.34399998e-01, 2.24000007e-01, 2.41600007e-01, 2.00000003e-01,
          2.86399990e-01, 2.94400007e-01, 1.74400002e-01, 2.44800001e-01,
          2.28799999e-01, 1.92000002e-01, 3.64800006e-01, 1.93599999e-01,
          2.16000006e-01, 2.25600004e-01, 1.77599996e-01, 8.22400033e-01 ]
      - [ 9.75999981e-02, 1.16800003e-01, 5.92000000e-02, 6.08000010e-02,
          7.19999969e-02, 7.84000009e-02, 0., 7.36000016e-02,
          6.40000030e-02, 7.84000009e-02, 2.08000001e-02, 7.84000009e-02,
          5.27999997e-02, 2.08000001e-02, 9.44000036e-02, 3.20000015e-02,
          3.34399998e-01, 2.24000007e-01, 2.41600007e-01, 2.00000003e-01,
          2.86399990e-01, 2.94400007e-01, 1.74400002e-01, 2.44800001e-01,
          2.28799999e-01, 1.92000002e-01, 3.64800006e-01, 1.93599999e-01,
          2.16000006e-01, 2.25600004e-01, 1.77599996e-01, 8.22400033e-01 ]
      - [ 9.75999981e-02, 1.16800003e-01, 5.92000000e-02, 6.08000010e-02,
          7.19999969e-02, 7.84000009e-02, 0., 7.36000016e-02,
          6.40000030e-02, 7.84000009e-02, 2.08000001e-02, 7.84000009e-02,
          5.27999997e-02, 2.08000001e-02, 9.44000036e-02, 3.20000015e-02,
          3.34399998e-01, 2.24000007e-01, 2.41600007e-01, 2.00000003e-01,
          2.86399990e-01, 2.94400007e-01, 1.74400002e-01, 2.44800001e-01,
          2.28799999e-01, 1.92000002e-01, 3.64800006e-01, 1.93599999e-01,
          2.16000006e-01, 2.25600004e-01, 1.77599996e-01, 8.22400033e-01 ]
      - [ 4.66472320e-02, 1.03498541e-01, 1.04956269e-01, 5.39358594e-02,
          7.87172019e-02, 7.14285746e-02, 1.45772600e-03, 7.28862956e-02,
          7.87172019e-02, 6.70553967e-02, 4.37317789e-03, 7.87172019e-02,
          5.83090372e-02, 3.93586010e-02, 1.00583091e-01, 3.93586010e-02,
          3.09037894e-01, 2.24489793e-01, 2.28862971e-01, 2.37609327e-01,
          2.62390673e-01, 2.81341106e-01, 2.11370260e-01, 2.44897962e-01,
          1.61807582e-01, 1.80758014e-01, 3.00291538e-01, 2.33236149e-01,
          2.43440241e-01, 2.23032072e-01, 1.44314870e-01, 8.55685115e-01 ]
      - [ 5.21861762e-02, 1.07193232e-01, 1.12834975e-01, 5.07757403e-02,
          6.62905499e-02, 6.62905499e-02, 1.41043728e-03, 7.47531727e-02,
          6.77009895e-02, 6.48801103e-02, 1.41043728e-03, 6.77009895e-02,
          5.92383631e-02, 3.80818062e-02, 1.10014103e-01, 5.92383631e-02,
          3.22990119e-01, 2.08744705e-01, 2.01692522e-01, 2.66572624e-01,
          2.45416075e-01, 2.76445687e-01, 2.25669950e-01, 2.52468258e-01,
          1.79125533e-01, 1.76304653e-01, 2.91960508e-01, 2.39774331e-01,
          2.29901269e-01, 2.38363892e-01, 1.33991539e-01, 8.66008461e-01 ]
      - [ 4.66472320e-02, 1.03498541e-01, 1.04956269e-01, 5.39358594e-02,
          7.87172019e-02, 7.14285746e-02, 1.45772600e-03, 7.28862956e-02,
          7.87172019e-02, 6.70553967e-02, 4.37317789e-03, 7.87172019e-02,
          5.83090372e-02, 3.93586010e-02, 1.00583091e-01, 3.93586010e-02,
          3.09037894e-01, 2.24489793e-01, 2.28862971e-01, 2.37609327e-01,
          2.62390673e-01, 2.81341106e-01, 2.11370260e-01, 2.44897962e-01,
          1.61807582e-01, 1.80758014e-01, 3.00291538e-01, 2.33236149e-01,
          2.43440241e-01, 2.23032072e-01, 1.44314870e-01, 8.55685115e-01 ]
      - [ 5.56438789e-02, 1.11287758e-01, 1.06518283e-01, 5.72337061e-02,
          6.35930076e-02, 6.67726547e-02, 0., 7.15421289e-02,
          6.83624819e-02, 6.83624819e-02, 0., 6.99523017e-02,
          5.40540554e-02, 3.65659781e-02, 1.12877585e-01, 5.72337061e-02,
          3.30683619e-01, 2.01907784e-01, 2.06677258e-01, 2.60731339e-01,
          2.41653427e-01, 2.82988876e-01, 2.19395876e-01, 2.55961835e-01,
          1.79650247e-01, 1.79650247e-01, 2.97297299e-01, 2.35294119e-01,
          2.27344990e-01, 2.40063593e-01, 1.35135144e-01, 8.64864886e-01 ]
      - [ 5.67823350e-02, 1.11987382e-01, 9.77917984e-02, 5.20504750e-02,
          7.09779188e-02, 6.94006309e-02, 0., 7.41324946e-02,
          7.25552067e-02, 7.09779188e-02, 0., 7.09779188e-02,
          5.52050471e-02, 3.15457396e-02, 1.10410094e-01, 5.52050471e-02,
          3.18611979e-01, 2.14511037e-01, 2.14511037e-01, 2.52365917e-01,
          2.55520523e-01, 2.83911675e-01, 2.08201885e-01, 2.52365947e-01,
          1.81388021e-01, 1.78233445e-01, 3.09148252e-01, 2.23974764e-01,
          2.30283916e-01, 2.36593068e-01, 1.40378550e-01, 8.59621465e-01 ]
      - [ 4.66472320e-02, 1.03498541e-01, 1.04956269e-01, 5.39358594e-02,
          7.87172019e-02, 7.14285746e-02, 1.45772600e-03, 7.28862956e-02,
          7.87172019e-02, 6.70553967e-02, 4.37317789e-03, 7.87172019e-02,
          5.83090372e-02, 3.93586010e-02, 1.00583091e-01, 3.93586010e-02,
          3.09037894e-01, 2.24489793e-01, 2.28862971e-01, 2.37609327e-01,
          2.62390673e-01, 2.81341106e-01, 2.11370260e-01, 2.44897962e-01,
          1.61807582e-01, 1.80758014e-01, 3.00291538e-01, 2.33236149e-01,
          2.43440241e-01, 2.23032072e-01, 1.44314870e-01, 8.55685115e-01 ]
      - [ 4.66472320e-02, 1.03498541e-01, 1.04956269e-01, 5.39358594e-02,
          7.87172019e-02, 7.14285746e-02, 1.45772600e-03, 7.28862956e-02,
          7.87172019e-02, 6.70553967e-02, 4.37317789e-03, 7.87172019e-02,
          5.83090372e-02, 3.93586010e-02, 1.00583091e-01, 3.93586010e-02,
          3.09037894e-01, 2.24489793e-01, 2.28862971e-01, 2.37609327e-01,
          2.62390673e-01, 2.81341106e-01, 2.11370260e-01, 2.44897962e-01,
          1.61807582e-01, 1.80758014e-01, 3.00291538e-01, 2.33236149e-01,
          2.43440241e-01, 2.23032072e-01, 1.44314870e-01, 8.55685115e-01 ]
      - [ 4.66472320e-02, 1.03498541e-01, 1.04956269e-01, 5.39358594e-02,
          7.87172019e-02, 7.14285746e-02, 1.45772600e-03, 7.28862956e-02,
          7.87172019e-02, 6.70553967e-02, 4.37317789e-03, 7.87172019e-02,
          5.83090372e-02, 3.93586010e-02, 1.00583091e-01, 3.93586010e-02,
          3.09037894e-01, 2.24489793e-01, 2.28862971e-01, 2.37609327e-01,
          2.62390673e-01, 2.81341106e-01, 2.11370260e-01, 2.44897962e-01,
          1.61807582e-01, 1.80758014e-01, 3.00291538e-01, 2.33236149e-01,
          2.43440241e-01, 2.23032072e-01, 1.44314870e-01, 8.55685115e-01 ]
      - [ 4.66472320e-02, 1.03498541e-01, 1.04956269e-01, 5.39358594e-02,
          7.87172019e-02, 7.14285746e-02, 1.45772600e-03, 7.28862956e-02,
          7.87172019e-02, 6.70553967e-02, 4.37317789e-03, 7.87172019e-02,
          5.83090372e-02, 3.93586010e-02, 1.00583091e-01, 3.93586010e-02,
          3.09037894e-01, 2.24489793e-01, 2.28862971e-01, 2.37609327e-01,
          2.62390673e-01, 2.81341106e-01, 2.11370260e-01, 2.44897962e-01,
          1.61807582e-01, 1.80758014e-01, 3.00291538e-01, 2.33236149e-01,
          2.43440241e-01, 2.23032072e-01, 1.44314870e-01, 8.55685115e-01 ]
      - [ 4.66472320e-02, 1.03498541e-01, 1.04956269e-01, 5.39358594e-02,
          7.87172019e-02, 7.14285746e-02, 1.45772600e-03, 7.28862956e-02,
          7.87172019e-02, 6.70553967e-02, 4.37317789e-03, 7.87172019e-02,
          5.83090372e-02, 3.93586010e-02, 1.00583091e-01, 3.93586010e-02,
          3.09037894e-01, 2.24489793e-01, 2.28862971e-01, 2.37609327e-01,
          2.62390673e-01, 2.81341106e-01, 2.11370260e-01, 2.44897962e-01,
          1.61807582e-01, 1.80758014e-01, 3.00291538e-01, 2.33236149e-01,
          2.43440241e-01, 2.23032072e-01, 1.44314870e-01, 8.55685115e-01 ]
      - [ 1.43362835e-01, 0., 5.30973449e-03, 9.38053131e-02,
          9.02654901e-02, 1.76991150e-02, 1.32743359e-01, 7.25663751e-02,
          1.15044251e-01, 1.38053104e-01, 4.24778759e-02, 0.,
          1.25663713e-01, 2.30088495e-02, 0., 0., 2.42477879e-01,
          3.13274324e-01, 2.95575231e-01, 1.48672566e-01, 4.74336296e-01,
          1.78761065e-01, 1.80530965e-01, 1.66371688e-01, 2.03539819e-01,
          4.90265489e-01, 2.51327455e-01, 3.04424793e-01, 4.01769906e-01,
          4.24778759e-02, 3.30973446e-01, 6.69026554e-01 ]
      - [ 1.43362835e-01, 0., 5.30973449e-03, 9.38053131e-02,
          9.02654901e-02, 1.76991150e-02, 1.32743359e-01, 7.25663751e-02,
          1.15044251e-01, 1.38053104e-01, 4.24778759e-02, 0.,
          1.25663713e-01, 2.30088495e-02, 0., 0., 2.42477879e-01,
          3.13274324e-01, 2.95575231e-01, 1.48672566e-01, 4.74336296e-01,
          1.78761065e-01, 1.80530965e-01, 1.66371688e-01, 2.03539819e-01,
          4.90265489e-01, 2.51327455e-01, 3.04424793e-01, 4.01769906e-01,
          4.24778759e-02, 3.30973446e-01, 6.69026554e-01 ]
      - [ 1.43362835e-01, 0., 5.30973449e-03, 9.38053131e-02,
          9.02654901e-02, 1.76991150e-02, 1.32743359e-01, 7.25663751e-02,
          1.15044251e-01, 1.38053104e-01, 4.24778759e-02, 0.,
          1.25663713e-01, 2.30088495e-02, 0., 0., 2.42477879e-01,
          3.13274324e-01, 2.95575231e-01, 1.48672566e-01, 4.74336296e-01,
          1.78761065e-01, 1.80530965e-01, 1.66371688e-01, 2.03539819e-01,
          4.90265489e-01, 2.51327455e-01, 3.04424793e-01, 4.01769906e-01,
          4.24778759e-02, 3.30973446e-01, 6.69026554e-01 ]
      - [ 1.43362835e-01, 0., 5.30973449e-03, 9.38053131e-02,
          9.02654901e-02, 1.76991150e-02, 1.32743359e-01, 7.25663751e-02,
          1.15044251e-01, 1.38053104e-01, 4.24778759e-02, 0.,
          1.25663713e-01, 2.30088495e-02, 0., 0., 2.42477879e-01,
          3.13274324e-01, 2.95575231e-01, 1.48672566e-01, 4.74336296e-01,
          1.78761065e-01, 1.80530965e-01, 1.66371688e-01, 2.03539819e-01,
          4.90265489e-01, 2.51327455e-01, 3.04424793e-01, 4.01769906e-01,
          4.24778759e-02, 3.30973446e-01, 6.69026554e-01 ]
      - [ 1.43362835e-01, 0., 5.30973449e-03, 9.38053131e-02,
          9.02654901e-02, 1.76991150e-02, 1.32743359e-01, 7.25663751e-02,
          1.15044251e-01, 1.38053104e-01, 4.24778759e-02, 0.,
          1.25663713e-01, 2.30088495e-02, 0., 0., 2.42477879e-01,
          3.13274324e-01, 2.95575231e-01, 1.48672566e-01, 4.74336296e-01,
          1.78761065e-01, 1.80530965e-01, 1.66371688e-01, 2.03539819e-01,
          4.90265489e-01, 2.51327455e-01, 3.04424793e-01, 4.01769906e-01,
          4.24778759e-02, 3.30973446e-01, 6.69026554e-01 ]
      - [ 1.49532706e-01, 2.99065430e-02, 1.86915894e-03, 9.15887877e-02,
          9.53271016e-02, 5.60747646e-03, 1.25233650e-01, 5.79439253e-02,
          1.12149529e-01, 1.30841121e-01, 4.11214940e-02, 0.,
          1.32710278e-01, 2.61682235e-02, 0., 0., 2.72897184e-01,
          2.84112155e-01, 2.84112155e-01, 1.58878505e-01, 4.89719629e-01,
          1.92523360e-01, 1.68224305e-01, 1.49532706e-01, 1.96261674e-01,
          4.80373830e-01, 2.80373812e-01, 2.76635528e-01, 4.01869148e-01,
          4.11214940e-02, 3.02803755e-01, 6.97196245e-01 ]
      - [ 1.49532706e-01, 2.99065430e-02, 1.86915894e-03, 9.15887877e-02,
          9.53271016e-02, 5.60747646e-03, 1.25233650e-01, 5.79439253e-02,
          1.12149529e-01, 1.30841121e-01, 4.11214940e-02, 0.,
          1.32710278e-01, 2.61682235e-02, 0., 0., 2.72897184e-01,
          2.84112155e-01, 2.84112155e-01, 1.58878505e-01, 4.89719629e-01,
          1.92523360e-01, 1.68224305e-01, 1.49532706e-01, 1.96261674e-01,
          4.80373830e-01, 2.80373812e-01, 2.76635528e-01, 4.01869148e-01,
          4.11214940e-02, 3.02803755e-01, 6.97196245e-01 ]
      - [ 1.49532706e-01, 2.99065430e-02, 1.86915894e-03, 9.15887877e-02,
          9.53271016e-02, 5.60747646e-03, 1.25233650e-01, 5.79439253e-02,
          1.12149529e-01, 1.30841121e-01, 4.11214940e-02, 0.,
          1.32710278e-01, 2.61682235e-02, 0., 0., 2.72897184e-01,
          2.84112155e-01, 2.84112155e-01, 1.58878505e-01, 4.89719629e-01,
          1.92523360e-01, 1.68224305e-01, 1.49532706e-01, 1.96261674e-01,
          4.80373830e-01, 2.80373812e-01, 2.76635528e-01, 4.01869148e-01,
          4.11214940e-02, 3.02803755e-01, 6.97196245e-01 ]
      - [ 1.49532706e-01, 2.99065430e-02, 1.86915894e-03, 9.15887877e-02,
          9.53271016e-02, 5.60747646e-03, 1.25233650e-01, 5.79439253e-02,
          1.12149529e-01, 1.30841121e-01, 4.11214940e-02, 0.,
          1.32710278e-01, 2.61682235e-02, 0., 0., 2.72897184e-01,
          2.84112155e-01, 2.84112155e-01, 1.58878505e-01, 4.89719629e-01,
          1.92523360e-01, 1.68224305e-01, 1.49532706e-01, 1.96261674e-01,
          4.80373830e-01, 2.80373812e-01, 2.76635528e-01, 4.01869148e-01,
          4.11214940e-02, 3.02803755e-01, 6.97196245e-01 ]
      - [ 1.49532706e-01, 2.99065430e-02, 1.86915894e-03, 9.15887877e-02,
          9.53271016e-02, 5.60747646e-03, 1.25233650e-01, 5.79439253e-02,
          1.12149529e-01, 1.30841121e-01, 4.11214940e-02, 0.,
          1.32710278e-01, 2.61682235e-02, 0., 0., 2.72897184e-01,
          2.84112155e-01, 2.84112155e-01, 1.58878505e-01, 4.89719629e-01,
          1.92523360e-01, 1.68224305e-01, 1.49532706e-01, 1.96261674e-01,
          4.80373830e-01, 2.80373812e-01, 2.76635528e-01, 4.01869148e-01,
          4.11214940e-02, 3.02803755e-01, 6.97196245e-01 ]
      - [ 5.10638282e-02, 7.23404288e-02, 1.07801415e-01, 5.67375869e-02,
          7.09219873e-02, 7.37588629e-02, 1.41843967e-03, 6.52482286e-02,
          7.37588629e-02, 8.08510631e-02, 2.83687934e-03, 6.80851042e-02,
          4.68085110e-02, 6.52482286e-02, 1.03546098e-01, 5.95744699e-02,
          2.87943244e-01, 2.11347520e-01, 2.25531906e-01, 2.75177300e-01,
          2.42553189e-01, 2.92198598e-01, 2.15602830e-01, 2.49645382e-01,
          1.87234044e-01, 1.85815603e-01, 2.68085122e-01, 2.31205672e-01,
          2.66666651e-01, 2.34042555e-01, 1.58865243e-01, 8.41134727e-01 ]
      - [ 5.29634282e-02, 6.80958405e-02, 1.08448930e-01, 5.54854982e-02,
          7.56620392e-02, 7.18789399e-02, 6.30517025e-03, 6.68348074e-02,
          7.56620392e-02, 7.94451460e-02, 6.30517025e-03, 6.68348074e-02,
          4.28751558e-02, 5.80075644e-02, 1.05926856e-01, 5.92686012e-02,
          2.84993708e-01, 2.20680952e-01, 2.28247166e-01, 2.66078174e-01,
          2.47162670e-01, 2.77427495e-01, 2.26986125e-01, 2.48423710e-01,
          1.90416142e-01, 1.84110969e-01, 2.68600255e-01, 2.37074405e-01,
          2.55989909e-01, 2.38335431e-01, 1.63934425e-01, 8.36065590e-01 ]
      - [ 3.82352956e-02, 6.02941178e-02, 1.07352942e-01, 6.32352978e-02,
          7.64705911e-02, 8.67647082e-02, 5.88235306e-03, 6.32352978e-02,
          7.05882385e-02, 7.35294148e-02, 5.88235306e-03, 6.61764741e-02,
          5.44117652e-02, 6.02941178e-02, 1.08823530e-01, 5.88235296e-02,
          2.69117653e-01, 2.32352957e-01, 2.16176480e-01, 2.82352954e-01,
          2.39705890e-01, 2.80882359e-01, 2.27941185e-01, 2.51470596e-01,
          1.89705893e-01, 1.97058827e-01, 2.61764705e-01, 2.39705890e-01,
          2.58823544e-01, 2.39705890e-01, 1.72058836e-01, 8.27941179e-01 ]
      - [ 5.09915017e-02, 7.22379610e-02, 1.07648723e-01, 5.66572249e-02,
          7.22379610e-02, 7.36543909e-02, 1.41643058e-03, 6.51558042e-02,
          7.36543909e-02, 8.07365403e-02, 2.83286115e-03, 6.79886714e-02,
          4.67422083e-02, 6.51558042e-02, 1.03399433e-01, 5.94900846e-02,
          2.87535399e-01, 2.12464586e-01, 2.25212470e-01, 2.74787545e-01,
          2.43626058e-01, 2.91784704e-01, 2.15297446e-01, 2.49291778e-01,
          1.86968833e-01, 1.85552403e-01, 2.69121826e-01, 2.30878189e-01,
          2.66288936e-01, 2.33711049e-01, 1.58640221e-01, 8.41359794e-01 ]
      - [ 5.09915017e-02, 7.22379610e-02, 1.07648723e-01, 5.66572249e-02,
          7.22379610e-02, 7.36543909e-02, 1.41643058e-03, 6.51558042e-02,
          7.36543909e-02, 8.07365403e-02, 2.83286115e-03, 6.79886714e-02,
          4.67422083e-02, 6.51558042e-02, 1.03399433e-01, 5.94900846e-02,
          2.87535399e-01, 2.12464586e-01, 2.25212470e-01, 2.74787545e-01,
          2.43626058e-01, 2.91784704e-01, 2.15297446e-01, 2.49291778e-01,
          1.86968833e-01, 1.85552403e-01, 2.69121826e-01, 2.30878189e-01,
          2.66288936e-01, 2.33711049e-01, 1.58640221e-01, 8.41359794e-01 ]
      - [ 5.09915017e-02, 7.22379610e-02, 1.07648723e-01, 5.66572249e-02,
          7.22379610e-02, 7.36543909e-02, 1.41643058e-03, 6.51558042e-02,
          7.36543909e-02, 8.07365403e-02, 2.83286115e-03, 6.79886714e-02,
          4.67422083e-02, 6.51558042e-02, 1.03399433e-01, 5.94900846e-02,
          2.87535399e-01, 2.12464586e-01, 2.25212470e-01, 2.74787545e-01,
          2.43626058e-01, 2.91784704e-01, 2.15297446e-01, 2.49291778e-01,
          1.86968833e-01, 1.85552403e-01, 2.69121826e-01, 2.30878189e-01,
          2.66288936e-01, 2.33711049e-01, 1.58640221e-01, 8.41359794e-01 ]
      - [ 5.09915017e-02, 7.22379610e-02, 1.07648723e-01, 5.66572249e-02,
          7.22379610e-02, 7.36543909e-02, 1.41643058e-03, 6.51558042e-02,
          7.36543909e-02, 8.07365403e-02, 2.83286115e-03, 6.79886714e-02,
          4.67422083e-02, 6.51558042e-02, 1.03399433e-01, 5.94900846e-02,
          2.87535399e-01, 2.12464586e-01, 2.25212470e-01, 2.74787545e-01,
          2.43626058e-01, 2.91784704e-01, 2.15297446e-01, 2.49291778e-01,
          1.86968833e-01, 1.85552403e-01, 2.69121826e-01, 2.30878189e-01,
          2.66288936e-01, 2.33711049e-01, 1.58640221e-01, 8.41359794e-01 ]
      - [ 5.21091819e-02, 7.19603002e-02, 1.07940450e-01, 5.21091819e-02,
          7.32009932e-02, 7.07195997e-02, 7.44416891e-03, 6.69975206e-02,
          7.44416863e-02, 7.81637728e-02, 6.20347401e-03, 6.82382137e-02,
          4.34243195e-02, 6.20347410e-02, 1.07940450e-01, 5.70719615e-02,
          2.84119129e-01, 2.18362287e-01, 2.27047145e-01, 2.70471483e-01,
          2.43176177e-01, 2.82878399e-01, 2.29528546e-01, 2.44416878e-01,
          1.86104223e-01, 1.81141436e-01, 2.67990083e-01, 2.34491318e-01,
          2.58064508e-01, 2.39454105e-01, 1.62531018e-01, 8.37468982e-01 ]
      - [ 4.79274616e-02, 6.47668391e-02, 9.84455943e-02, 5.82901537e-02,
          7.38341957e-02, 7.38341957e-02, 6.47668401e-03, 6.73575103e-02,
          7.90155455e-02, 8.03108811e-02, 7.77202053e-03, 7.12435246e-02,
          4.66321260e-02, 6.47668391e-02, 1.06217615e-01, 5.31088077e-02,
          2.69430041e-01, 2.21502587e-01, 2.38341972e-01, 2.70725399e-01,
          2.47409329e-01, 2.83678770e-01, 2.18911916e-01, 2.50000000e-01,
          1.82642490e-01, 1.91709846e-01, 2.60362685e-01, 2.30569944e-01,
          2.70725399e-01, 2.38341972e-01, 1.68393776e-01, 8.31606209e-01 ]
      - [ 4.57516350e-02, 6.01307191e-02, 1.04575165e-01, 5.09803928e-02,
          7.58169964e-02, 7.71241859e-02, 9.15032718e-03, 7.05882385e-02,
          7.71241859e-02, 7.84313753e-02, 5.22875832e-03, 7.05882385e-02,
          4.96732034e-02, 6.40522912e-02, 1.04575165e-01, 5.62091507e-02,
          2.61437923e-01, 2.32679754e-01, 2.31372565e-01, 2.74509817e-01,
          2.48366028e-01, 2.79738575e-01, 2.23529413e-01, 2.48366028e-01,
          1.84313729e-01, 1.88235298e-01, 2.58823544e-01, 2.35294119e-01,
          2.69281060e-01, 2.36601308e-01, 1.69934645e-01, 8.30065370e-01 ]
      - [ 5.83090372e-02, 1.15160353e-01, 3.79008763e-02, 5.83090372e-02,
          7.14285746e-02, 4.37317789e-03, 6.55976683e-02, 7.14285746e-02,
          6.41399398e-02, 1.45772600e-03, 6.70553967e-02, 6.70553967e-02,
          5.68513125e-02, 9.91253629e-02, 1.10787176e-01, 5.10204099e-02,
          2.69679308e-01, 2.12827995e-01, 1.99708462e-01, 3.17784250e-01,
          2.50728875e-01, 2.20116615e-01, 2.81341106e-01, 2.47813419e-01,
          1.80758029e-01, 1.82215750e-01, 2.49271140e-01, 2.33236164e-01,
          2.21574336e-01, 2.95918375e-01, 1.38483971e-01, 8.61516058e-01 ]
      - [ 5.83090372e-02, 1.15160353e-01, 3.79008763e-02, 5.83090372e-02,
          7.14285746e-02, 4.37317789e-03, 6.55976683e-02, 7.14285746e-02,
          6.41399398e-02, 1.45772600e-03, 6.70553967e-02, 6.70553967e-02,
          5.68513125e-02, 9.91253629e-02, 1.10787176e-01, 5.10204099e-02,
          2.69679308e-01, 2.12827995e-01, 1.99708462e-01, 3.17784250e-01,
          2.50728875e-01, 2.20116615e-01, 2.81341106e-01, 2.47813419e-01,
          1.80758029e-01, 1.82215750e-01, 2.49271140e-01, 2.33236164e-01,
          2.21574336e-01, 2.95918375e-01, 1.38483971e-01, 8.61516058e-01 ]
      - [ 5.83090372e-02, 1.15160353e-01, 3.79008763e-02, 5.83090372e-02,
          7.14285746e-02, 4.37317789e-03, 6.55976683e-02, 7.14285746e-02,
          6.41399398e-02, 1.45772600e-03, 6.70553967e-02, 6.70553967e-02,
          5.68513125e-02, 9.91253629e-02, 1.10787176e-01, 5.10204099e-02,
          2.69679308e-01, 2.12827995e-01, 1.99708462e-01, 3.17784250e-01,
          2.50728875e-01, 2.20116615e-01, 2.81341106e-01, 2.47813419e-01,
          1.80758029e-01, 1.82215750e-01, 2.49271140e-01, 2.33236164e-01,
          2.21574336e-01, 2.95918375e-01, 1.38483971e-01, 8.61516058e-01 ]
      - [ 5.83090372e-02, 1.15160353e-01, 3.79008763e-02, 5.83090372e-02,
          7.14285746e-02, 4.37317789e-03, 6.55976683e-02, 7.14285746e-02,
          6.41399398e-02, 1.45772600e-03, 6.70553967e-02, 6.70553967e-02,
          5.68513125e-02, 9.91253629e-02, 1.10787176e-01, 5.10204099e-02,
          2.69679308e-01, 2.12827995e-01, 1.99708462e-01, 3.17784250e-01,
          2.50728875e-01, 2.20116615e-01, 2.81341106e-01, 2.47813419e-01,
          1.80758029e-01, 1.82215750e-01, 2.49271140e-01, 2.33236164e-01,
          2.21574336e-01, 2.95918375e-01, 1.38483971e-01, 8.61516058e-01 ]
      - [ 5.95238097e-02, 1.04497358e-01, 3.57142873e-02, 4.89417985e-02,
          7.01058209e-02, 3.96825420e-03, 6.08465597e-02, 7.27513209e-02,
          7.01058209e-02, 3.96825420e-03, 6.21693134e-02, 7.27513209e-02,
          5.82010597e-02, 1.07142858e-01, 1.11111112e-01, 5.82010597e-02,
          2.48677254e-01, 2.07671955e-01, 2.08994716e-01, 3.34656090e-01,
          2.57936507e-01, 2.19576731e-01, 2.69841284e-01, 2.52645493e-01,
          1.83862433e-01, 1.71957672e-01, 2.38095239e-01, 2.18253970e-01,
          2.39418000e-01, 3.04232806e-01, 1.30952388e-01, 8.69047642e-01 ]
      - [ 5.95238097e-02, 1.04497358e-01, 3.57142873e-02, 4.89417985e-02,
          7.01058209e-02, 3.96825420e-03, 6.08465597e-02, 7.27513209e-02,
          7.01058209e-02, 3.96825420e-03, 6.21693134e-02, 7.27513209e-02,
          5.82010597e-02, 1.07142858e-01, 1.11111112e-01, 5.82010597e-02,
          2.48677254e-01, 2.07671955e-01, 2.08994716e-01, 3.34656090e-01,
          2.57936507e-01, 2.19576731e-01, 2.69841284e-01, 2.52645493e-01,
          1.83862433e-01, 1.71957672e-01, 2.38095239e-01, 2.18253970e-01,
          2.39418000e-01, 3.04232806e-01, 1.30952388e-01, 8.69047642e-01 ]
      - [ 5.83090372e-02, 1.15160353e-01, 3.79008763e-02, 5.83090372e-02,
          7.14285746e-02, 4.37317789e-03, 6.55976683e-02, 7.14285746e-02,
          6.41399398e-02, 1.45772600e-03, 6.70553967e-02, 6.70553967e-02,
          5.68513125e-02, 9.91253629e-02, 1.10787176e-01, 5.10204099e-02,
          2.69679308e-01, 2.12827995e-01, 1.99708462e-01, 3.17784250e-01,
          2.50728875e-01, 2.20116615e-01, 2.81341106e-01, 2.47813419e-01,
          1.80758029e-01, 1.82215750e-01, 2.49271140e-01, 2.33236164e-01,
          2.21574336e-01, 2.95918375e-01, 1.38483971e-01, 8.61516058e-01 ]
      - [ 5.83090372e-02, 1.15160353e-01, 3.79008763e-02, 5.83090372e-02,
          7.14285746e-02, 4.37317789e-03, 6.55976683e-02, 7.14285746e-02,
          6.41399398e-02, 1.45772600e-03, 6.70553967e-02, 6.70553967e-02,
          5.68513125e-02, 9.91253629e-02, 1.10787176e-01, 5.10204099e-02,
          2.69679308e-01, 2.12827995e-01, 1.99708462e-01, 3.17784250e-01,
          2.50728875e-01, 2.20116615e-01, 2.81341106e-01, 2.47813419e-01,
          1.80758029e-01, 1.82215750e-01, 2.49271140e-01, 2.33236164e-01,
          2.21574336e-01, 2.95918375e-01, 1.38483971e-01, 8.61516058e-01 ]
      - [ 5.83090372e-02, 1.15160353e-01, 3.79008763e-02, 5.83090372e-02,
          7.14285746e-02, 4.37317789e-03, 6.55976683e-02, 7.14285746e-02,
          6.41399398e-02, 1.45772600e-03, 6.70553967e-02, 6.70553967e-02,
          5.68513125e-02, 9.91253629e-02, 1.10787176e-01, 5.10204099e-02,
          2.69679308e-01, 2.12827995e-01, 1.99708462e-01, 3.17784250e-01,
          2.50728875e-01, 2.20116615e-01, 2.81341106e-01, 2.47813419e-01,
          1.80758029e-01, 1.82215750e-01, 2.49271140e-01, 2.33236164e-01,
          2.21574336e-01, 2.95918375e-01, 1.38483971e-01, 8.61516058e-01 ]
      - [ 5.83090372e-02, 1.15160353e-01, 3.79008763e-02, 5.83090372e-02,
          7.14285746e-02, 4.37317789e-03, 6.55976683e-02, 7.14285746e-02,
          6.41399398e-02, 1.45772600e-03, 6.70553967e-02, 6.70553967e-02,
          5.68513125e-02, 9.91253629e-02, 1.10787176e-01, 5.10204099e-02,
          2.69679308e-01, 2.12827995e-01, 1.99708462e-01, 3.17784250e-01,
          2.50728875e-01, 2.20116615e-01, 2.81341106e-01, 2.47813419e-01,
          1.80758029e-01, 1.82215750e-01, 2.49271140e-01, 2.33236164e-01,
          2.21574336e-01, 2.95918375e-01, 1.38483971e-01, 8.61516058e-01 ]
      - [ 0., 3.18471342e-03, 5.41401282e-02, 1.05095543e-01,
          9.55414027e-02, 1.13057323e-01, 1.06687896e-01, 4.77707013e-03,
          1.24203824e-01, 9.71337557e-02, 9.71337557e-02, 4.77707013e-03,
          0., 1.59235671e-02, 7.00636953e-02, 1.08280256e-01,
          1.62420392e-01, 3.20063680e-01, 3.23248416e-01, 1.94267511e-01,
          2.19745219e-01, 2.29299366e-01, 3.28025460e-01, 2.22929940e-01,
          3.18471342e-01, 3.08917195e-01, 2.11783439e-01, 2.70700634e-01,
          2.37261146e-01, 2.80254781e-01, 4.14012730e-01, 5.85987270e-01 ]
      - [ 0., 3.18471342e-03, 5.41401282e-02, 1.05095543e-01,
          9.55414027e-02, 1.13057323e-01, 1.06687896e-01, 4.77707013e-03,
          1.24203824e-01, 9.71337557e-02, 9.71337557e-02, 4.77707013e-03,
          0., 1.59235671e-02, 7.00636953e-02, 1.08280256e-01,
          1.62420392e-01, 3.20063680e-01, 3.23248416e-01, 1.94267511e-01,
          2.19745219e-01, 2.29299366e-01, 3.28025460e-01, 2.22929940e-01,
          3.18471342e-01, 3.08917195e-01, 2.11783439e-01, 2.70700634e-01,
          2.37261146e-01, 2.80254781e-01, 4.14012730e-01, 5.85987270e-01 ]
      - [ 0., 3.18471342e-03, 5.41401282e-02, 1.05095543e-01,
          9.55414027e-02, 1.13057323e-01, 1.06687896e-01, 4.77707013e-03,
          1.24203824e-01, 9.71337557e-02, 9.71337557e-02, 4.77707013e-03,
          0., 1.59235671e-02, 7.00636953e-02, 1.08280256e-01,
          1.62420392e-01, 3.20063680e-01, 3.23248416e-01, 1.94267511e-01,
          2.19745219e-01, 2.29299366e-01, 3.28025460e-01, 2.22929940e-01,
          3.18471342e-01, 3.08917195e-01, 2.11783439e-01, 2.70700634e-01,
          2.37261146e-01, 2.80254781e-01, 4.14012730e-01, 5.85987270e-01 ]
      - [ 0., 3.18471342e-03, 5.41401282e-02, 1.05095543e-01,
          9.55414027e-02, 1.13057323e-01, 1.06687896e-01, 4.77707013e-03,
          1.24203824e-01, 9.71337557e-02, 9.71337557e-02, 4.77707013e-03,
          0., 1.59235671e-02, 7.00636953e-02, 1.08280256e-01,
          1.62420392e-01, 3.20063680e-01, 3.23248416e-01, 1.94267511e-01,
          2.19745219e-01, 2.29299366e-01, 3.28025460e-01, 2.22929940e-01,
          3.18471342e-01, 3.08917195e-01, 2.11783439e-01, 2.70700634e-01,
          2.37261146e-01, 2.80254781e-01, 4.14012730e-01, 5.85987270e-01 ]
      - [ 0., 3.23101785e-03, 4.68497574e-02, 1.06623590e-01,
          8.56219679e-02, 1.24394186e-01, 1.09854601e-01, 2.10016146e-02,
          9.36995149e-02, 1.26009688e-01, 1.16316639e-01, 3.23101766e-02,
          0., 0., 4.03877236e-02, 9.36995149e-02, 1.56704366e-01,
          3.40872377e-01, 3.68336022e-01, 1.34087235e-01, 1.79321483e-01,
          2.53634900e-01, 3.13408732e-01, 2.53634900e-01, 3.34410340e-01,
          3.42487872e-01, 2.13247165e-01, 2.84329563e-01, 2.19709203e-01,
          2.82714069e-01, 4.76575106e-01, 5.23424864e-01 ]
      - [ 0., 3.23101785e-03, 4.68497574e-02, 1.06623590e-01,
          8.56219679e-02, 1.24394186e-01, 1.09854601e-01, 2.10016146e-02,
          9.36995149e-02, 1.26009688e-01, 1.16316639e-01, 3.23101766e-02,
          0., 0., 4.03877236e-02, 9.36995149e-02, 1.56704366e-01,
          3.40872377e-01, 3.68336022e-01, 1.34087235e-01, 1.79321483e-01,
          2.53634900e-01, 3.13408732e-01, 2.53634900e-01, 3.34410340e-01,
          3.42487872e-01, 2.13247165e-01, 2.84329563e-01, 2.19709203e-01,
          2.82714069e-01, 4.76575106e-01, 5.23424864e-01 ]
      - [ 0., 3.23101785e-03, 4.68497574e-02, 1.06623590e-01,
          8.56219679e-02, 1.24394186e-01, 1.09854601e-01, 2.10016146e-02,
          9.36995149e-02, 1.26009688e-01, 1.16316639e-01, 3.23101766e-02,
          0., 0., 4.03877236e-02, 9.36995149e-02, 1.56704366e-01,
          3.40872377e-01, 3.68336022e-01, 1.34087235e-01, 1.79321483e-01,
          2.53634900e-01, 3.13408732e-01, 2.53634900e-01, 3.34410340e-01,
          3.42487872e-01, 2.13247165e-01, 2.84329563e-01, 2.19709203e-01,
          2.82714069e-01, 4.76575106e-01, 5.23424864e-01 ]
      - [ 0., 2.78551527e-03, 3.89972143e-02, 8.91364887e-02,
          7.66016692e-02, 1.22562677e-01, 1.14206128e-01, 4.59610038e-02,
          9.05292481e-02, 1.26740947e-01, 1.07242338e-01, 2.78551541e-02,
          0., 8.35654605e-03, 5.29247895e-02, 9.61002782e-02,
          1.30919218e-01, 3.59331489e-01, 3.52367699e-01, 1.57381609e-01,
          1.67130917e-01, 2.60445684e-01, 3.13370466e-01, 2.59052932e-01,
          3.25905293e-01, 3.30083549e-01, 2.01949865e-01, 2.88300842e-01,
          2.25626737e-01, 2.84122556e-01, 4.70752090e-01, 5.29247880e-01 ]
      - [ 0., 2.78551527e-03, 3.89972143e-02, 8.91364887e-02,
          7.66016692e-02, 1.22562677e-01, 1.14206128e-01, 4.59610038e-02,
          9.05292481e-02, 1.26740947e-01, 1.07242338e-01, 2.78551541e-02,
          0., 8.35654605e-03, 5.29247895e-02, 9.61002782e-02,
          1.30919218e-01, 3.59331489e-01, 3.52367699e-01, 1.57381609e-01,
          1.67130917e-01, 2.60445684e-01, 3.13370466e-01, 2.59052932e-01,
          3.25905293e-01, 3.30083549e-01, 2.01949865e-01, 2.88300842e-01,
          2.25626737e-01, 2.84122556e-01, 4.70752090e-01, 5.29247880e-01 ]
      - [ 0., 3.18979262e-03, 5.42264767e-02, 1.05263159e-01,
          9.56937820e-02, 1.13237642e-01, 1.06858052e-01, 4.78468882e-03,
          1.24401912e-01, 9.72886756e-02, 9.72886756e-02, 4.78468882e-03,
          0., 1.59489624e-02, 6.85805455e-02, 1.08452953e-01,
          1.62679434e-01, 3.20574164e-01, 3.23763967e-01, 1.92982465e-01,
          2.20095694e-01, 2.29665071e-01, 3.26953739e-01, 2.23285496e-01,
          3.18979263e-01, 3.09409887e-01, 2.12121218e-01, 2.71132380e-01,
          2.37639546e-01, 2.79106855e-01, 4.14673030e-01, 5.85326970e-01 ]
      - [ 9.05511826e-02, 9.25196856e-02, 9.84251946e-02, 9.84251946e-02,
          6.79133832e-02, 3.54330726e-02, 2.85433065e-02, 5.21653555e-02,
          5.90551198e-02, 3.05118114e-02, 3.83858271e-02, 5.21653555e-02,
          4.82283458e-02, 7.18503967e-02, 7.18503967e-02, 6.39763772e-02,
          3.79921257e-01, 1.84055120e-01, 1.80118114e-01, 2.55905509e-01,
          2.65748024e-01, 2.30314970e-01, 2.37204731e-01, 2.66732275e-01,
          2.28346467e-01, 2.05708653e-01, 2.86417335e-01, 2.77559042e-01,
          2.09645674e-01, 2.26377964e-01, 1.32874012e-01, 8.67125988e-01 ]
      - [ 9.05511826e-02, 9.25196856e-02, 9.84251946e-02, 9.84251946e-02,
          6.79133832e-02, 3.54330726e-02, 2.85433065e-02, 5.21653555e-02,
          5.90551198e-02, 3.05118114e-02, 3.83858271e-02, 5.21653555e-02,
          4.82283458e-02, 7.18503967e-02, 7.18503967e-02, 6.39763772e-02,
          3.79921257e-01, 1.84055120e-01, 1.80118114e-01, 2.55905509e-01,
          2.65748024e-01, 2.30314970e-01, 2.37204731e-01, 2.66732275e-01,
          2.28346467e-01, 2.05708653e-01, 2.86417335e-01, 2.77559042e-01,
          2.09645674e-01, 2.26377964e-01, 1.32874012e-01, 8.67125988e-01 ]
      - [ 9.05511826e-02, 9.25196856e-02, 9.84251946e-02, 9.84251946e-02,
          6.79133832e-02, 3.54330726e-02, 2.85433065e-02, 5.21653555e-02,
          5.90551198e-02, 3.05118114e-02, 3.83858271e-02, 5.21653555e-02,
          4.82283458e-02, 7.18503967e-02, 7.18503967e-02, 6.39763772e-02,
          3.79921257e-01, 1.84055120e-01, 1.80118114e-01, 2.55905509e-01,
          2.65748024e-01, 2.30314970e-01, 2.37204731e-01, 2.66732275e-01,
          2.28346467e-01, 2.05708653e-01, 2.86417335e-01, 2.77559042e-01,
          2.09645674e-01, 2.26377964e-01, 1.32874012e-01, 8.67125988e-01 ]
      - [ 9.05511826e-02, 9.25196856e-02, 9.84251946e-02, 9.84251946e-02,
          6.79133832e-02, 3.54330726e-02, 2.85433065e-02, 5.21653555e-02,
          5.90551198e-02, 3.05118114e-02, 3.83858271e-02, 5.21653555e-02,
          4.82283458e-02, 7.18503967e-02, 7.18503967e-02, 6.39763772e-02,
          3.79921257e-01, 1.84055120e-01, 1.80118114e-01, 2.55905509e-01,
          2.65748024e-01, 2.30314970e-01, 2.37204731e-01, 2.66732275e-01,
          2.28346467e-01, 2.05708653e-01, 2.86417335e-01, 2.77559042e-01,
          2.09645674e-01, 2.26377964e-01, 1.32874012e-01, 8.67125988e-01 ]
      - [ 9.05511826e-02, 9.25196856e-02, 9.84251946e-02, 9.84251946e-02,
          6.79133832e-02, 3.54330726e-02, 2.85433065e-02, 5.21653555e-02,
          5.90551198e-02, 3.05118114e-02, 3.83858271e-02, 5.21653555e-02,
          4.82283458e-02, 7.18503967e-02, 7.18503967e-02, 6.39763772e-02,
          3.79921257e-01, 1.84055120e-01, 1.80118114e-01, 2.55905509e-01,
          2.65748024e-01, 2.30314970e-01, 2.37204731e-01, 2.66732275e-01,
          2.28346467e-01, 2.05708653e-01, 2.86417335e-01, 2.77559042e-01,
          2.09645674e-01, 2.26377964e-01, 1.32874012e-01, 8.67125988e-01 ]
      - [ 9.05511826e-02, 9.25196856e-02, 9.84251946e-02, 9.84251946e-02,
          6.79133832e-02, 3.54330726e-02, 2.85433065e-02, 5.21653555e-02,
          5.90551198e-02, 3.05118114e-02, 3.83858271e-02, 5.21653555e-02,
          4.82283458e-02, 7.18503967e-02, 7.18503967e-02, 6.39763772e-02,
          3.79921257e-01, 1.84055120e-01, 1.80118114e-01, 2.55905509e-01,
          2.65748024e-01, 2.30314970e-01, 2.37204731e-01, 2.66732275e-01,
          2.28346467e-01, 2.05708653e-01, 2.86417335e-01, 2.77559042e-01,
          2.09645674e-01, 2.26377964e-01, 1.32874012e-01, 8.67125988e-01 ]
      - [ 9.05511826e-02, 9.25196856e-02, 9.84251946e-02, 9.84251946e-02,
          6.79133832e-02, 3.54330726e-02, 2.85433065e-02, 5.21653555e-02,
          5.90551198e-02, 3.05118114e-02, 3.83858271e-02, 5.21653555e-02,
          4.82283458e-02, 7.18503967e-02, 7.18503967e-02, 6.39763772e-02,
          3.79921257e-01, 1.84055120e-01, 1.80118114e-01, 2.55905509e-01,
          2.65748024e-01, 2.30314970e-01, 2.37204731e-01, 2.66732275e-01,
          2.28346467e-01, 2.05708653e-01, 2.86417335e-01, 2.77559042e-01,
          2.09645674e-01, 2.26377964e-01, 1.32874012e-01, 8.67125988e-01 ]
      - [ 9.05511826e-02, 9.25196856e-02, 9.84251946e-02, 9.84251946e-02,
          6.79133832e-02, 3.54330726e-02, 2.85433065e-02, 5.21653555e-02,
          5.90551198e-02, 3.05118114e-02, 3.83858271e-02, 5.21653555e-02,
          4.82283458e-02, 7.18503967e-02, 7.18503967e-02, 6.39763772e-02,
          3.79921257e-01, 1.84055120e-01, 1.80118114e-01, 2.55905509e-01,
          2.65748024e-01, 2.30314970e-01, 2.37204731e-01, 2.66732275e-01,
          2.28346467e-01, 2.05708653e-01, 2.86417335e-01, 2.77559042e-01,
          2.09645674e-01, 2.26377964e-01, 1.32874012e-01, 8.67125988e-01 ]
      - [ 9.05511826e-02, 9.25196856e-02, 9.84251946e-02, 9.84251946e-02,
          6.79133832e-02, 3.54330726e-02, 2.85433065e-02, 5.21653555e-02,
          5.90551198e-02, 3.05118114e-02, 3.83858271e-02, 5.21653555e-02,
          4.82283458e-02, 7.18503967e-02, 7.18503967e-02, 6.39763772e-02,
          3.79921257e-01, 1.84055120e-01, 1.80118114e-01, 2.55905509e-01,
          2.65748024e-01, 2.30314970e-01, 2.37204731e-01, 2.66732275e-01,
          2.28346467e-01, 2.05708653e-01, 2.86417335e-01, 2.77559042e-01,
          2.09645674e-01, 2.26377964e-01, 1.32874012e-01, 8.67125988e-01 ]
      - [ 9.05511826e-02, 9.25196856e-02, 9.84251946e-02, 9.84251946e-02,
          6.79133832e-02, 3.54330726e-02, 2.85433065e-02, 5.21653555e-02,
          5.90551198e-02, 3.05118114e-02, 3.83858271e-02, 5.21653555e-02,
          4.82283458e-02, 7.18503967e-02, 7.18503967e-02, 6.39763772e-02,
          3.79921257e-01, 1.84055120e-01, 1.80118114e-01, 2.55905509e-01,
          2.65748024e-01, 2.30314970e-01, 2.37204731e-01, 2.66732275e-01,
          2.28346467e-01, 2.05708653e-01, 2.86417335e-01, 2.77559042e-01,
          2.09645674e-01, 2.26377964e-01, 1.32874012e-01, 8.67125988e-01 ]
      - [ 4.86111119e-02, 1.31944448e-01, 1.30208328e-01, 4.16666679e-02,
          1.14583336e-01, 2.95138881e-02, 2.25694440e-02, 1.07638888e-01,
          1.11111112e-01, 6.94444450e-03, 1.38888890e-02, 1.09375000e-01,
          4.51388881e-02, 1.90972220e-02, 3.47222239e-02, 3.29861119e-02,
          3.52430552e-01, 2.74305552e-01, 2.41319448e-01, 1.31944448e-01,
          3.19444448e-01, 1.87500000e-01, 2.01388881e-01, 2.91666657e-01,
          1.25000000e-01, 1.16319448e-01, 3.24652791e-01, 3.02083313e-01,
          1.82291672e-01, 1.90972224e-01, 7.29166642e-02, 9.27083313e-01 ]
      - [ 4.86111119e-02, 1.31944448e-01, 1.30208328e-01, 4.16666679e-02,
          1.14583336e-01, 2.95138881e-02, 2.25694440e-02, 1.07638888e-01,
          1.11111112e-01, 6.94444450e-03, 1.38888890e-02, 1.09375000e-01,
          4.51388881e-02, 1.90972220e-02, 3.47222239e-02, 3.29861119e-02,
          3.52430552e-01, 2.74305552e-01, 2.41319448e-01, 1.31944448e-01,
          3.19444448e-01, 1.87500000e-01, 2.01388881e-01, 2.91666657e-01,
          1.25000000e-01, 1.16319448e-01, 3.24652791e-01, 3.02083313e-01,
          1.82291672e-01, 1.90972224e-01, 7.29166642e-02, 9.27083313e-01 ]
      - [ 4.86111119e-02, 1.31944448e-01, 1.30208328e-01, 4.16666679e-02,
          1.14583336e-01, 2.95138881e-02, 2.25694440e-02, 1.07638888e-01,
          1.11111112e-01, 6.94444450e-03, 1.38888890e-02, 1.09375000e-01,
          4.51388881e-02, 1.90972220e-02, 3.47222239e-02, 3.29861119e-02,
          3.52430552e-01, 2.74305552e-01, 2.41319448e-01, 1.31944448e-01,
          3.19444448e-01, 1.87500000e-01, 2.01388881e-01, 2.91666657e-01,
          1.25000000e-01, 1.16319448e-01, 3.24652791e-01, 3.02083313e-01,
          1.82291672e-01, 1.90972224e-01, 7.29166642e-02, 9.27083313e-01 ]
      - [ 4.86111119e-02, 1.31944448e-01, 1.30208328e-01, 4.16666679e-02,
          1.14583336e-01, 2.95138881e-02, 2.25694440e-02, 1.07638888e-01,
          1.11111112e-01, 6.94444450e-03, 1.38888890e-02, 1.09375000e-01,
          4.51388881e-02, 1.90972220e-02, 3.47222239e-02, 3.29861119e-02,
          3.52430552e-01, 2.74305552e-01, 2.41319448e-01, 1.31944448e-01,
          3.19444448e-01, 1.87500000e-01, 2.01388881e-01, 2.91666657e-01,
          1.25000000e-01, 1.16319448e-01, 3.24652791e-01, 3.02083313e-01,
          1.82291672e-01, 1.90972224e-01, 7.29166642e-02, 9.27083313e-01 ]
      - [ 4.86111119e-02, 1.31944448e-01, 1.30208328e-01, 4.16666679e-02,
          1.14583336e-01, 2.95138881e-02, 2.25694440e-02, 1.07638888e-01,
          1.11111112e-01, 6.94444450e-03, 1.38888890e-02, 1.09375000e-01,
          4.51388881e-02, 1.90972220e-02, 3.47222239e-02, 3.29861119e-02,
          3.52430552e-01, 2.74305552e-01, 2.41319448e-01, 1.31944448e-01,
          3.19444448e-01, 1.87500000e-01, 2.01388881e-01, 2.91666657e-01,
          1.25000000e-01, 1.16319448e-01, 3.24652791e-01, 3.02083313e-01,
          1.82291672e-01, 1.90972224e-01, 7.29166642e-02, 9.27083313e-01 ]
      - [ 4.86111119e-02, 1.31944448e-01, 1.30208328e-01, 4.16666679e-02,
          1.14583336e-01, 2.95138881e-02, 2.25694440e-02, 1.07638888e-01,
          1.11111112e-01, 6.94444450e-03, 1.38888890e-02, 1.09375000e-01,
          4.51388881e-02, 1.90972220e-02, 3.47222239e-02, 3.29861119e-02,
          3.52430552e-01, 2.74305552e-01, 2.41319448e-01, 1.31944448e-01,
          3.19444448e-01, 1.87500000e-01, 2.01388881e-01, 2.91666657e-01,
          1.25000000e-01, 1.16319448e-01, 3.24652791e-01, 3.02083313e-01,
          1.82291672e-01, 1.90972224e-01, 7.29166642e-02, 9.27083313e-01 ]
      - [ 4.86111119e-02, 1.31944448e-01, 1.30208328e-01, 4.16666679e-02,
          1.14583336e-01, 2.95138881e-02, 2.25694440e-02, 1.07638888e-01,
          1.11111112e-01, 6.94444450e-03, 1.38888890e-02, 1.09375000e-01,
          4.51388881e-02, 1.90972220e-02, 3.47222239e-02, 3.29861119e-02,
          3.52430552e-01, 2.74305552e-01, 2.41319448e-01, 1.31944448e-01,
          3.19444448e-01, 1.87500000e-01, 2.01388881e-01, 2.91666657e-01,
          1.25000000e-01, 1.16319448e-01, 3.24652791e-01, 3.02083313e-01,
          1.82291672e-01, 1.90972224e-01, 7.29166642e-02, 9.27083313e-01 ]
      - [ 4.86111119e-02, 1.31944448e-01, 1.30208328e-01, 4.16666679e-02,
          1.14583336e-01, 2.95138881e-02, 2.25694440e-02, 1.07638888e-01,
          1.11111112e-01, 6.94444450e-03, 1.38888890e-02, 1.09375000e-01,
          4.51388881e-02, 1.90972220e-02, 3.47222239e-02, 3.29861119e-02,
          3.52430552e-01, 2.74305552e-01, 2.41319448e-01, 1.31944448e-01,
          3.19444448e-01, 1.87500000e-01, 2.01388881e-01, 2.91666657e-01,
          1.25000000e-01, 1.16319448e-01, 3.24652791e-01, 3.02083313e-01,
          1.82291672e-01, 1.90972224e-01, 7.29166642e-02, 9.27083313e-01 ]
      - [ 4.86111119e-02, 1.31944448e-01, 1.30208328e-01, 4.16666679e-02,
          1.14583336e-01, 2.95138881e-02, 2.25694440e-02, 1.07638888e-01,
          1.11111112e-01, 6.94444450e-03, 1.38888890e-02, 1.09375000e-01,
          4.51388881e-02, 1.90972220e-02, 3.47222239e-02, 3.29861119e-02,
          3.52430552e-01, 2.74305552e-01, 2.41319448e-01, 1.31944448e-01,
          3.19444448e-01, 1.87500000e-01, 2.01388881e-01, 2.91666657e-01,
          1.25000000e-01, 1.16319448e-01, 3.24652791e-01, 3.02083313e-01,
          1.82291672e-01, 1.90972224e-01, 7.29166642e-02, 9.27083313e-01 ]
      - [ 4.86111119e-02, 1.31944448e-01, 1.30208328e-01, 4.16666679e-02,
          1.14583336e-01, 2.95138881e-02, 2.25694440e-02, 1.07638888e-01,
          1.11111112e-01, 6.94444450e-03, 1.38888890e-02, 1.09375000e-01,
          4.51388881e-02, 1.90972220e-02, 3.47222239e-02, 3.29861119e-02,
          3.52430552e-01, 2.74305552e-01, 2.41319448e-01, 1.31944448e-01,
          3.19444448e-01, 1.87500000e-01, 2.01388881e-01, 2.91666657e-01,
          1.25000000e-01, 1.16319448e-01, 3.24652791e-01, 3.02083313e-01,
          1.82291672e-01, 1.90972224e-01, 7.29166642e-02, 9.27083313e-01 ]
      - [ 1.01226993e-01, 9.81595069e-02, 1.07361965e-01, 1.10429451e-01,
          6.13496937e-02, 0., 0., 6.13496937e-02, 6.44171759e-02, 0., 0.,
          6.59509227e-02, 5.67484647e-02, 1.07361965e-01, 1.07361965e-01,
          5.82822077e-02, 4.17177916e-01, 1.22699387e-01, 1.30368099e-01,
          3.29754591e-01, 2.83742338e-01, 2.05521464e-01, 2.14723930e-01,
          2.96012282e-01, 1.59509197e-01, 1.67177916e-01, 2.60736197e-01,
          2.79141098e-01, 2.28527606e-01, 2.31595099e-01, 0., 1. ]
      - [ 1.01226993e-01, 9.81595069e-02, 1.07361965e-01, 1.10429451e-01,
          6.13496937e-02, 0., 0., 6.13496937e-02, 6.44171759e-02, 0., 0.,
          6.59509227e-02, 5.67484647e-02, 1.07361965e-01, 1.07361965e-01,
          5.82822077e-02, 4.17177916e-01, 1.22699387e-01, 1.30368099e-01,
          3.29754591e-01, 2.83742338e-01, 2.05521464e-01, 2.14723930e-01,
          2.96012282e-01, 1.59509197e-01, 1.67177916e-01, 2.60736197e-01,
          2.79141098e-01, 2.28527606e-01, 2.31595099e-01, 0., 1. ]
      - [ 1.01226993e-01, 9.81595069e-02, 1.07361965e-01, 1.10429451e-01,
          6.13496937e-02, 0., 0., 6.13496937e-02, 6.44171759e-02, 0., 0.,
          6.59509227e-02, 5.67484647e-02, 1.07361965e-01, 1.07361965e-01,
          5.82822077e-02, 4.17177916e-01, 1.22699387e-01, 1.30368099e-01,
          3.29754591e-01, 2.83742338e-01, 2.05521464e-01, 2.14723930e-01,
          2.96012282e-01, 1.59509197e-01, 1.67177916e-01, 2.60736197e-01,
          2.79141098e-01, 2.28527606e-01, 2.31595099e-01, 0., 1. ]
      - [ 1.01226993e-01, 9.81595069e-02, 1.07361965e-01, 1.10429451e-01,
          6.13496937e-02, 0., 0., 6.13496937e-02, 6.44171759e-02, 0., 0.,
          6.59509227e-02, 5.67484647e-02, 1.07361965e-01, 1.07361965e-01,
          5.82822077e-02, 4.17177916e-01, 1.22699387e-01, 1.30368099e-01,
          3.29754591e-01, 2.83742338e-01, 2.05521464e-01, 2.14723930e-01,
          2.96012282e-01, 1.59509197e-01, 1.67177916e-01, 2.60736197e-01,
          2.79141098e-01, 2.28527606e-01, 2.31595099e-01, 0., 1. ]
      - [ 1.01226993e-01, 9.81595069e-02, 1.07361965e-01, 1.10429451e-01,
          6.13496937e-02, 0., 0., 6.13496937e-02, 6.44171759e-02, 0., 0.,
          6.59509227e-02, 5.67484647e-02, 1.07361965e-01, 1.07361965e-01,
          5.82822077e-02, 4.17177916e-01, 1.22699387e-01, 1.30368099e-01,
          3.29754591e-01, 2.83742338e-01, 2.05521464e-01, 2.14723930e-01,
          2.96012282e-01, 1.59509197e-01, 1.67177916e-01, 2.60736197e-01,
          2.79141098e-01, 2.28527606e-01, 2.31595099e-01, 0., 1. ]
      - [ 9.98463929e-02, 9.83102918e-02, 1.07526883e-01, 1.10599078e-01,
          6.14439324e-02, 0., 0., 6.14439324e-02, 6.45161271e-02, 0., 0.,
          6.60522282e-02, 5.68356365e-02, 1.07526883e-01, 1.07526883e-01,
          5.83717376e-02, 4.16282654e-01, 1.22887865e-01, 1.30568355e-01,
          3.30261141e-01, 2.82642096e-01, 2.05837175e-01, 2.15053767e-01,
          2.96466976e-01, 1.58218130e-01, 1.67434722e-01, 2.59600610e-01,
          2.79569894e-01, 2.28878647e-01, 2.31950849e-01, 0., 1. ]
      - [ 9.98463929e-02, 9.83102918e-02, 1.07526883e-01, 1.10599078e-01,
          6.14439324e-02, 0., 0., 6.14439324e-02, 6.45161271e-02, 0., 0.,
          6.60522282e-02, 5.68356365e-02, 1.07526883e-01, 1.07526883e-01,
          5.83717376e-02, 4.16282654e-01, 1.22887865e-01, 1.30568355e-01,
          3.30261141e-01, 2.82642096e-01, 2.05837175e-01, 2.15053767e-01,
          2.96466976e-01, 1.58218130e-01, 1.67434722e-01, 2.59600610e-01,
          2.79569894e-01, 2.28878647e-01, 2.31950849e-01, 0., 1. ]
      - [ 9.98463929e-02, 9.83102918e-02, 1.07526883e-01, 1.10599078e-01,
          6.14439324e-02, 0., 0., 6.14439324e-02, 6.45161271e-02, 0., 0.,
          6.60522282e-02, 5.68356365e-02, 1.07526883e-01, 1.07526883e-01,
          5.83717376e-02, 4.16282654e-01, 1.22887865e-01, 1.30568355e-01,
          3.30261141e-01, 2.82642096e-01, 2.05837175e-01, 2.15053767e-01,
          2.96466976e-01, 1.58218130e-01, 1.67434722e-01, 2.59600610e-01,
          2.79569894e-01, 2.28878647e-01, 2.31950849e-01, 0., 1. ]
      - [ 9.98463929e-02, 9.83102918e-02, 1.07526883e-01, 1.10599078e-01,
          6.14439324e-02, 0., 0., 6.14439324e-02, 6.45161271e-02, 0., 0.,
          6.60522282e-02, 5.68356365e-02, 1.07526883e-01, 1.07526883e-01,
          5.83717376e-02, 4.16282654e-01, 1.22887865e-01, 1.30568355e-01,
          3.30261141e-01, 2.82642096e-01, 2.05837175e-01, 2.15053767e-01,
          2.96466976e-01, 1.58218130e-01, 1.67434722e-01, 2.59600610e-01,
          2.79569894e-01, 2.28878647e-01, 2.31950849e-01, 0., 1. ]
      - [ 9.98463929e-02, 9.83102918e-02, 1.07526883e-01, 1.10599078e-01,
          6.14439324e-02, 0., 0., 6.14439324e-02, 6.45161271e-02, 0., 0.,
          6.60522282e-02, 5.68356365e-02, 1.07526883e-01, 1.07526883e-01,
          5.83717376e-02, 4.16282654e-01, 1.22887865e-01, 1.30568355e-01,
          3.30261141e-01, 2.82642096e-01, 2.05837175e-01, 2.15053767e-01,
          2.96466976e-01, 1.58218130e-01, 1.67434722e-01, 2.59600610e-01,
          2.79569894e-01, 2.28878647e-01, 2.31950849e-01, 0., 1. ]
      - [ 1.15340255e-01, 1.10726647e-01, 1.15340255e-01, 1.10726647e-01,
          7.15109557e-02, 3.69088799e-02, 2.99884658e-02, 6.92041516e-02,
          6.92041516e-02, 3.46020758e-02, 2.30680499e-02, 6.92041516e-02,
          6.45905435e-02, 1.03806229e-02, 9.22721997e-03, 5.99769317e-02,
          4.52133805e-01, 2.07612455e-01, 1.96078435e-01, 1.44175321e-01,
          3.20645899e-01, 1.92618221e-01, 1.77623987e-01, 3.09111893e-01,
          2.35294119e-01, 2.39907727e-01, 3.34486723e-01, 3.25259507e-01,
          1.78777397e-01, 1.61476359e-01, 1.24567471e-01, 8.75432551e-01 ]
      - [ 1.15340255e-01, 1.10726647e-01, 1.15340255e-01, 1.10726647e-01,
          7.15109557e-02, 3.69088799e-02, 2.99884658e-02, 6.92041516e-02,
          6.92041516e-02, 3.46020758e-02, 2.30680499e-02, 6.92041516e-02,
          6.45905435e-02, 1.03806229e-02, 9.22721997e-03, 5.99769317e-02,
          4.52133805e-01, 2.07612455e-01, 1.96078435e-01, 1.44175321e-01,
          3.20645899e-01, 1.92618221e-01, 1.77623987e-01, 3.09111893e-01,
          2.35294119e-01, 2.39907727e-01, 3.34486723e-01, 3.25259507e-01,
          1.78777397e-01, 1.61476359e-01, 1.24567471e-01, 8.75432551e-01 ]
      - [ 1.15340255e-01, 1.10726647e-01, 1.15340255e-01, 1.10726647e-01,
          7.15109557e-02, 3.69088799e-02, 2.99884658e-02, 6.92041516e-02,
          6.92041516e-02, 3.46020758e-02, 2.30680499e-02, 6.92041516e-02,
          6.45905435e-02, 1.03806229e-02, 9.22721997e-03, 5.99769317e-02,
          4.52133805e-01, 2.07612455e-01, 1.96078435e-01, 1.44175321e-01,
          3.20645899e-01, 1.92618221e-01, 1.77623987e-01, 3.09111893e-01,
          2.35294119e-01, 2.39907727e-01, 3.34486723e-01, 3.25259507e-01,
          1.78777397e-01, 1.61476359e-01, 1.24567471e-01, 8.75432551e-01 ]
      - [ 1.15340255e-01, 1.10726647e-01, 1.15340255e-01, 1.10726647e-01,
          7.15109557e-02, 3.69088799e-02, 2.99884658e-02, 6.92041516e-02,
          6.92041516e-02, 3.46020758e-02, 2.30680499e-02, 6.92041516e-02,
          6.45905435e-02, 1.03806229e-02, 9.22721997e-03, 5.99769317e-02,
          4.52133805e-01, 2.07612455e-01, 1.96078435e-01, 1.44175321e-01,
          3.20645899e-01, 1.92618221e-01, 1.77623987e-01, 3.09111893e-01,
          2.35294119e-01, 2.39907727e-01, 3.34486723e-01, 3.25259507e-01,
          1.78777397e-01, 1.61476359e-01, 1.24567471e-01, 8.75432551e-01 ]
      - [ 1.15340255e-01, 1.10726647e-01, 1.15340255e-01, 1.10726647e-01,
          7.15109557e-02, 3.69088799e-02, 2.99884658e-02, 6.92041516e-02,
          6.92041516e-02, 3.46020758e-02, 2.30680499e-02, 6.92041516e-02,
          6.45905435e-02, 1.03806229e-02, 9.22721997e-03, 5.99769317e-02,
          4.52133805e-01, 2.07612455e-01, 1.96078435e-01, 1.44175321e-01,
          3.20645899e-01, 1.92618221e-01, 1.77623987e-01, 3.09111893e-01,
          2.35294119e-01, 2.39907727e-01, 3.34486723e-01, 3.25259507e-01,
          1.78777397e-01, 1.61476359e-01, 1.24567471e-01, 8.75432551e-01 ]
      - [ 1.15340255e-01, 1.10726647e-01, 1.15340255e-01, 1.10726647e-01,
          7.15109557e-02, 3.69088799e-02, 2.99884658e-02, 6.92041516e-02,
          6.92041516e-02, 3.46020758e-02, 2.30680499e-02, 6.92041516e-02,
          6.45905435e-02, 1.03806229e-02, 9.22721997e-03, 5.99769317e-02,
          4.52133805e-01, 2.07612455e-01, 1.96078435e-01, 1.44175321e-01,
          3.20645899e-01, 1.92618221e-01, 1.77623987e-01, 3.09111893e-01,
          2.35294119e-01, 2.39907727e-01, 3.34486723e-01, 3.25259507e-01,
          1.78777397e-01, 1.61476359e-01, 1.24567471e-01, 8.75432551e-01 ]
      - [ 1.15340255e-01, 1.10726647e-01, 1.15340255e-01, 1.10726647e-01,
          7.15109557e-02, 3.69088799e-02, 2.99884658e-02, 6.92041516e-02,
          6.92041516e-02, 3.46020758e-02, 2.30680499e-02, 6.92041516e-02,
          6.45905435e-02, 1.03806229e-02, 9.22721997e-03, 5.99769317e-02,
          4.52133805e-01, 2.07612455e-01, 1.96078435e-01, 1.44175321e-01,
          3.20645899e-01, 1.92618221e-01, 1.77623987e-01, 3.09111893e-01,
          2.35294119e-01, 2.39907727e-01, 3.34486723e-01, 3.25259507e-01,
          1.78777397e-01, 1.61476359e-01, 1.24567471e-01, 8.75432551e-01 ]
      - [ 1.15340255e-01, 1.10726647e-01, 1.15340255e-01, 1.10726647e-01,
          7.15109557e-02, 3.69088799e-02, 2.99884658e-02, 6.92041516e-02,
          6.92041516e-02, 3.46020758e-02, 2.30680499e-02, 6.92041516e-02,
          6.45905435e-02, 1.03806229e-02, 9.22721997e-03, 5.99769317e-02,
          4.52133805e-01, 2.07612455e-01, 1.96078435e-01, 1.44175321e-01,
          3.20645899e-01, 1.92618221e-01, 1.77623987e-01, 3.09111893e-01,
          2.35294119e-01, 2.39907727e-01, 3.34486723e-01, 3.25259507e-01,
          1.78777397e-01, 1.61476359e-01, 1.24567471e-01, 8.75432551e-01 ]
      - [ 1.15340255e-01, 1.10726647e-01, 1.15340255e-01, 1.10726647e-01,
          7.15109557e-02, 3.69088799e-02, 2.99884658e-02, 6.92041516e-02,
          6.92041516e-02, 3.46020758e-02, 2.30680499e-02, 6.92041516e-02,
          6.45905435e-02, 1.03806229e-02, 9.22721997e-03, 5.99769317e-02,
          4.52133805e-01, 2.07612455e-01, 1.96078435e-01, 1.44175321e-01,
          3.20645899e-01, 1.92618221e-01, 1.77623987e-01, 3.09111893e-01,
          2.35294119e-01, 2.39907727e-01, 3.34486723e-01, 3.25259507e-01,
          1.78777397e-01, 1.61476359e-01, 1.24567471e-01, 8.75432551e-01 ]
      - [ 1.15340255e-01, 1.10726647e-01, 1.15340255e-01, 1.10726647e-01,
          7.15109557e-02, 3.69088799e-02, 2.99884658e-02, 6.92041516e-02,
          6.92041516e-02, 3.46020758e-02, 2.30680499e-02, 6.92041516e-02,
          6.45905435e-02, 1.03806229e-02, 9.22721997e-03, 5.99769317e-02,
          4.52133805e-01, 2.07612455e-01, 1.96078435e-01, 1.44175321e-01,
          3.20645899e-01, 1.92618221e-01, 1.77623987e-01, 3.09111893e-01,
          2.35294119e-01, 2.39907727e-01, 3.34486723e-01, 3.25259507e-01,
          1.78777397e-01, 1.61476359e-01, 1.24567471e-01, 8.75432551e-01 ]
      - [ 1.22580647e-01, 1.35483876e-01, 1.35483876e-01, 1.33333340e-01,
          8.60215053e-02, 6.45161271e-02, 2.15053763e-02, 0.,
          8.60215053e-02, 6.45161271e-02, 2.15053763e-02, 0.,
          6.88172057e-02, 4.73118275e-02, 1.29032256e-02, 0.,
          5.26881754e-01, 1.72043011e-01, 1.72043011e-01, 1.29032254e-01,
          3.63440871e-01, 3.11827958e-01, 1.91397861e-01, 1.33333340e-01,
          2.08602145e-01, 2.88172036e-01, 4.08602148e-01, 2.90322602e-01,
          2.66666651e-01, 3.44086029e-02, 1.72043011e-01, 8.27957034e-01 ]
      - [ 1.22580647e-01, 1.35483876e-01, 1.35483876e-01, 1.33333340e-01,
          8.60215053e-02, 6.45161271e-02, 2.15053763e-02, 0.,
          8.60215053e-02, 6.45161271e-02, 2.15053763e-02, 0.,
          6.88172057e-02, 4.73118275e-02, 1.29032256e-02, 0.,
          5.26881754e-01, 1.72043011e-01, 1.72043011e-01, 1.29032254e-01,
          3.63440871e-01, 3.11827958e-01, 1.91397861e-01, 1.33333340e-01,
          2.08602145e-01, 2.88172036e-01, 4.08602148e-01, 2.90322602e-01,
          2.66666651e-01, 3.44086029e-02, 1.72043011e-01, 8.27957034e-01 ]
      - [ 1.22621566e-01, 1.33192390e-01, 1.41649053e-01, 1.22621566e-01,
          8.66807625e-02, 4.86257933e-02, 2.74841432e-02, 0.,
          8.87949243e-02, 6.34249449e-02, 4.22832966e-02, 0.,
          7.18816072e-02, 2.95983087e-02, 2.11416483e-02, 0.,
          5.20084560e-01, 1.62790701e-01, 1.94503158e-01, 1.22621566e-01,
          3.69978845e-01, 2.74841428e-01, 2.32558146e-01, 1.22621566e-01,
          2.13530660e-01, 2.85412252e-01, 3.91120523e-01, 2.91754752e-01,
          2.53699780e-01, 6.34249449e-02, 1.81818172e-01, 8.18181813e-01 ]
      - [ 1.22621566e-01, 1.33192390e-01, 1.41649053e-01, 1.22621566e-01,
          8.66807625e-02, 4.86257933e-02, 2.74841432e-02, 0.,
          8.87949243e-02, 6.34249449e-02, 4.22832966e-02, 0.,
          7.18816072e-02, 2.95983087e-02, 2.11416483e-02, 0.,
          5.20084560e-01, 1.62790701e-01, 1.94503158e-01, 1.22621566e-01,
          3.69978845e-01, 2.74841428e-01, 2.32558146e-01, 1.22621566e-01,
          2.13530660e-01, 2.85412252e-01, 3.91120523e-01, 2.91754752e-01,
          2.53699780e-01, 6.34249449e-02, 1.81818172e-01, 8.18181813e-01 ]
      - [ 1.22580647e-01, 1.35483876e-01, 1.35483876e-01, 1.33333340e-01,
          8.60215053e-02, 6.45161271e-02, 2.15053763e-02, 0.,
          8.60215053e-02, 6.45161271e-02, 2.15053763e-02, 0.,
          6.88172057e-02, 4.73118275e-02, 1.29032256e-02, 0.,
          5.26881754e-01, 1.72043011e-01, 1.72043011e-01, 1.29032254e-01,
          3.63440871e-01, 3.11827958e-01, 1.91397861e-01, 1.33333340e-01,
          2.08602145e-01, 2.88172036e-01, 4.08602148e-01, 2.90322602e-01,
          2.66666651e-01, 3.44086029e-02, 1.72043011e-01, 8.27957034e-01 ]
      - [ 1.22580647e-01, 1.35483876e-01, 1.35483876e-01, 1.33333340e-01,
          8.60215053e-02, 6.45161271e-02, 2.15053763e-02, 0.,
          8.60215053e-02, 6.45161271e-02, 2.15053763e-02, 0.,
          6.88172057e-02, 4.73118275e-02, 1.29032256e-02, 0.,
          5.26881754e-01, 1.72043011e-01, 1.72043011e-01, 1.29032254e-01,
          3.63440871e-01, 3.11827958e-01, 1.91397861e-01, 1.33333340e-01,
          2.08602145e-01, 2.88172036e-01, 4.08602148e-01, 2.90322602e-01,
          2.66666651e-01, 3.44086029e-02, 1.72043011e-01, 8.27957034e-01 ]
      - [ 1.22580647e-01, 1.35483876e-01, 1.35483876e-01, 1.33333340e-01,
          8.60215053e-02, 6.45161271e-02, 2.15053763e-02, 0.,
          8.60215053e-02, 6.45161271e-02, 2.15053763e-02, 0.,
          6.88172057e-02, 4.73118275e-02, 1.29032256e-02, 0.,
          5.26881754e-01, 1.72043011e-01, 1.72043011e-01, 1.29032254e-01,
          3.63440871e-01, 3.11827958e-01, 1.91397861e-01, 1.33333340e-01,
          2.08602145e-01, 2.88172036e-01, 4.08602148e-01, 2.90322602e-01,
          2.66666651e-01, 3.44086029e-02, 1.72043011e-01, 8.27957034e-01 ]
      - [ 1.22580647e-01, 1.35483876e-01, 1.35483876e-01, 1.33333340e-01,
          8.60215053e-02, 6.45161271e-02, 2.15053763e-02, 0.,
          8.60215053e-02, 6.45161271e-02, 2.15053763e-02, 0.,
          6.88172057e-02, 4.73118275e-02, 1.29032256e-02, 0.,
          5.26881754e-01, 1.72043011e-01, 1.72043011e-01, 1.29032254e-01,
          3.63440871e-01, 3.11827958e-01, 1.91397861e-01, 1.33333340e-01,
          2.08602145e-01, 2.88172036e-01, 4.08602148e-01, 2.90322602e-01,
          2.66666651e-01, 3.44086029e-02, 1.72043011e-01, 8.27957034e-01 ]
      - [ 1.22580647e-01, 1.35483876e-01, 1.35483876e-01, 1.33333340e-01,
          8.60215053e-02, 6.45161271e-02, 2.15053763e-02, 0.,
          8.60215053e-02, 6.45161271e-02, 2.15053763e-02, 0.,
          6.88172057e-02, 4.73118275e-02, 1.29032256e-02, 0.,
          5.26881754e-01, 1.72043011e-01, 1.72043011e-01, 1.29032254e-01,
          3.63440871e-01, 3.11827958e-01, 1.91397861e-01, 1.33333340e-01,
          2.08602145e-01, 2.88172036e-01, 4.08602148e-01, 2.90322602e-01,
          2.66666651e-01, 3.44086029e-02, 1.72043011e-01, 8.27957034e-01 ]
      - [ 1.22580647e-01, 1.35483876e-01, 1.35483876e-01, 1.33333340e-01,
          8.60215053e-02, 6.45161271e-02, 2.15053763e-02, 0.,
          8.60215053e-02, 6.45161271e-02, 2.15053763e-02, 0.,
          6.88172057e-02, 4.73118275e-02, 1.29032256e-02, 0.,
          5.26881754e-01, 1.72043011e-01, 1.72043011e-01, 1.29032254e-01,
          3.63440871e-01, 3.11827958e-01, 1.91397861e-01, 1.33333340e-01,
          2.08602145e-01, 2.88172036e-01, 4.08602148e-01, 2.90322602e-01,
          2.66666651e-01, 3.44086029e-02, 1.72043011e-01, 8.27957034e-01 ]
      - [ 3.26975472e-02, 1.07629426e-01, 1.07629426e-01, 4.08719331e-02,
          8.44686627e-02, 9.53678507e-03, 0., 8.71934593e-02,
          8.71934593e-02, 1.08991824e-02, 4.90463227e-02, 8.58310610e-02,
          4.49591279e-02, 4.35967296e-02, 1.28065392e-01, 8.03814679e-02,
          2.88828343e-01, 1.81198910e-01, 2.32970029e-01, 2.97002733e-01,
          2.49318793e-01, 1.71662122e-01, 2.84741133e-01, 2.94277906e-01,
          1.71662122e-01, 9.67302471e-02, 2.34332427e-01, 2.35694826e-01,
          1.86648503e-01, 3.43324244e-01, 6.94822893e-02, 9.30517673e-01 ]
      - [ 3.26975472e-02, 1.07629426e-01, 1.07629426e-01, 4.08719331e-02,
          8.44686627e-02, 9.53678507e-03, 0., 8.71934593e-02,
          8.71934593e-02, 1.08991824e-02, 4.90463227e-02, 8.58310610e-02,
          4.49591279e-02, 4.35967296e-02, 1.28065392e-01, 8.03814679e-02,
          2.88828343e-01, 1.81198910e-01, 2.32970029e-01, 2.97002733e-01,
          2.49318793e-01, 1.71662122e-01, 2.84741133e-01, 2.94277906e-01,
          1.71662122e-01, 9.67302471e-02, 2.34332427e-01, 2.35694826e-01,
          1.86648503e-01, 3.43324244e-01, 6.94822893e-02, 9.30517673e-01 ]
      - [ 3.26975472e-02, 1.07629426e-01, 1.07629426e-01, 4.08719331e-02,
          8.44686627e-02, 9.53678507e-03, 0., 8.71934593e-02,
          8.71934593e-02, 1.08991824e-02, 4.90463227e-02, 8.58310610e-02,
          4.49591279e-02, 4.35967296e-02, 1.28065392e-01, 8.03814679e-02,
          2.88828343e-01, 1.81198910e-01, 2.32970029e-01, 2.97002733e-01,
          2.49318793e-01, 1.71662122e-01, 2.84741133e-01, 2.94277906e-01,
          1.71662122e-01, 9.67302471e-02, 2.34332427e-01, 2.35694826e-01,
          1.86648503e-01, 3.43324244e-01, 6.94822893e-02, 9.30517673e-01 ]
      - [ 3.26975472e-02, 1.07629426e-01, 1.07629426e-01, 4.08719331e-02,
          8.44686627e-02, 9.53678507e-03, 0., 8.71934593e-02,
          8.71934593e-02, 1.08991824e-02, 4.90463227e-02, 8.58310610e-02,
          4.49591279e-02, 4.35967296e-02, 1.28065392e-01, 8.03814679e-02,
          2.88828343e-01, 1.81198910e-01, 2.32970029e-01, 2.97002733e-01,
          2.49318793e-01, 1.71662122e-01, 2.84741133e-01, 2.94277906e-01,
          1.71662122e-01, 9.67302471e-02, 2.34332427e-01, 2.35694826e-01,
          1.86648503e-01, 3.43324244e-01, 6.94822893e-02, 9.30517673e-01 ]
      - [ 3.26975472e-02, 1.07629426e-01, 1.07629426e-01, 4.08719331e-02,
          8.44686627e-02, 9.53678507e-03, 0., 8.71934593e-02,
          8.71934593e-02, 1.08991824e-02, 4.90463227e-02, 8.58310610e-02,
          4.49591279e-02, 4.35967296e-02, 1.28065392e-01, 8.03814679e-02,
          2.88828343e-01, 1.81198910e-01, 2.32970029e-01, 2.97002733e-01,
          2.49318793e-01, 1.71662122e-01, 2.84741133e-01, 2.94277906e-01,
          1.71662122e-01, 9.67302471e-02, 2.34332427e-01, 2.35694826e-01,
          1.86648503e-01, 3.43324244e-01, 6.94822893e-02, 9.30517673e-01 ]
      - [ 3.26975472e-02, 1.07629426e-01, 1.07629426e-01, 4.08719331e-02,
          8.44686627e-02, 9.53678507e-03, 0., 8.71934593e-02,
          8.71934593e-02, 1.08991824e-02, 4.90463227e-02, 8.58310610e-02,
          4.49591279e-02, 4.35967296e-02, 1.28065392e-01, 8.03814679e-02,
          2.88828343e-01, 1.81198910e-01, 2.32970029e-01, 2.97002733e-01,
          2.49318793e-01, 1.71662122e-01, 2.84741133e-01, 2.94277906e-01,
          1.71662122e-01, 9.67302471e-02, 2.34332427e-01, 2.35694826e-01,
          1.86648503e-01, 3.43324244e-01, 6.94822893e-02, 9.30517673e-01 ]
      - [ 3.26975472e-02, 1.07629426e-01, 1.07629426e-01, 4.08719331e-02,
          8.44686627e-02, 9.53678507e-03, 0., 8.71934593e-02,
          8.71934593e-02, 1.08991824e-02, 4.90463227e-02, 8.58310610e-02,
          4.49591279e-02, 4.35967296e-02, 1.28065392e-01, 8.03814679e-02,
          2.88828343e-01, 1.81198910e-01, 2.32970029e-01, 2.97002733e-01,
          2.49318793e-01, 1.71662122e-01, 2.84741133e-01, 2.94277906e-01,
          1.71662122e-01, 9.67302471e-02, 2.34332427e-01, 2.35694826e-01,
          1.86648503e-01, 3.43324244e-01, 6.94822893e-02, 9.30517673e-01 ]
      - [ 3.26975472e-02, 1.07629426e-01, 1.07629426e-01, 4.08719331e-02,
          8.44686627e-02, 9.53678507e-03, 0., 8.71934593e-02,
          8.71934593e-02, 1.08991824e-02, 4.90463227e-02, 8.58310610e-02,
          4.49591279e-02, 4.35967296e-02, 1.28065392e-01, 8.03814679e-02,
          2.88828343e-01, 1.81198910e-01, 2.32970029e-01, 2.97002733e-01,
          2.49318793e-01, 1.71662122e-01, 2.84741133e-01, 2.94277906e-01,
          1.71662122e-01, 9.67302471e-02, 2.34332427e-01, 2.35694826e-01,
          1.86648503e-01, 3.43324244e-01, 6.94822893e-02, 9.30517673e-01 ]
      - [ 3.26975472e-02, 1.07629426e-01, 1.07629426e-01, 4.08719331e-02,
          8.44686627e-02, 9.53678507e-03, 0., 8.71934593e-02,
          8.71934593e-02, 1.08991824e-02, 4.90463227e-02, 8.58310610e-02,
          4.49591279e-02, 4.35967296e-02, 1.28065392e-01, 8.03814679e-02,
          2.88828343e-01, 1.81198910e-01, 2.32970029e-01, 2.97002733e-01,
          2.49318793e-01, 1.71662122e-01, 2.84741133e-01, 2.94277906e-01,
          1.71662122e-01, 9.67302471e-02, 2.34332427e-01, 2.35694826e-01,
          1.86648503e-01, 3.43324244e-01, 6.94822893e-02, 9.30517673e-01 ]
      - [ 3.26975472e-02, 1.07629426e-01, 1.07629426e-01, 4.08719331e-02,
          8.44686627e-02, 9.53678507e-03, 0., 8.71934593e-02,
          8.71934593e-02, 1.08991824e-02, 4.90463227e-02, 8.58310610e-02,
          4.49591279e-02, 4.35967296e-02, 1.28065392e-01, 8.03814679e-02,
          2.88828343e-01, 1.81198910e-01, 2.32970029e-01, 2.97002733e-01,
          2.49318793e-01, 1.71662122e-01, 2.84741133e-01, 2.94277906e-01,
          1.71662122e-01, 9.67302471e-02, 2.34332427e-01, 2.35694826e-01,
          1.86648503e-01, 3.43324244e-01, 6.94822893e-02, 9.30517673e-01 ]
      - [ 1.06250003e-01, 1.10937499e-01, 1.10937499e-01, 1.09375000e-01,
          0., 6.25000000e-02, 0., 0., 0., 6.25000000e-02, 0., 0.,
          1.01562500e-01, 1.17187500e-01, 1.10937499e-01, 1.07812501e-01,
          4.37500000e-01, 6.25000000e-02, 6.25000000e-02, 4.37500000e-01,
          2.07812503e-01, 3.53125006e-01, 2.21874997e-01, 2.17187494e-01,
          2.76562512e-01, 2.73437500e-01, 2.79687494e-01, 2.20312506e-01,
          2.81250000e-01, 2.18750000e-01, 1.25000000e-01, 8.75000000e-01 ]
      - [ 1.06250003e-01, 1.10937499e-01, 1.10937499e-01, 1.09375000e-01,
          0., 6.25000000e-02, 0., 0., 0., 6.25000000e-02, 0., 0.,
          1.01562500e-01, 1.17187500e-01, 1.10937499e-01, 1.07812501e-01,
          4.37500000e-01, 6.25000000e-02, 6.25000000e-02, 4.37500000e-01,
          2.07812503e-01, 3.53125006e-01, 2.21874997e-01, 2.17187494e-01,
          2.76562512e-01, 2.73437500e-01, 2.79687494e-01, 2.20312506e-01,
          2.81250000e-01, 2.18750000e-01, 1.25000000e-01, 8.75000000e-01 ]
      - [ 1.06250003e-01, 1.10937499e-01, 1.10937499e-01, 1.09375000e-01,
          0., 6.25000000e-02, 0., 0., 0., 6.25000000e-02, 0., 0.,
          1.01562500e-01, 1.17187500e-01, 1.10937499e-01, 1.07812501e-01,
          4.37500000e-01, 6.25000000e-02, 6.25000000e-02, 4.37500000e-01,
          2.07812503e-01, 3.53125006e-01, 2.21874997e-01, 2.17187494e-01,
          2.76562512e-01, 2.73437500e-01, 2.79687494e-01, 2.20312506e-01,
          2.81250000e-01, 2.18750000e-01, 1.25000000e-01, 8.75000000e-01 ]
      - [ 1.06250003e-01, 1.10937499e-01, 1.10937499e-01, 1.09375000e-01,
          0., 6.25000000e-02, 0., 0., 0., 6.25000000e-02, 0., 0.,
          1.01562500e-01, 1.17187500e-01, 1.10937499e-01, 1.07812501e-01,
          4.37500000e-01, 6.25000000e-02, 6.25000000e-02, 4.37500000e-01,
          2.07812503e-01, 3.53125006e-01, 2.21874997e-01, 2.17187494e-01,
          2.76562512e-01, 2.73437500e-01, 2.79687494e-01, 2.20312506e-01,
          2.81250000e-01, 2.18750000e-01, 1.25000000e-01, 8.75000000e-01 ]
      - [ 1.06250003e-01, 1.10937499e-01, 1.10937499e-01, 1.09375000e-01,
          0., 6.25000000e-02, 0., 0., 0., 6.25000000e-02, 0., 0.,
          1.01562500e-01, 1.17187500e-01, 1.10937499e-01, 1.07812501e-01,
          4.37500000e-01, 6.25000000e-02, 6.25000000e-02, 4.37500000e-01,
          2.07812503e-01, 3.53125006e-01, 2.21874997e-01, 2.17187494e-01,
          2.76562512e-01, 2.73437500e-01, 2.79687494e-01, 2.20312506e-01,
          2.81250000e-01, 2.18750000e-01, 1.25000000e-01, 8.75000000e-01 ]
      - [ 1.08280256e-01, 1.11464970e-01, 1.11464970e-01, 9.87261161e-02,
          0., 6.36942685e-02, 0., 0., 0., 6.36942685e-02, 0., 0.,
          1.09872609e-01, 1.21019110e-01, 1.11464970e-01, 1.00318469e-01,
          4.29936320e-01, 6.36942685e-02, 6.36942685e-02, 4.42675173e-01,
          2.18152866e-01, 3.59872609e-01, 2.22929940e-01, 1.99044585e-01,
          2.72293001e-01, 2.72293001e-01, 2.83439487e-01, 2.10191086e-01,
          2.94586003e-01, 2.11783439e-01, 1.27388537e-01, 8.72611463e-01 ]
