%YAML:1.0
---
opencv_ml_svm:
   format: 3
   svmType: C_SVC
   kernel:
      type: RBF
      gamma: 5.0625000000000009e-01
   C: 3.1250000000000000e+02
   term_criteria: { epsilon:9.9999999999999995e-07, iterations:100 }
   var_count: 32
   class_count: 30
   class_labels: !!opencv-matrix
      rows: 30
      cols: 1
      dt: i
      data: [ 0, 1, 2, 3, 4, 5, 6, 7, 8, 9, 10, 11, 12, 13, 14, 15, 16,
          17, 18, 19, 20, 21, 22, 23, 24, 25, 26, 27, 28, 29 ]
   sv_total: 300
   support_vectors:
      - [ 7.17703328e-02, 1.18022330e-01, 1.21212125e-01, 6.37958497e-02,
          7.01754391e-02, 0., 0., 7.33652338e-02, 6.85805455e-02, 0., 0.,
          7.49601275e-02, 6.22009560e-02, 1.06858052e-01, 1.10047847e-01,
          5.90111651e-02, 3.74800622e-01, 1.43540680e-01, 1.43540680e-01,
          3.38118017e-01, 2.72727281e-01, 2.24880382e-01, 2.31259972e-01,
          2.71132380e-01, 1.30781502e-01, 1.25996798e-01, 2.59968102e-01,
          2.58373201e-01, 2.37639546e-01, 2.44019136e-01, 0., 1. ]
      - [ 6.39175251e-02, 9.89690721e-02, 9.89690721e-02, 5.87628856e-02,
          6.90721646e-02, 2.26804130e-02, 2.57731955e-02, 7.31958747e-02,
          7.42268041e-02, 4.12371121e-02, 4.02061865e-02, 7.73195848e-02,
          5.05154654e-02, 7.93814436e-02, 7.73195848e-02, 4.84536067e-02,
          3.20618570e-01, 1.90721646e-01, 2.32989684e-01, 2.55670100e-01,
          2.57731974e-01, 2.42268041e-01, 2.42268041e-01, 2.57731944e-01,
          1.75257728e-01, 1.76288664e-01, 2.54639179e-01, 2.56701022e-01,
          2.45360821e-01, 2.43298963e-01, 1.29896909e-01, 8.70103061e-01 ]
      - [ 3.65168527e-02, 8.84831473e-02, 1.03932582e-01, 5.19662909e-02,
          8.28651711e-02, 2.80898884e-02, 1.68539323e-02, 7.86516890e-02,
          5.89887649e-02, 0., 0., 7.86516890e-02, 7.44381994e-02,
          1.09550565e-01, 1.16573036e-01, 7.44381994e-02, 2.80898869e-01,
          2.06460685e-01, 1.37640446e-01, 3.75000000e-01, 2.52808988e-01,
          2.26123601e-01, 2.37359554e-01, 2.83707857e-01, 1.39044940e-01,
          1.43258423e-01, 2.35955060e-01, 2.51404494e-01, 2.42977530e-01,
          2.69662917e-01, 4.49438207e-02, 9.55056190e-01 ]
      - [ 5.91341071e-02, 1.05596624e-01, 9.29250270e-02, 6.23020045e-02,
          7.60295689e-02, 3.59028503e-02, 2.95670535e-02, 8.34213272e-02,
          7.28616714e-02, 3.06230206e-02, 3.37909199e-02, 7.81415030e-02,
          6.23020045e-02, 7.70855322e-02, 6.75818399e-02, 3.27349529e-02,
          3.19957763e-01, 2.24920794e-01, 2.15417117e-01, 2.39704326e-01,
          2.70327359e-01, 2.49208033e-01, 2.23864838e-01, 2.56599784e-01,
          1.61562830e-01, 1.84794083e-01, 2.76663154e-01, 2.68215418e-01,
          2.42872223e-01, 2.12249219e-01, 1.29883841e-01, 8.70116174e-01 ]
      - [ 4.35684659e-02, 9.02489647e-02, 9.33609977e-02, 6.12033196e-02,
          7.05394223e-02, 3.21576782e-02, 3.11203320e-02, 7.05394223e-02,
          7.26141110e-02, 3.11203320e-02, 3.11203320e-02, 7.15767667e-02,
          7.15767667e-02, 9.33609977e-02, 9.12863091e-02, 4.46058102e-02,
          2.88381755e-01, 2.04356849e-01, 2.06431538e-01, 3.00829887e-01,
          2.58298755e-01, 2.46887967e-01, 2.46887967e-01, 2.47925311e-01,
          1.51452288e-01, 1.95020750e-01, 2.36514539e-01, 2.56224066e-01,
          2.68672198e-01, 2.38589212e-01, 1.25518680e-01, 8.74481380e-01 ]
      - [ 5.08806258e-02, 7.82778859e-02, 9.00195688e-02, 6.55577332e-02,
          7.14285746e-02, 4.50097844e-02, 3.22896279e-02, 6.75146803e-02,
          6.55577332e-02, 1.95694715e-02, 2.93542072e-02, 7.14285746e-02,
          7.04500973e-02, 9.78473574e-02, 9.29549932e-02, 5.18590994e-02,
          2.84735799e-01, 2.16242671e-01, 1.85909986e-01, 3.13111544e-01,
          2.58317024e-01, 2.40704507e-01, 2.44618401e-01, 2.56360084e-01,
          1.77103713e-01, 1.87866926e-01, 2.45596871e-01, 2.55381614e-01,
          2.53424644e-01, 2.45596871e-01, 1.26223087e-01, 8.73776913e-01 ]
      - [ 6.88336492e-02, 8.60420614e-02, 8.60420614e-02, 5.64053543e-02,
          6.69216067e-02, 2.67686415e-02, 2.86806878e-02, 6.88336492e-02,
          6.88336492e-02, 2.67686415e-02, 2.58126203e-02, 7.07456991e-02,
          6.59655854e-02, 9.17782038e-02, 9.56022963e-02, 6.59655854e-02,
          2.97323138e-01, 1.91204578e-01, 1.92160606e-01, 3.19311678e-01,
          2.70554483e-01, 2.31357545e-01, 2.36137658e-01, 2.61950284e-01,
          1.87380493e-01, 1.77820265e-01, 2.48565957e-01, 2.39961758e-01,
          2.53346086e-01, 2.58126199e-01, 1.08030587e-01, 8.91969383e-01 ]
      - [ 6.32244498e-02, 8.42992589e-02, 7.48155937e-02, 4.00421508e-02,
          7.58693367e-02, 4.21496294e-02, 5.16332984e-02, 7.90305585e-02,
          7.37618580e-02, 2.10748147e-02, 1.05374074e-02, 6.32244498e-02,
          5.26870377e-02, 9.06217098e-02, 1.05374075e-01, 7.16543719e-02,
          2.62381464e-01, 2.48682827e-01, 1.68598533e-01, 3.20337206e-01,
          2.65542686e-01, 2.38145411e-01, 2.42360368e-01, 2.53951520e-01,
          1.87565863e-01, 1.65437296e-01, 2.65542686e-01, 2.45521605e-01,
          2.38145426e-01, 2.50790298e-01, 1.25395149e-01, 8.74604821e-01 ]
      - [ 6.36215359e-02, 1.09298535e-01, 1.04404569e-01, 6.03588894e-02,
          8.64600316e-02, 0., 0., 6.68841749e-02, 8.31973925e-02, 0., 0.,
          7.34094605e-02, 6.03588894e-02, 1.25611752e-01, 1.07667208e-01,
          5.87275699e-02, 3.37683529e-01, 1.53344214e-01, 1.56606853e-01,
          3.52365434e-01, 2.93637842e-01, 2.34910280e-01, 2.12071776e-01,
          2.59380102e-01, 1.22349106e-01, 1.20717779e-01, 2.59380102e-01,
          2.31647640e-01, 2.69168019e-01, 2.39804238e-01, 0., 1. ]
      - [ 3.77358496e-02, 7.43618235e-02, 8.87902305e-02, 5.88235296e-02,
          8.65704790e-02, 3.88457254e-02, 2.99667045e-02, 8.10210854e-02,
          8.32408443e-02, 3.99556048e-02, 4.43951152e-02, 8.65704790e-02,
          6.65926784e-02, 7.76914507e-02, 6.77025542e-02, 3.77358496e-02,
          2.59711444e-01, 2.36404002e-01, 2.54162043e-01, 2.49722540e-01,
          2.74139851e-01, 2.30854601e-01, 2.30854601e-01, 2.64150947e-01,
          1.58712536e-01, 1.95338517e-01, 2.37513870e-01, 2.58601546e-01,
          2.67480582e-01, 2.36404002e-01, 1.53163150e-01, 8.46836865e-01 ]
      - [ 4.25790772e-02, 9.73236002e-03, 0., 0., 8.39416087e-02,
          2.43309001e-03, 8.51581525e-03, 3.40632610e-02, 1.07055962e-01,
          1.03406325e-01, 1.15571775e-01, 1.19221412e-01, 1.09489053e-01,
          1.04622871e-01, 9.24574211e-02, 6.69099763e-02, 5.23114353e-02,
          1.28953770e-01, 4.45255458e-01, 3.73479307e-01, 3.43065709e-01,
          2.20194653e-01, 2.16545016e-01, 2.20194653e-01, 2.27493912e-01,
          2.21411198e-01, 1.38686135e-01, 4.25790772e-02, 4.24574196e-01,
          3.94160569e-01, 2.29927003e-01, 7.70072997e-01 ]
      - [ 6.12777062e-02, 0., 0., 0., 9.90873501e-02, 1.17340283e-02, 0.,
          0., 1.30378097e-01, 1.29074320e-01, 1.17340289e-01,
          9.90873501e-02, 4.17209901e-02, 7.82268569e-02, 1.12125166e-01,
          1.19947851e-01, 6.12777062e-02, 1.10821381e-01, 4.75880057e-01,
          3.52020860e-01, 3.32464159e-01, 2.19035208e-01, 2.29465455e-01,
          2.19035208e-01, 3.10299873e-01, 1.70795307e-01, 1.72099084e-01,
          0., 3.79400253e-01, 4.48500663e-01, 2.58148640e-01,
          7.41851389e-01 ]
      - [ 5.52083328e-02, 0., 0., 0., 8.33333358e-02, 3.85416672e-02,
          4.16666679e-02, 4.89583351e-02, 1.04166664e-01, 1.04166664e-01,
          1.04166664e-01, 1.03124999e-01, 6.77083358e-02, 7.91666657e-02,
          8.33333358e-02, 8.64583328e-02, 5.52083328e-02, 2.12500006e-01,
          4.15624976e-01, 3.16666663e-01, 3.10416669e-01, 2.21874997e-01,
          2.29166672e-01, 2.38541663e-01, 2.84375012e-01, 2.13541672e-01,
          1.77083343e-01, 9.06250030e-02, 3.55208337e-01, 3.77083331e-01,
          2.88541675e-01, 7.11458325e-01 ]
      - [ 3.57142873e-02, 0., 0., 0., 7.26190507e-02, 2.26190481e-02,
          4.88095246e-02, 6.42857179e-02, 1.09523810e-01, 1.19047619e-01,
          1.19047619e-01, 1.19047619e-01, 9.88095254e-02, 7.97619075e-02,
          5.95238097e-02, 5.11904769e-02, 3.57142873e-02, 2.08333343e-01,
          4.66666669e-01, 2.89285719e-01, 3.16666663e-01, 2.21428573e-01,
          2.27380961e-01, 2.34523818e-01, 2.28571430e-01, 2.66666681e-01,
          1.30952388e-01, 1.13095239e-01, 4.07142878e-01, 3.48809540e-01,
          3.09523821e-01, 6.90476179e-01 ]
      - [ 4.99306507e-02, 0., 0., 0., 1.09570041e-01, 3.19001377e-02,
          2.49653254e-02, 1.10957008e-02, 1.31761447e-01, 1.38696253e-01,
          1.38696253e-01, 1.33148402e-01, 1.38696255e-02, 5.40915392e-02,
          7.21220523e-02, 9.01525691e-02, 4.99306507e-02, 1.77531213e-01,
          5.42302370e-01, 2.30235785e-01, 3.05131763e-01, 2.24687934e-01,
          2.35783637e-01, 2.34396666e-01, 3.10679615e-01, 1.77531198e-01,
          1.91400826e-01, 3.60610262e-02, 3.38418871e-01, 4.34119284e-01,
          3.34257960e-01, 6.65742040e-01 ]
      - [ 4.85875718e-02, 0., 0., 0., 8.92655402e-02, 3.84180807e-02,
          5.42372875e-02, 4.29378524e-02, 1.12994350e-01, 1.12994350e-01,
          1.12994350e-01, 1.10734463e-01, 7.79661015e-02, 8.81355926e-02,
          7.68361613e-02, 3.38983051e-02, 4.85875718e-02, 2.24858761e-01,
          4.49717522e-01, 2.76836157e-01, 3.28813553e-01, 2.39548028e-01,
          2.44067803e-01, 1.87570617e-01, 2.33898312e-01, 2.45197743e-01,
          1.76271200e-01, 9.71751362e-02, 3.92090380e-01, 3.34463269e-01,
          3.18644077e-01, 6.81355953e-01 ]
      - [ 5.52763827e-02, 0., 0., 0., 9.54773873e-02, 3.26633155e-02,
          3.14070359e-02, 2.26130653e-02, 1.16834171e-01, 1.25628144e-01,
          1.25628144e-01, 1.19346730e-01, 4.14572880e-02, 6.78391978e-02,
          8.29145759e-02, 8.29145759e-02, 5.52763827e-02, 1.82160810e-01,
          4.87437189e-01, 2.75125623e-01, 3.09045225e-01, 2.26130664e-01,
          2.39949763e-01, 2.24874377e-01, 2.96482414e-01, 1.98492467e-01,
          1.83417082e-01, 5.40200993e-02, 3.51758808e-01, 4.10804033e-01,
          3.15326631e-01, 6.84673369e-01 ]
      - [ 6.00255430e-02, 0., 0., 0., 1.04725413e-01, 2.04342268e-02,
          1.27713922e-02, 2.55427836e-03, 1.27713919e-01, 1.27713919e-01,
          1.27713919e-01, 1.20051086e-01, 4.59770113e-02, 6.89655170e-02,
          8.04597735e-02, 1.00893997e-01, 6.00255430e-02, 1.40485317e-01,
          5.03192842e-01, 2.96296299e-01, 3.38441879e-01, 2.17113659e-01,
          2.20945090e-01, 2.23499358e-01, 3.09067696e-01, 1.86462328e-01,
          1.85185179e-01, 1.53256711e-02, 3.70370358e-01, 4.29118782e-01,
          2.88633466e-01, 7.11366534e-01 ]
      - [ 5.29279262e-02, 0., 0., 0., 8.89639631e-02, 4.72972989e-02,
          7.20720738e-02, 7.88288265e-02, 1.05855852e-01, 1.12612613e-01,
          1.12612613e-01, 1.06981985e-01, 7.43243247e-02, 6.75675645e-02,
          5.40540554e-02, 2.59009004e-02, 5.29279262e-02, 2.87162155e-01,
          4.38063055e-01, 2.21846849e-01, 3.22072059e-01, 2.27477476e-01,
          2.38738745e-01, 2.11711705e-01, 2.38738745e-01, 2.59009004e-01,
          1.89189196e-01, 1.50900900e-01, 3.60360354e-01, 2.99549550e-01,
          3.44594598e-01, 6.55405402e-01 ]
      - [ 5.29801324e-02, 0., 0., 0., 1.08609274e-01, 3.97351012e-02,
          3.97351012e-02, 2.91390736e-02, 1.27152324e-01, 1.32450327e-01,
          1.32450327e-01, 1.24503314e-01, 1.58940405e-02, 4.63576168e-02,
          6.49006590e-02, 8.60927179e-02, 5.29801324e-02, 2.17218548e-01,
          5.16556263e-01, 2.13245034e-01, 3.04635763e-01, 2.18543053e-01,
          2.37086087e-01, 2.39735112e-01, 3.11258286e-01, 1.88079476e-01,
          2.01324508e-01, 6.88741729e-02, 3.21854293e-01, 4.07947004e-01,
          3.44370842e-01, 6.55629158e-01 ]
      - [ 6.08365014e-02, 1.14068445e-02, 1.90114067e-03, 1.10266156e-01,
          1.04562737e-01, 0., 8.17490518e-02, 1.17870726e-01,
          8.93536136e-02, 3.42205316e-02, 7.60456249e-02, 7.60456249e-02,
          7.22433478e-02, 1.08365022e-01, 1.90114067e-03, 5.32319397e-02,
          1.84410647e-01, 3.04182529e-01, 2.75665402e-01, 2.35741451e-01,
          3.26996207e-01, 1.53992400e-01, 1.61596954e-01, 3.57414454e-01,
          1.90114066e-01, 2.98479080e-01, 1.76806077e-01, 3.11787069e-01,
          3.04182529e-01, 2.07224324e-01, 1.92015201e-01, 8.07984769e-01 ]
      - [ 5.53410538e-02, 0., 7.72200758e-03, 8.36550817e-02,
          8.49420875e-02, 1.15830116e-02, 1.05534106e-01, 1.15830116e-01,
          9.90990996e-02, 1.09395109e-01, 5.92020601e-02, 7.72200748e-02,
          7.07850680e-02, 5.66280559e-02, 0., 6.30630627e-02,
          1.46718144e-01, 3.17889333e-01, 3.44916344e-01, 1.90476179e-01,
          3.10167313e-01, 1.77606180e-01, 1.72458172e-01, 3.39768350e-01,
          1.89189196e-01, 3.69369358e-01, 1.51866153e-01, 3.12741309e-01,
          3.35907340e-01, 1.99485198e-01, 2.85714298e-01, 7.14285731e-01 ]
      - [ 5.18987328e-02, 0., 2.40506325e-02, 8.60759467e-02,
          7.34177232e-02, 2.15189867e-02, 1.10126585e-01, 1.12658225e-01,
          9.49367061e-02, 1.13924049e-01, 4.55696210e-02, 6.58227876e-02,
          8.73417705e-02, 5.82278483e-02, 0., 5.44303805e-02,
          1.62025318e-01, 3.17721516e-01, 3.20253164e-01, 2.00000003e-01,
          3.07594925e-01, 1.93670884e-01, 1.79746836e-01, 3.18987340e-01,
          1.73417717e-01, 3.97468358e-01, 1.46835446e-01, 3.32911402e-01,
          3.54430377e-01, 1.65822789e-01, 2.91139245e-01, 7.08860755e-01 ]
      - [ 6.46766201e-02, 0., 7.46268639e-03, 9.07960236e-02,
          9.20398012e-02, 7.46268639e-03, 9.82587039e-02, 1.20646767e-01,
          9.70149264e-02, 9.70149264e-02, 5.84577098e-02, 6.46766201e-02,
          7.96019882e-02, 6.59203976e-02, 0., 5.59701510e-02,
          1.62935331e-01, 3.18407953e-01, 3.17164183e-01, 2.01492533e-01,
          3.33333343e-01, 1.70398012e-01, 1.64179102e-01, 3.32089573e-01,
          1.86567172e-01, 3.65671635e-01, 1.64179102e-01, 3.17164183e-01,
          3.39552224e-01, 1.79104477e-01, 2.61194021e-01, 7.38806009e-01 ]
      - [ 5.55555560e-02, 0., 8.77192989e-03, 8.47953185e-02,
          7.60233924e-02, 1.16959065e-02, 1.19883038e-01, 1.33040935e-01,
          9.94152054e-02, 1.25730991e-01, 5.26315793e-02, 7.45614022e-02,
          6.57894760e-02, 4.09356728e-02, 0., 5.11695892e-02,
          1.49122804e-01, 3.40643287e-01, 3.52339178e-01, 1.57894731e-01,
          2.96783626e-01, 1.78362578e-01, 1.81286544e-01, 3.43567252e-01,
          1.71052635e-01, 3.96198809e-01, 1.43274859e-01, 3.46491218e-01,
          3.31871331e-01, 1.78362578e-01, 3.09941530e-01, 6.90058470e-01 ]
      - [ 7.23327324e-02, 1.08499099e-02, 3.61663662e-03, 9.22242329e-02,
          9.22242329e-02, 0., 8.49909559e-02, 1.12115733e-01,
          8.86075944e-02, 4.70162742e-02, 7.05244094e-02, 9.04159099e-02,
          6.87160939e-02, 1.01265825e-01, 0., 6.50994554e-02,
          1.79023504e-01, 2.89330930e-01, 2.96564192e-01, 2.35081375e-01,
          3.21880639e-01, 1.59132004e-01, 1.59132004e-01, 3.59855324e-01,
          2.07956597e-01, 2.92947561e-01, 1.75406873e-01, 2.92947561e-01,
          3.05605799e-01, 2.26039767e-01, 2.02531636e-01, 7.97468364e-01 ]
      - [ 5.33515736e-02, 0., 5.47195645e-03, 7.79753774e-02,
          8.61833096e-02, 1.36798909e-02, 1.06703147e-01, 1.21751025e-01,
          1.02599181e-01, 1.13543093e-01, 6.70314655e-02, 6.97674453e-02,
          6.70314655e-02, 5.47195636e-02, 0., 6.01915196e-02,
          1.36798903e-01, 3.28317374e-01, 3.52941185e-01, 1.81942552e-01,
          3.09165537e-01, 1.81942552e-01, 1.79206565e-01, 3.29685360e-01,
          1.94254443e-01, 3.65253091e-01, 1.53214768e-01, 3.11901510e-01,
          3.37893307e-01, 1.96990430e-01, 3.00957590e-01, 6.99042439e-01 ]
      - [ 6.27503321e-02, 0., 1.20160216e-02, 8.27770382e-02,
          8.67823735e-02, 2.13618167e-02, 1.22830443e-01, 1.22830443e-01,
          1.06809080e-01, 1.20160215e-01, 5.47396541e-02, 6.80907890e-02,
          5.74098788e-02, 3.07076108e-02, 0., 5.07343113e-02,
          1.57543391e-01, 3.53805065e-01, 3.49799752e-01, 1.38851807e-01,
          3.13751668e-01, 1.72229648e-01, 1.89586118e-01, 3.24432582e-01,
          1.89586118e-01, 3.83177578e-01, 1.70894518e-01, 3.40453953e-01,
          3.15086782e-01, 1.73564762e-01, 3.19092125e-01, 6.80907905e-01 ]
      - [ 5.54216877e-02, 0., 1.08433738e-02, 8.91566277e-02,
          8.91566277e-02, 1.20481923e-02, 1.02409638e-01, 1.13253012e-01,
          9.15662646e-02, 9.75903645e-02, 6.74698800e-02, 7.22891539e-02,
          8.79518092e-02, 6.86746985e-02, 0., 4.21686731e-02,
          1.55421689e-01, 3.16867471e-01, 3.28915656e-01, 1.98795184e-01,
          3.24096382e-01, 1.78313255e-01, 1.80722892e-01, 3.16867471e-01,
          1.77108437e-01, 3.77108455e-01, 1.56626508e-01, 3.15662652e-01,
          3.45783144e-01, 1.81927711e-01, 2.79518068e-01, 7.20481932e-01 ]
      - [ 6.80000037e-02, 0., 0., 5.60000017e-02, 8.26666653e-02,
          2.13333331e-02, 1.12000003e-01, 1.30666673e-01, 1.13333337e-01,
          1.25333339e-01, 7.19999969e-02, 7.99999982e-02, 4.93333340e-02,
          2.66666673e-02, 0., 6.26666695e-02, 1.24000005e-01,
          3.46666664e-01, 3.90666664e-01, 1.38666674e-01, 3.13333333e-01,
          1.73333347e-01, 1.84000000e-01, 3.29333335e-01, 2.24000007e-01,
          3.42666686e-01, 1.72000006e-01, 2.98666686e-01, 3.14666688e-01,
          2.14666665e-01, 3.30666661e-01, 6.69333339e-01 ]
      - [ 6.01626001e-02, 6.50406489e-03, 9.75609757e-03, 8.61788616e-02,
          1.02439024e-01, 1.30081298e-02, 1.46341464e-02, 8.61788616e-02,
          8.61788616e-02, 4.06504050e-02, 5.85365854e-02, 8.45528468e-02,
          7.31707290e-02, 1.13821141e-01, 9.75609720e-02, 6.66666701e-02,
          1.62601620e-01, 2.16260165e-01, 2.69918710e-01, 3.51219505e-01,
          3.21951210e-01, 1.73983738e-01, 1.80487797e-01, 3.23577225e-01,
          1.98373988e-01, 2.14634135e-01, 1.82113811e-01, 1.96747974e-01,
          3.13821137e-01, 3.07317078e-01, 1.26829267e-01, 8.73170733e-01 ]
      - [ 8.67279917e-02, 0., 0., 4.20499332e-02, 8.54139253e-02,
          2.49671489e-02, 1.83968470e-02, 8.27858075e-02, 1.01182655e-01,
          1.02496713e-01, 8.01576898e-02, 9.06701684e-02, 4.59921174e-02,
          7.22733214e-02, 9.59264114e-02, 7.09592625e-02, 1.28777921e-01,
          2.11563736e-01, 3.74507219e-01, 2.85151124e-01, 3.19316685e-01,
          1.99737191e-01, 1.94480956e-01, 2.86465168e-01, 2.62812078e-01,
          2.08935618e-01, 1.97109073e-01, 1.43232584e-01, 3.21944803e-01,
          3.37713540e-01, 2.26018399e-01, 7.73981571e-01 ]
      - [ 6.48584887e-02, 0., 0., 7.54716992e-02, 8.25471729e-02,
          3.06603778e-02, 2.24056598e-02, 8.72641504e-02, 9.19811353e-02,
          7.90094361e-02, 8.37264135e-02, 8.72641504e-02, 8.72641504e-02,
          8.60849023e-02, 7.90094361e-02, 4.24528308e-02, 1.40330195e-01,
          2.22877353e-01, 3.41981143e-01, 2.94811308e-01, 3.26650947e-01,
          1.95754722e-01, 1.85141504e-01, 2.92452842e-01, 2.21698105e-01,
          2.64150947e-01, 1.78066045e-01, 1.85141504e-01, 3.44339609e-01,
          2.92452842e-01, 2.15801895e-01, 7.84198105e-01 ]
      - [ 6.08272515e-02, 0., 0., 4.25790772e-02, 7.42092431e-02,
          2.06812657e-02, 1.70316305e-02, 7.78588802e-02, 8.51581544e-02,
          7.29926974e-02, 6.81265220e-02, 8.63746926e-02, 9.00243297e-02,
          1.09489053e-01, 1.11922137e-01, 8.27250630e-02, 1.03406325e-01,
          1.89781025e-01, 3.12652051e-01, 3.94160569e-01, 3.10218990e-01,
          2.03163013e-01, 1.97080284e-01, 2.89537728e-01, 2.32360095e-01,
          2.22627729e-01, 1.55717760e-01, 1.37469590e-01, 3.57664227e-01,
          3.49148422e-01, 1.78832114e-01, 8.21167886e-01 ]
      - [ 8.67279917e-02, 0., 0., 4.20499332e-02, 8.54139253e-02,
          2.49671489e-02, 1.83968470e-02, 8.27858075e-02, 1.01182655e-01,
          1.02496713e-01, 8.01576898e-02, 9.06701684e-02, 4.59921174e-02,
          7.22733214e-02, 9.59264114e-02, 7.09592625e-02, 1.28777921e-01,
          2.11563736e-01, 3.74507219e-01, 2.85151124e-01, 3.19316685e-01,
          1.99737191e-01, 1.94480956e-01, 2.86465168e-01, 2.62812078e-01,
          2.08935618e-01, 1.97109073e-01, 1.43232584e-01, 3.21944803e-01,
          3.37713540e-01, 2.26018399e-01, 7.73981571e-01 ]
      - [ 8.67279917e-02, 0., 0., 4.20499332e-02, 8.54139253e-02,
          2.49671489e-02, 1.83968470e-02, 8.27858075e-02, 1.01182655e-01,
          1.02496713e-01, 8.01576898e-02, 9.06701684e-02, 4.59921174e-02,
          7.22733214e-02, 9.59264114e-02, 7.09592625e-02, 1.28777921e-01,
          2.11563736e-01, 3.74507219e-01, 2.85151124e-01, 3.19316685e-01,
          1.99737191e-01, 1.94480956e-01, 2.86465168e-01, 2.62812078e-01,
          2.08935618e-01, 1.97109073e-01, 1.43232584e-01, 3.21944803e-01,
          3.37713540e-01, 2.26018399e-01, 7.73981571e-01 ]
      - [ 5.36159612e-02, 0., 0., 8.60349163e-02, 9.60099772e-02,
          2.24438906e-02, 2.24438906e-02, 8.60349163e-02, 8.60349163e-02,
          6.48379028e-02, 7.98005015e-02, 9.35162082e-02, 9.10224468e-02,
          9.72568542e-02, 7.48129711e-02, 4.61346619e-02, 1.39650881e-01,
          2.26932675e-01, 3.24189544e-01, 3.09226930e-01, 3.26683313e-01,
          1.84538648e-01, 1.77057356e-01, 3.11720699e-01, 2.01995015e-01,
          2.64339149e-01, 1.72069833e-01, 1.94513723e-01, 3.39152128e-01,
          2.94264346e-01, 1.89526185e-01, 8.10473800e-01 ]
      - [ 7.75401071e-02, 0., 0., 2.94117648e-02, 8.82352963e-02,
          1.73796788e-02, 2.00534761e-02, 9.09090936e-02, 9.75935832e-02,
          7.35294148e-02, 7.08556175e-02, 9.35828909e-02, 5.08021377e-02,
          9.35828909e-02, 1.06951870e-01, 8.95721912e-02, 1.06951870e-01,
          2.16577545e-01, 3.35561514e-01, 3.40909094e-01, 3.14171135e-01,
          1.84491992e-01, 1.97860956e-01, 3.03475946e-01, 2.55347610e-01,
          1.73796788e-01, 1.83155090e-01, 1.40374333e-01, 3.15508038e-01,
          3.60962570e-01, 1.81818187e-01, 8.18181813e-01 ]
      - [ 7.12589100e-02, 0., 0., 5.22565320e-02, 7.83848017e-02,
          1.90023761e-02, 1.06888358e-02, 8.31353888e-02, 9.38242301e-02,
          7.95724466e-02, 6.88836128e-02, 8.66983384e-02, 7.48218521e-02,
          1.00950122e-01, 1.04513064e-01, 7.60095045e-02, 1.23515442e-01,
          1.91211402e-01, 3.28978628e-01, 3.56294543e-01, 3.18289787e-01,
          1.99524939e-01, 1.84085518e-01, 2.98099756e-01, 2.35154405e-01,
          2.17339665e-01, 1.68646082e-01, 1.46080762e-01, 3.49168658e-01,
          3.36104512e-01, 1.78147271e-01, 8.21852744e-01 ]
      - [ 5.72139286e-02, 0., 0., 7.96019882e-02, 9.20398012e-02,
          2.23880596e-02, 2.73631848e-02, 8.45771134e-02, 9.95024890e-02,
          8.33333358e-02, 9.45273638e-02, 9.95024890e-02, 7.33830854e-02,
          8.20895508e-02, 6.71641827e-02, 3.73134315e-02, 1.36815920e-01,
          2.26368159e-01, 3.76865685e-01, 2.59950250e-01, 3.22139293e-01,
          1.87810943e-01, 1.89054728e-01, 3.00995022e-01, 2.11442783e-01,
          2.63681591e-01, 1.71641797e-01, 1.91542283e-01, 3.38308454e-01,
          2.98507452e-01, 2.27611944e-01, 7.72388041e-01 ]
      - [ 0., 3.04709133e-02, 9.55678672e-02, 4.84764539e-02,
          9.55678672e-02, 1.38504162e-01, 1.13573410e-01, 7.61772841e-02,
          9.27977860e-02, 2.77008303e-02, 4.70914133e-02, 1.28808871e-01,
          0., 0., 2.07756236e-02, 8.44875351e-02, 1.74515232e-01,
          4.23822731e-01, 2.96398908e-01, 1.05263159e-01, 1.88365653e-01,
          1.96675912e-01, 2.77008325e-01, 3.37950140e-01, 2.70083100e-01,
          1.89750701e-01, 2.64542937e-01, 3.33795011e-01, 1.20498613e-01,
          2.81163454e-01, 3.26869816e-01, 6.73130214e-01 ]
      - [ 1.43884891e-03, 3.16546746e-02, 7.76978433e-02, 4.89208624e-02,
          1.15107916e-01, 1.43884897e-01, 1.05035968e-01, 5.75539581e-02,
          9.35251787e-02, 3.59712243e-02, 4.31654677e-02, 1.25179857e-01,
          0., 0., 3.02158277e-02, 9.06474814e-02, 1.59712225e-01,
          4.21582729e-01, 2.97841728e-01, 1.20863311e-01, 2.10071951e-01,
          2.11510792e-01, 2.56115109e-01, 3.22302163e-01, 2.79136688e-01,
          1.89928055e-01, 2.92086333e-01, 2.89208621e-01, 1.29496396e-01,
          2.89208621e-01, 3.28057557e-01, 6.71942472e-01 ]
      - [ 5.00000007e-02, 8.52941200e-02, 1.05882354e-01, 4.41176482e-02,
          1.45588234e-01, 1.13235295e-01, 7.64705911e-02, 6.02941178e-02,
          2.20588241e-02, 0., 6.32352978e-02, 1.27941176e-01, 0., 0.,
          2.64705885e-02, 7.94117674e-02, 2.85294116e-01, 3.95588249e-01,
          2.13235304e-01, 1.05882354e-01, 2.17647061e-01, 1.98529422e-01,
          2.72058845e-01, 3.11764717e-01, 3.05882365e-01, 1.20588243e-01,
          3.94117653e-01, 2.86764711e-01, 2.20588241e-02, 2.97058821e-01,
          2.52941191e-01, 7.47058809e-01 ]
      - [ 1.70454551e-02, 6.81818202e-02, 1.07954547e-01, 3.69318165e-02,
          1.22159094e-01, 1.34943187e-01, 9.65909064e-02, 4.26136367e-02,
          5.11363633e-02, 1.42045459e-02, 7.24431798e-02, 1.29261360e-01,
          0., 0., 3.83522734e-02, 6.81818202e-02, 2.30113640e-01,
          3.96306813e-01, 2.67045438e-01, 1.06534094e-01, 1.90340906e-01,
          2.17329547e-01, 3.15340906e-01, 2.76988626e-01, 2.92613655e-01,
          1.47727266e-01, 3.42329562e-01, 2.84090906e-01, 6.53409064e-02,
          3.08238626e-01, 3.18181813e-01, 6.81818187e-01 ]
      - [ 1.81311015e-02, 6.69456050e-02, 1.04602508e-01, 3.76569033e-02,
          1.31101817e-01, 1.32496506e-01, 9.34449062e-02, 4.32357043e-02,
          5.29986061e-02, 1.25523014e-02, 7.11297095e-02, 1.31101817e-01,
          0., 0., 3.76569033e-02, 6.69456050e-02, 2.27336124e-01,
          4.00278926e-01, 2.67782420e-01, 1.04602508e-01, 2.02231526e-01,
          2.11994410e-01, 3.06834042e-01, 2.78940022e-01, 2.88702935e-01,
          1.43654108e-01, 3.48675042e-01, 2.78940022e-01, 6.55509084e-02,
          3.06834042e-01, 3.09623420e-01, 6.90376580e-01 ]
      - [ 1.81311015e-02, 6.69456050e-02, 1.04602508e-01, 3.76569033e-02,
          1.31101817e-01, 1.32496506e-01, 9.34449062e-02, 4.32357043e-02,
          5.29986061e-02, 1.25523014e-02, 7.11297095e-02, 1.31101817e-01,
          0., 0., 3.76569033e-02, 6.69456050e-02, 2.27336124e-01,
          4.00278926e-01, 2.67782420e-01, 1.04602508e-01, 2.02231526e-01,
          2.11994410e-01, 3.06834042e-01, 2.78940022e-01, 2.88702935e-01,
          1.43654108e-01, 3.48675042e-01, 2.78940022e-01, 6.55509084e-02,
          3.06834042e-01, 3.09623420e-01, 6.90376580e-01 ]
      - [ 6.03217147e-02, 9.11528170e-02, 1.28686324e-01, 5.09383380e-02,
          1.31367296e-01, 1.12600535e-01, 7.10455775e-02, 4.82573733e-02,
          6.70241285e-03, 0., 5.76407500e-02, 1.17962465e-01, 0., 0.,
          3.88739929e-02, 8.44504014e-02, 3.31099182e-01, 3.63270789e-01,
          1.82305634e-01, 1.23324394e-01, 1.98391423e-01, 2.03753352e-01,
          2.96246648e-01, 3.01608562e-01, 3.15013409e-01, 1.21983916e-01,
          3.95442367e-01, 2.98927605e-01, 6.70241285e-03, 2.98927605e-01,
          2.41286859e-01, 7.58713126e-01 ]
      - [ 1.81311015e-02, 6.69456050e-02, 1.04602508e-01, 3.76569033e-02,
          1.31101817e-01, 1.32496506e-01, 9.34449062e-02, 4.32357043e-02,
          5.29986061e-02, 1.25523014e-02, 7.11297095e-02, 1.31101817e-01,
          0., 0., 3.76569033e-02, 6.69456050e-02, 2.27336124e-01,
          4.00278926e-01, 2.67782420e-01, 1.04602508e-01, 2.02231526e-01,
          2.11994410e-01, 3.06834042e-01, 2.78940022e-01, 2.88702935e-01,
          1.43654108e-01, 3.48675042e-01, 2.78940022e-01, 6.55509084e-02,
          3.06834042e-01, 3.09623420e-01, 6.90376580e-01 ]
      - [ 1.60427801e-02, 6.41711205e-02, 9.75935832e-02, 3.34224589e-02,
          1.21657752e-01, 1.32352948e-01, 1.00267380e-01, 4.14438508e-02,
          6.28342256e-02, 2.00534761e-02, 6.68449178e-02, 1.25668451e-01,
          0., 0., 4.27807495e-02, 7.48663098e-02, 2.11229950e-01,
          3.95721942e-01, 2.75401056e-01, 1.17647059e-01, 2.00534761e-01,
          2.16577545e-01, 3.07486624e-01, 2.75401056e-01, 2.90106952e-01,
          1.53743312e-01, 3.34224612e-01, 2.72727281e-01, 8.28877017e-02,
          3.10160428e-01, 3.19518715e-01, 6.80481255e-01 ]
      - [ 1.81311015e-02, 6.69456050e-02, 1.04602508e-01, 3.76569033e-02,
          1.31101817e-01, 1.32496506e-01, 9.34449062e-02, 4.32357043e-02,
          5.29986061e-02, 1.25523014e-02, 7.11297095e-02, 1.31101817e-01,
          0., 0., 3.76569033e-02, 6.69456050e-02, 2.27336124e-01,
          4.00278926e-01, 2.67782420e-01, 1.04602508e-01, 2.02231526e-01,
          2.11994410e-01, 3.06834042e-01, 2.78940022e-01, 2.88702935e-01,
          1.43654108e-01, 3.48675042e-01, 2.78940022e-01, 6.55509084e-02,
          3.06834042e-01, 3.09623420e-01, 6.90376580e-01 ]
      - [ 9.75999981e-02, 1.16800003e-01, 5.92000000e-02, 6.08000010e-02,
          7.19999969e-02, 7.84000009e-02, 0., 7.36000016e-02,
          6.40000030e-02, 7.84000009e-02, 2.08000001e-02, 7.84000009e-02,
          5.27999997e-02, 2.08000001e-02, 9.44000036e-02, 3.20000015e-02,
          3.34399998e-01, 2.24000007e-01, 2.41600007e-01, 2.00000003e-01,
          2.86399990e-01, 2.94400007e-01, 1.74400002e-01, 2.44800001e-01,
          2.28799999e-01, 1.92000002e-01, 3.64800006e-01, 1.93599999e-01,
          2.16000006e-01, 2.25600004e-01, 1.77599996e-01, 8.22400033e-01 ]
      - [ 9.90220085e-02, 8.31295848e-02, 6.11246936e-03, 1.10024447e-02,
          8.67970660e-02, 1.00244500e-01, 4.88997577e-03, 8.43520761e-02,
          7.33496323e-02, 7.57946223e-02, 2.32273843e-02, 7.70171136e-02,
          3.78973112e-02, 3.91198061e-02, 1.12469435e-01, 8.55745748e-02,
          1.99266508e-01, 2.76283622e-01, 2.49388754e-01, 2.75061131e-01,
          2.97066033e-01, 2.98288524e-01, 1.46699265e-01, 2.57946223e-01,
          3.08068454e-01, 1.29584357e-01, 3.69193166e-01, 1.06356964e-01,
          2.26161376e-01, 2.98288494e-01, 2.04156488e-01, 7.95843542e-01 ]
      - [ 9.56790149e-02, 1.18827164e-01, 5.40123470e-02, 6.01851866e-02,
          6.17283955e-02, 7.87037015e-02, 0., 6.94444478e-02,
          7.40740746e-02, 7.87037015e-02, 3.24074067e-02, 7.40740746e-02,
          5.55555560e-02, 2.00617276e-02, 9.25925896e-02, 3.39506157e-02,
          3.28703701e-01, 2.09876537e-01, 2.59259254e-01, 2.02160493e-01,
          2.87037045e-01, 2.96296299e-01, 1.79012343e-01, 2.37654328e-01,
          2.40740746e-01, 1.94444448e-01, 3.54938269e-01, 1.83641985e-01,
          2.28395060e-01, 2.33024687e-01, 1.89814806e-01, 8.10185194e-01 ]
      - [ 9.65608433e-02, 9.12698433e-02, 5.29100513e-03, 2.38095243e-02,
          8.33333358e-02, 1.03174604e-01, 3.96825420e-03, 9.52380970e-02,
          6.87830672e-02, 7.40740746e-02, 3.17460336e-02, 9.39153433e-02,
          2.24867724e-02, 2.64550261e-02, 1.01851851e-01, 7.80423284e-02,
          2.16931209e-01, 2.85714298e-01, 2.68518507e-01, 2.28835970e-01,
          2.71164030e-01, 2.94973552e-01, 1.42857149e-01, 2.91005284e-01,
          3.09523821e-01, 1.24338627e-01, 3.74338627e-01, 1.28306881e-01,
          1.91798940e-01, 3.05555552e-01, 2.12962970e-01, 7.87037015e-01 ]
      - [ 6.23409674e-02, 8.14249367e-02, 0., 6.61577582e-02,
          1.03053436e-01, 1.00508906e-01, 0., 8.90585259e-02,
          6.36132285e-02, 6.99745566e-02, 3.68956737e-02, 9.16030556e-02,
          5.34351133e-02, 2.54452918e-02, 1.03053436e-01, 5.34351133e-02,
          2.09923655e-01, 2.92620867e-01, 2.62086511e-01, 2.35368952e-01,
          2.82442749e-01, 2.77353704e-01, 1.39949113e-01, 3.00254464e-01,
          2.53180653e-01, 1.89567432e-01, 3.47328246e-01, 1.55216277e-01,
          2.12468192e-01, 2.84987271e-01, 2.07379133e-01, 7.92620838e-01 ]
      - [ 1.08419836e-01, 1.03806227e-01, 0., 4.03690897e-02,
          8.65051895e-02, 8.99653956e-02, 0., 7.95847774e-02,
          5.88235296e-02, 6.34371415e-02, 4.03690897e-02, 9.22721997e-02,
          4.61360998e-02, 3.22952718e-02, 9.22721997e-02, 6.57439455e-02,
          2.52595156e-01, 2.56055355e-01, 2.54901946e-01, 2.36447513e-01,
          2.99884647e-01, 2.89504051e-01, 1.32641286e-01, 2.77970016e-01,
          3.04498255e-01, 1.49942338e-01, 3.88696641e-01, 1.19953871e-01,
          2.00692043e-01, 2.90657431e-01, 1.93771631e-01, 8.06228340e-01 ]
      - [ 9.47368443e-02, 9.12280679e-02, 5.84795326e-03, 5.38011678e-02,
          9.35672522e-02, 9.47368443e-02, 1.16959063e-03, 8.65497068e-02,
          6.08187132e-02, 6.31578937e-02, 2.80701760e-02, 8.42105299e-02,
          4.32748534e-02, 3.27485390e-02, 9.59064364e-02, 7.01754391e-02,
          2.45614037e-01, 2.76023388e-01, 2.36257315e-01, 2.42105275e-01,
          2.92397678e-01, 2.81871349e-01, 1.30994156e-01, 2.94736832e-01,
          2.87719309e-01, 1.61403507e-01, 3.74269009e-01, 1.47368416e-01,
          2.00000003e-01, 2.78362572e-01, 1.87134504e-01, 8.12865496e-01 ]
      - [ 1.01673104e-01, 1.05534106e-01, 0., 3.98970395e-02,
          7.85070807e-02, 9.13770944e-02, 0., 6.94980696e-02,
          7.72200748e-02, 6.30630627e-02, 2.70270277e-02, 8.62290859e-02,
          2.57400256e-02, 2.44530253e-02, 1.10682108e-01, 9.90990996e-02,
          2.47104257e-01, 2.39382237e-01, 2.53539264e-01, 2.59974271e-01,
          2.83140272e-01, 2.84427285e-01, 1.37709141e-01, 2.94723302e-01,
          3.19176316e-01, 1.28700122e-01, 3.77091378e-01, 1.09395109e-01,
          1.90476194e-01, 3.23037326e-01, 1.81467190e-01, 8.18532825e-01 ]
      - [ 9.56937820e-02, 9.56937820e-02, 7.17703346e-03, 3.46889943e-02,
          8.13397095e-02, 8.37320611e-02, 2.39234441e-03, 8.25358853e-02,
          7.17703328e-02, 6.57894760e-02, 3.34928222e-02, 7.41626769e-02,
          4.30622026e-02, 3.34928222e-02, 1.11244023e-01, 8.37320611e-02,
          2.33253598e-01, 2.50000000e-01, 2.45215312e-01, 2.71531105e-01,
          2.91866034e-01, 2.78708130e-01, 1.54306218e-01, 2.75119603e-01,
          2.96650738e-01, 1.45933017e-01, 3.56459320e-01, 1.26794264e-01,
          2.14114830e-01, 3.02631587e-01, 1.85406700e-01, 8.14593315e-01 ]
      - [ 7.33173043e-02, 8.29326957e-02, 0., 7.21153840e-02,
          9.61538479e-02, 1.00961536e-01, 0., 8.89423043e-02,
          6.00961521e-02, 6.73076957e-02, 5.64903840e-02, 9.49519202e-02,
          5.04807681e-02, 2.88461540e-02, 8.05288479e-02, 4.68750000e-02,
          2.28365391e-01, 2.86057681e-01, 2.78846145e-01, 2.06730768e-01,
          2.80048072e-01, 2.80048072e-01, 1.37019232e-01, 3.02884609e-01,
          2.77644217e-01, 1.89903855e-01, 3.53365391e-01, 1.61057681e-01,
          2.06730768e-01, 2.78846145e-01, 2.24759609e-01, 7.75240362e-01 ]
      - [ 5.21861762e-02, 1.07193232e-01, 1.12834975e-01, 5.07757403e-02,
          6.62905499e-02, 6.62905499e-02, 1.41043728e-03, 7.47531727e-02,
          6.77009895e-02, 6.48801103e-02, 1.41043728e-03, 6.77009895e-02,
          5.92383631e-02, 3.80818062e-02, 1.10014103e-01, 5.92383631e-02,
          3.22990119e-01, 2.08744705e-01, 2.01692522e-01, 2.66572624e-01,
          2.45416075e-01, 2.76445687e-01, 2.25669950e-01, 2.52468258e-01,
          1.79125533e-01, 1.76304653e-01, 2.91960508e-01, 2.39774331e-01,
          2.29901269e-01, 2.38363892e-01, 1.33991539e-01, 8.66008461e-01 ]
      - [ 7.90243894e-02, 9.75609720e-02, 9.75609720e-02, 7.31707290e-02,
          7.31707290e-02, 6.34146333e-02, 7.80487806e-03, 6.43902421e-02,
          7.21951202e-02, 4.87804860e-02, 4.29268293e-02, 7.31707290e-02,
          6.14634156e-02, 1.95121951e-02, 7.70731717e-02, 4.87804860e-02,
          3.47317070e-01, 2.08780482e-01, 2.37073168e-01, 2.06829265e-01,
          2.85853654e-01, 2.29268283e-01, 2.25365847e-01, 2.59512186e-01,
          2.34146342e-01, 1.91219509e-01, 3.13170731e-01, 2.42926821e-01,
          2.01951221e-01, 2.41951212e-01, 1.62926823e-01, 8.37073147e-01 ]
      - [ 8.06629807e-02, 1.01657458e-01, 7.95580074e-02, 4.41988967e-02,
          7.29281753e-02, 6.29834235e-02, 3.20441984e-02, 8.06629807e-02,
          7.51381218e-02, 5.19337021e-02, 3.09392270e-02, 7.62430951e-02,
          2.65193377e-02, 1.98895019e-02, 9.17127058e-02, 7.29281753e-02,
          3.06077331e-01, 2.48618782e-01, 2.34254152e-01, 2.11049721e-01,
          2.55248606e-01, 2.36464083e-01, 2.34254137e-01, 2.74033159e-01,
          2.47513801e-01, 1.54696137e-01, 3.18232030e-01, 2.36464083e-01,
          1.73480660e-01, 2.71823198e-01, 1.77900553e-01, 8.22099447e-01 ]
      - [ 5.97453490e-02, 8.03134218e-02, 8.42311457e-02, 5.58276214e-02,
          7.73751214e-02, 7.73751214e-02, 4.21155728e-02, 7.34573975e-02,
          6.75808042e-02, 5.58276214e-02, 3.42801176e-02, 7.34573975e-02,
          5.58276214e-02, 2.54652295e-02, 8.03134218e-02, 5.68070523e-02,
          2.80117542e-01, 2.70323217e-01, 2.31145948e-01, 2.18413323e-01,
          2.60528892e-01, 2.38981396e-01, 2.40940258e-01, 2.59549469e-01,
          2.28207648e-01, 2.09598437e-01, 2.94809014e-01, 2.55631745e-01,
          2.04701275e-01, 2.44857997e-01, 2.09598437e-01, 7.90401578e-01 ]
      - [ 8.70933905e-02, 9.44386125e-02, 9.44386125e-02, 6.08604401e-02,
          7.03043044e-02, 7.24029392e-02, 2.20356770e-02, 7.45015740e-02,
          5.98111227e-02, 5.24658971e-02, 1.67890862e-02, 6.19097576e-02,
          4.40713540e-02, 2.41343118e-02, 9.65372473e-02, 6.82056695e-02,
          3.36831063e-01, 2.39244491e-01, 1.90975860e-01, 2.32948586e-01,
          2.61280179e-01, 2.43441761e-01, 2.29800627e-01, 2.65477449e-01,
          2.44491085e-01, 1.79433376e-01, 3.24239254e-01, 2.51836300e-01,
          1.80482686e-01, 2.43441761e-01, 1.63693607e-01, 8.36306393e-01 ]
      - [ 4.71204184e-02, 1.22164048e-01, 1.11692846e-01, 5.58464229e-02,
          7.50436336e-02, 6.98080286e-02, 1.74520072e-03, 6.28272220e-02,
          6.63176253e-02, 6.45724237e-02, 1.74520072e-03, 6.45724237e-02,
          5.58464229e-02, 2.96684112e-02, 1.20418847e-01, 5.06108217e-02,
          3.36823732e-01, 2.09424078e-01, 1.97207674e-01, 2.56544501e-01,
          2.44328097e-01, 2.86212921e-01, 2.35602096e-01, 2.33856887e-01,
          1.69284463e-01, 1.78010464e-01, 3.14136118e-01, 2.32111692e-01,
          2.16404885e-01, 2.37347290e-01, 1.37870848e-01, 8.62129152e-01 ]
      - [ 6.97435886e-02, 9.84615386e-02, 1.02564104e-01, 7.38461539e-02,
          7.48717934e-02, 6.87179491e-02, 2.76923068e-02, 6.66666701e-02,
          6.46153837e-02, 4.71794866e-02, 2.66666673e-02, 6.35897443e-02,
          4.51282039e-02, 1.94871798e-02, 9.12820548e-02, 5.94871789e-02,
          3.44615400e-01, 2.37948716e-01, 2.02051282e-01, 2.15384617e-01,
          2.54358977e-01, 2.33846158e-01, 2.48205125e-01, 2.63589740e-01,
          2.24615380e-01, 1.93846151e-01, 3.11794877e-01, 2.70769238e-01,
          1.76410258e-01, 2.41025642e-01, 1.70256406e-01, 8.29743624e-01 ]
      - [ 7.99999982e-02, 9.62162167e-02, 7.89189190e-02, 3.45945954e-02,
          7.13513494e-02, 7.67567605e-02, 3.24324332e-02, 7.24324360e-02,
          7.02702701e-02, 5.29729724e-02, 2.70270277e-02, 7.02702701e-02,
          3.78378369e-02, 2.27027033e-02, 9.72972959e-02, 7.89189190e-02,
          2.89729714e-01, 2.52972990e-01, 2.20540538e-01, 2.36756757e-01,
          2.59459466e-01, 2.48648658e-01, 2.35675678e-01, 2.56216228e-01,
          2.62702703e-01, 1.57837838e-01, 3.24324310e-01, 2.18378380e-01,
          1.83783785e-01, 2.73513526e-01, 1.89189196e-01, 8.10810804e-01 ]
      - [ 5.39647564e-02, 7.59911910e-02, 9.25110132e-02, 7.81938359e-02,
          8.37004408e-02, 7.92951509e-02, 2.42290758e-02, 7.26872236e-02,
          7.26872236e-02, 5.06607927e-02, 6.49779737e-02, 8.92070457e-02,
          4.73568290e-02, 1.32158594e-02, 6.49779737e-02, 3.63436118e-02,
          3.00660789e-01, 2.59911895e-01, 2.77533025e-01, 1.61894277e-01,
          2.57709265e-01, 2.19163001e-01, 2.46696040e-01, 2.76431710e-01,
          2.34581500e-01, 2.00440526e-01, 2.92951524e-01, 2.67621160e-01,
          1.83920711e-01, 2.55506605e-01, 2.19163001e-01, 7.80836999e-01 ]
      - [ 8.44594613e-02, 9.23423395e-02, 7.54504502e-02, 4.27927934e-02,
          6.98198229e-02, 6.98198229e-02, 3.49099115e-02, 7.43243247e-02,
          6.53153136e-02, 5.63063063e-02, 2.59009004e-02, 7.54504502e-02,
          4.61711697e-02, 2.81531531e-02, 9.23423395e-02, 6.64414391e-02,
          2.95045048e-01, 2.48873889e-01, 2.22972974e-01, 2.33108103e-01,
          2.65765756e-01, 2.46621624e-01, 2.28603601e-01, 2.59009004e-01,
          2.46621624e-01, 1.80180177e-01, 3.16441447e-01, 2.27477476e-01,
          1.95945948e-01, 2.60135114e-01, 1.86936945e-01, 8.13063085e-01 ]
      - [ 1.43092111e-01, 0., 0., 7.56578967e-02, 9.21052620e-02,
          6.57894742e-03, 1.11842103e-01, 1.00328945e-01, 1.05263159e-01,
          1.31578952e-01, 7.07236826e-02, 0., 1.29934207e-01,
          3.28947380e-02, 0., 0., 2.18750000e-01, 3.10855269e-01,
          3.07565808e-01, 1.62828952e-01, 4.70394731e-01, 1.71052635e-01,
          1.82565778e-01, 1.75986841e-01, 2.20394745e-01, 4.49013174e-01,
          2.41776317e-01, 2.87828952e-01, 3.99671048e-01, 7.07236826e-02,
          3.20723683e-01, 6.79276347e-01 ]
      - [ 4.70779203e-02, 0., 4.87012975e-03, 8.76623392e-02,
          1.10389613e-01, 2.92207785e-02, 1.33116886e-01, 1.10389613e-01,
          1.39610395e-01, 1.46103889e-01, 6.33116886e-02, 0.,
          1.05519481e-01, 2.27272734e-02, 0., 0., 1.39610395e-01,
          3.83116901e-01, 3.49025965e-01, 1.28246754e-01, 4.02597398e-01,
          1.98051944e-01, 2.01298699e-01, 1.98051959e-01, 1.39610380e-01,
          4.72402602e-01, 1.86688304e-01, 3.36038977e-01, 4.13961053e-01,
          6.33116886e-02, 3.71753246e-01, 6.28246784e-01 ]
      - [ 8.32157955e-02, 0., 0., 5.50070517e-02, 9.30888578e-02,
          2.25669965e-02, 1.10014103e-01, 1.24118477e-01, 1.14245415e-01,
          1.35401979e-01, 1.00141041e-01, 8.46262369e-03, 1.05782792e-01,
          4.79548648e-02, 0., 0., 1.38222843e-01, 3.49788427e-01,
          3.58251065e-01, 1.53737664e-01, 3.96332860e-01, 2.05923840e-01,
          2.10155144e-01, 1.87588155e-01, 2.05923826e-01, 4.06205922e-01,
          1.98871642e-01, 2.89139628e-01, 4.03385043e-01, 1.08603664e-01,
          3.68124127e-01, 6.31875873e-01 ]
      - [ 5.84707633e-02, 0., 1.04947528e-02, 9.29535255e-02,
          7.94602707e-02, 3.89805101e-02, 1.31934032e-01, 9.59520265e-02,
          1.25937030e-01, 1.43928036e-01, 7.04647675e-02, 0.,
          1.21439278e-01, 2.99850069e-02, 0., 0., 1.61919042e-01,
          3.46326828e-01, 3.40329826e-01, 1.51424289e-01, 3.85307342e-01,
          2.12893546e-01, 2.12893546e-01, 1.88905552e-01, 1.67916045e-01,
          4.90254879e-01, 1.76911548e-01, 3.31334323e-01, 4.21289355e-01,
          7.04647675e-02, 3.85307342e-01, 6.14692628e-01 ]
      - [ 6.92934766e-02, 0., 2.03804355e-02, 1.07336953e-01,
          9.51086953e-02, 4.48369570e-02, 1.29076093e-01, 7.88043514e-02,
          1.19565219e-01, 1.29076093e-01, 5.70652187e-02, 0.,
          1.19565219e-01, 2.98913047e-02, 0., 0., 1.97010860e-01,
          3.47826093e-01, 3.05706531e-01, 1.49456531e-01, 4.03532624e-01,
          2.03804359e-01, 2.06521749e-01, 1.86141312e-01, 1.71195656e-01,
          4.85054374e-01, 2.09239125e-01, 3.35597843e-01, 3.98097843e-01,
          5.70652187e-02, 3.60054374e-01, 6.39945626e-01 ]
      - [ 7.06766918e-02, 0., 9.02255625e-03, 9.92481187e-02,
          9.92481187e-02, 2.70676687e-02, 1.32330820e-01, 9.32330862e-02,
          1.15789473e-01, 1.32330820e-01, 7.21804500e-02, 0.,
          1.14285715e-01, 3.45864668e-02, 0., 0., 1.78947359e-01,
          3.51879686e-01, 3.20300758e-01, 1.48872182e-01, 4.00000006e-01,
          1.93984956e-01, 2.13533819e-01, 1.92481205e-01, 1.69924811e-01,
          4.78195488e-01, 1.96992487e-01, 3.33834589e-01, 3.96992475e-01,
          7.21804500e-02, 3.63909751e-01, 6.36090219e-01 ]
      - [ 5.67260943e-02, 0., 8.10372736e-03, 1.02106966e-01,
          1.10210694e-01, 3.72771472e-02, 1.41004860e-01, 9.40032378e-02,
          1.26418158e-01, 1.45867094e-01, 5.67260943e-02, 0.,
          1.00486226e-01, 2.10696924e-02, 0., 0., 1.66936785e-01,
          3.82495940e-01, 3.29011351e-01, 1.21555917e-01, 3.93841177e-01,
          2.04213932e-01, 2.05834687e-01, 1.96110204e-01, 1.50729328e-01,
          4.89465147e-01, 2.04213932e-01, 3.45218778e-01, 3.93841177e-01,
          5.67260943e-02, 3.80875200e-01, 6.19124770e-01 ]
      - [ 8.70185420e-02, 0., 1.28388014e-02, 9.98573452e-02,
          1.01283878e-01, 2.99572032e-02, 1.24108419e-01, 9.70042795e-02,
          1.12696148e-01, 1.32667616e-01, 6.41940087e-02, 0.,
          1.11269616e-01, 2.71041375e-02, 0., 0., 1.99714690e-01,
          3.52353781e-01, 3.09557766e-01, 1.38373747e-01, 4.12268192e-01,
          1.89728960e-01, 2.01141223e-01, 1.96861625e-01, 1.81169748e-01,
          4.67902988e-01, 2.18259618e-01, 3.33808839e-01, 3.83737504e-01,
          6.41940087e-02, 3.50927234e-01, 6.49072766e-01 ]
      - [ 5.46528809e-02, 0., 2.95420969e-03, 7.38552436e-02,
          1.12259969e-01, 1.77252591e-02, 1.13737077e-01, 1.18168391e-01,
          1.10782869e-01, 1.25553921e-01, 9.45347100e-02, 5.90841938e-03,
          1.18168391e-01, 5.16986698e-02, 0., 0., 1.31462336e-01,
          3.61890703e-01, 3.36779922e-01, 1.69867069e-01, 3.95864099e-01,
          1.94977850e-01, 2.11226001e-01, 1.97932050e-01, 1.66912854e-01,
          4.31314647e-01, 1.84638113e-01, 3.08714926e-01, 4.06203866e-01,
          1.00443132e-01, 3.51550967e-01, 6.48449063e-01 ]
      - [ 5.05050495e-02, 0., 2.88600288e-03, 8.08080807e-02,
          1.08225107e-01, 1.87590197e-02, 1.15440115e-01, 1.16883114e-01,
          1.13997117e-01, 1.29870132e-01, 9.23520923e-02, 8.65800865e-03,
          1.11111112e-01, 5.05050495e-02, 0., 0., 1.34199128e-01,
          3.59307349e-01, 3.44877362e-01, 1.61616161e-01, 3.83838385e-01,
          1.99134201e-01, 2.10678205e-01, 2.06349209e-01, 1.61616161e-01,
          4.37229455e-01, 1.77489176e-01, 3.16017300e-01, 4.05483425e-01,
          1.01010099e-01, 3.56421351e-01, 6.43578649e-01 ]
      - [ 5.29634282e-02, 6.80958405e-02, 1.08448930e-01, 5.54854982e-02,
          7.56620392e-02, 7.18789399e-02, 6.30517025e-03, 6.68348074e-02,
          7.56620392e-02, 7.94451460e-02, 6.30517025e-03, 6.68348074e-02,
          4.28751558e-02, 5.80075644e-02, 1.05926856e-01, 5.92686012e-02,
          2.84993708e-01, 2.20680952e-01, 2.28247166e-01, 2.66078174e-01,
          2.47162670e-01, 2.77427495e-01, 2.26986125e-01, 2.48423710e-01,
          1.90416142e-01, 1.84110969e-01, 2.68600255e-01, 2.37074405e-01,
          2.55989909e-01, 2.38335431e-01, 1.63934425e-01, 8.36065590e-01 ]
      - [ 4.06504050e-02, 5.48780486e-02, 7.41869882e-02, 6.70731738e-02,
          8.23170766e-02, 6.30081296e-02, 5.18292673e-02, 6.60569072e-02,
          6.40243888e-02, 4.47154455e-02, 5.99593483e-02, 7.21544698e-02,
          8.02845508e-02, 7.82520324e-02, 6.30081296e-02, 3.76016274e-02,
          2.36788616e-01, 2.63211370e-01, 2.40853652e-01, 2.59146333e-01,
          2.67276406e-01, 2.40853652e-01, 2.48983741e-01, 2.42886186e-01,
          2.01219514e-01, 2.43902445e-01, 2.40853667e-01, 2.59146333e-01,
          2.67276406e-01, 2.32723579e-01, 2.19512194e-01, 7.80487776e-01 ]
      - [ 5.70377186e-02, 7.54369795e-02, 8.09567645e-02, 5.61177544e-02,
          6.71573132e-02, 4.96780127e-02, 4.78380881e-02, 6.53173849e-02,
          6.62373528e-02, 4.69181240e-02, 4.96780127e-02, 6.62373528e-02,
          6.53173849e-02, 7.91168362e-02, 7.08371699e-02, 5.61177544e-02,
          2.69549221e-01, 2.29990795e-01, 2.29070842e-01, 2.71389157e-01,
          2.55749762e-01, 2.51149952e-01, 2.49310032e-01, 2.43790239e-01,
          2.12511495e-01, 2.16191351e-01, 2.49310017e-01, 2.50229985e-01,
          2.57589698e-01, 2.42870286e-01, 1.94112241e-01, 8.05887759e-01 ]
      - [ 7.54527152e-02, 8.35010037e-02, 6.74044266e-02, 4.62776646e-02,
          6.74044266e-02, 4.52716313e-02, 5.43259569e-02, 7.34406412e-02,
          7.74647892e-02, 5.83501011e-02, 4.52716313e-02, 6.74044266e-02,
          4.82897386e-02, 5.53319901e-02, 7.24346042e-02, 6.23742454e-02,
          2.72635818e-01, 2.40442663e-01, 2.48490945e-01, 2.38430575e-01,
          2.68611670e-01, 2.42454723e-01, 2.39436626e-01, 2.49496982e-01,
          2.28370219e-01, 2.07243457e-01, 2.71629781e-01, 2.41448686e-01,
          2.39436626e-01, 2.47484908e-01, 2.03219324e-01, 7.96780646e-01 ]
      - [ 5.10638282e-02, 7.23404288e-02, 1.07801415e-01, 5.67375869e-02,
          7.09219873e-02, 7.37588629e-02, 1.41843967e-03, 6.52482286e-02,
          7.37588629e-02, 8.08510631e-02, 2.83687934e-03, 6.80851042e-02,
          4.68085110e-02, 6.52482286e-02, 1.03546098e-01, 5.95744699e-02,
          2.87943244e-01, 2.11347520e-01, 2.25531906e-01, 2.75177300e-01,
          2.42553189e-01, 2.92198598e-01, 2.15602830e-01, 2.49645382e-01,
          1.87234044e-01, 1.85815603e-01, 2.68085122e-01, 2.31205672e-01,
          2.66666651e-01, 2.34042555e-01, 1.58865243e-01, 8.41134727e-01 ]
      - [ 7.38522932e-02, 7.98403174e-02, 8.58283415e-02, 6.58682659e-02,
          6.78642690e-02, 4.59081829e-02, 4.09181640e-02, 6.88622743e-02,
          8.18363279e-02, 6.58682659e-02, 6.28742501e-02, 7.78443143e-02,
          4.39121760e-02, 5.08982018e-02, 5.18962070e-02, 3.59281451e-02,
          3.05389225e-01, 2.23552883e-01, 2.88423151e-01, 1.82634726e-01,
          2.67465055e-01, 2.42514968e-01, 2.41516963e-01, 2.48503000e-01,
          2.18562871e-01, 2.16566876e-01, 2.67465055e-01, 2.61477053e-01,
          2.42514968e-01, 2.28542924e-01, 2.15568870e-01, 7.84431159e-01 ]
      - [ 7.46113956e-02, 7.77202100e-02, 5.59585504e-02, 4.14507762e-02,
          6.32124320e-02, 4.55958545e-02, 6.52849749e-02, 7.77202100e-02,
          8.08290169e-02, 6.73575103e-02, 5.49222790e-02, 7.04663247e-02,
          3.31606232e-02, 5.18134721e-02, 7.25388601e-02, 6.73575103e-02,
          2.49740928e-01, 2.51813471e-01, 2.73575127e-01, 2.24870473e-01,
          2.51813471e-01, 2.42487043e-01, 2.48704672e-01, 2.56994814e-01,
          2.42487043e-01, 2.07253888e-01, 2.61139899e-01, 2.40414515e-01,
          2.33160615e-01, 2.65284985e-01, 2.33160615e-01, 7.66839385e-01 ]
      - [ 7.46720508e-02, 7.87083730e-02, 7.36629665e-02, 4.54086773e-02,
          6.76084757e-02, 5.14631681e-02, 5.44904135e-02, 6.86175600e-02,
          6.76084757e-02, 5.85267395e-02, 4.84359227e-02, 6.65993914e-02,
          5.24722487e-02, 6.15539849e-02, 7.16448054e-02, 5.85267395e-02,
          2.72452056e-01, 2.42179617e-01, 2.41170526e-01, 2.44197786e-01,
          2.62361258e-01, 2.50252277e-01, 2.48234108e-01, 2.39152372e-01,
          2.33097881e-01, 2.10898072e-01, 2.72452056e-01, 2.42179617e-01,
          2.40161449e-01, 2.45206863e-01, 2.12916240e-01, 7.87083745e-01 ]
      - [ 7.12353438e-02, 7.48421997e-02, 6.58250675e-02, 5.13976552e-02,
          6.40216395e-02, 4.59873751e-02, 5.50045073e-02, 6.85302094e-02,
          7.39404857e-02, 5.77096492e-02, 5.32010831e-02, 6.67267814e-02,
          4.95942272e-02, 6.49233535e-02, 7.21370578e-02, 6.49233535e-02,
          2.63300270e-01, 2.33543724e-01, 2.51578003e-01, 2.51578003e-01,
          2.58791685e-01, 2.43462577e-01, 2.46167719e-01, 2.51578003e-01,
          2.35347152e-01, 2.13706046e-01, 2.56086558e-01, 2.40757436e-01,
          2.46167719e-01, 2.56988287e-01, 2.11902618e-01, 7.88097382e-01 ]
      - [ 2.81030443e-02, 4.44964878e-02, 8.66510570e-02, 7.49414489e-02,
          8.31381753e-02, 6.55737668e-02, 4.44964878e-02, 7.49414489e-02,
          7.37704933e-02, 5.50351292e-02, 7.49414489e-02, 8.54800940e-02,
          7.37704933e-02, 7.02576116e-02, 3.86416875e-02, 2.57611237e-02,
          2.34192044e-01, 2.68149883e-01, 2.89227158e-01, 2.08430916e-01,
          2.58782208e-01, 2.35362992e-01, 2.44730681e-01, 2.61124104e-01,
          1.94379389e-01, 2.48243555e-01, 2.21311480e-01, 2.81030446e-01,
          2.72833735e-01, 2.24824354e-01, 2.40046829e-01, 7.59953141e-01 ]
      - [ 6.65163472e-02, 1.09357387e-01, 2.70574968e-02, 6.31341636e-02,
          6.08793683e-02, 3.38218710e-03, 5.86245768e-02, 6.42615557e-02,
          6.31341636e-02, 5.63697843e-03, 6.20067641e-02, 6.42615557e-02,
          6.42615557e-02, 1.12739570e-01, 1.08229987e-01, 6.65163472e-02,
          2.66065389e-01, 1.87147692e-01, 1.95039466e-01, 3.51747453e-01,
          2.54791439e-01, 2.31116116e-01, 2.55918831e-01, 2.58173615e-01,
          1.98421642e-01, 1.91657275e-01, 2.40135282e-01, 2.13077798e-01,
          2.45772272e-01, 3.01014662e-01, 1.29650503e-01, 8.70349526e-01 ]
      - [ 5.18292673e-02, 8.02845508e-02, 2.13414636e-02, 4.77642268e-02,
          7.62195140e-02, 3.65853645e-02, 4.87804860e-02, 7.11382106e-02,
          7.31707290e-02, 2.74390243e-02, 7.41869882e-02, 7.82520324e-02,
          7.52032548e-02, 9.45121944e-02, 8.53658542e-02, 5.79268299e-02,
          2.01219514e-01, 2.32723579e-01, 2.53048778e-01, 3.13008130e-01,
          2.76422769e-01, 2.38821134e-01, 2.29674786e-01, 2.55081296e-01,
          2.20528454e-01, 1.99186996e-01, 2.44918704e-01, 1.89024389e-01,
          2.70325214e-01, 2.95731694e-01, 1.86991870e-01, 8.13008130e-01 ]
      - [ 7.87878782e-02, 9.45454538e-02, 1.33333337e-02, 2.54545454e-02,
          6.90909103e-02, 1.93939395e-02, 5.21212108e-02, 7.15151504e-02,
          7.27272704e-02, 4.72727269e-02, 8.12121183e-02, 8.72727260e-02,
          3.51515152e-02, 8.12121183e-02, 9.57575738e-02, 7.51515180e-02,
          2.12121218e-01, 2.12121218e-01, 2.88484842e-01, 2.87272722e-01,
          2.55757570e-01, 2.42424235e-01, 2.42424235e-01, 2.59393930e-01,
          2.54545450e-01, 1.59999996e-01, 2.61818171e-01, 1.62424237e-01,
          2.36363634e-01, 3.39393944e-01, 1.99999988e-01, 8.00000012e-01 ]
      - [ 6.32497296e-02, 7.85169005e-02, 1.09051252e-02, 3.16248648e-02,
          8.06979313e-02, 3.27153765e-02, 4.47110124e-02, 6.97927997e-02,
          7.85169005e-02, 3.48963998e-02, 7.30643421e-02, 8.39694664e-02,
          7.08833188e-02, 9.16030556e-02, 9.16030556e-02, 6.32497296e-02,
          1.84296623e-01, 2.27917120e-01, 2.70447105e-01, 3.17339152e-01,
          2.93347895e-01, 2.37731725e-01, 2.20283538e-01, 2.48636857e-01,
          2.32279181e-01, 1.82115600e-01, 2.55179942e-01, 1.57033801e-01,
          2.75899678e-01, 3.11886609e-01, 1.85387135e-01, 8.14612865e-01 ]
      - [ 8.90868604e-02, 1.06904231e-01, 2.56124716e-02, 3.00668143e-02,
          6.90423176e-02, 1.11358576e-02, 5.01113571e-02, 6.57015592e-02,
          8.01781714e-02, 5.34521155e-02, 7.46102482e-02, 7.68374130e-02,
          3.67483310e-02, 7.46102482e-02, 8.79732743e-02, 6.79287314e-02,
          2.51670390e-01, 1.95991099e-01, 2.85077959e-01, 2.67260581e-01,
          2.75055677e-01, 2.46102452e-01, 2.38307357e-01, 2.40534514e-01,
          2.42761701e-01, 1.70378625e-01, 2.76169270e-01, 1.71492204e-01,
          2.44988859e-01, 3.07349682e-01, 1.89309582e-01, 8.10690403e-01 ]
      - [ 7.53220990e-02, 9.91080254e-02, 2.27948464e-02, 4.85629328e-02,
          6.34291396e-02, 2.97324080e-02, 4.45986129e-02, 6.83845356e-02,
          6.93756193e-02, 4.95540127e-02, 7.33399391e-02, 7.43310228e-02,
          6.64023757e-02, 8.42418224e-02, 8.12685862e-02, 4.95540127e-02,
          2.45787904e-01, 2.06144691e-01, 2.66600609e-01, 2.81466782e-01,
          2.74529219e-01, 2.62636274e-01, 2.22001985e-01, 2.40832508e-01,
          2.27948457e-01, 2.09117934e-01, 2.67591685e-01, 1.84340924e-01,
          2.69573838e-01, 2.78493553e-01, 1.97224975e-01, 8.02775025e-01 ]
      - [ 7.14285746e-02, 1.01449274e-01, 1.96687374e-02, 4.86542434e-02,
          5.38302287e-02, 9.31677036e-03, 4.14078683e-02, 6.31470010e-02,
          7.34989643e-02, 3.51966880e-02, 7.55693614e-02, 7.76397511e-02,
          7.86749497e-02, 9.62732956e-02, 9.31676999e-02, 6.10766038e-02,
          2.41200835e-01, 1.67701870e-01, 2.61904776e-01, 3.29192549e-01,
          2.77432710e-01, 2.42236033e-01, 2.29813665e-01, 2.50517607e-01,
          2.17391312e-01, 2.03933746e-01, 2.36024842e-01, 1.72877848e-01,
          2.83643901e-01, 3.07453424e-01, 1.61490694e-01, 8.38509321e-01 ]
      - [ 8.70056525e-02, 9.71751437e-02, 1.35593219e-02, 2.37288140e-02,
          6.55367225e-02, 3.27683613e-02, 5.19773997e-02, 7.68361613e-02,
          8.58757049e-02, 5.87570630e-02, 7.45762736e-02, 8.81355926e-02,
          3.84180807e-02, 5.98870069e-02, 8.02259892e-02, 6.55367225e-02,
          2.21468925e-01, 2.27118641e-01, 3.07344645e-01, 2.44067803e-01,
          2.76836157e-01, 2.48587579e-01, 2.20338985e-01, 2.54237294e-01,
          2.59887010e-01, 1.72881365e-01, 2.82485873e-01, 1.66101694e-01,
          2.42937863e-01, 3.08474571e-01, 2.18079090e-01, 7.81920910e-01 ]
      - [ 5.76701276e-02, 8.88119936e-02, 1.49942329e-02, 5.76701276e-02,
          8.07381794e-02, 3.22952718e-02, 5.07497117e-02, 8.07381794e-02,
          8.76585916e-02, 5.88235296e-02, 9.68858153e-02, 9.34256092e-02,
          4.95963097e-02, 6.57439455e-02, 5.42099178e-02, 2.99884658e-02,
          2.19146475e-01, 2.44521350e-01, 3.36793542e-01, 1.99538633e-01,
          2.75663197e-01, 2.45674744e-01, 2.16839671e-01, 2.61822373e-01,
          2.16839686e-01, 2.16839671e-01, 2.59515584e-01, 2.04152256e-01,
          2.61822373e-01, 2.74509817e-01, 2.38754332e-01, 7.61245668e-01 ]
      - [ 8.48416314e-02, 1.02941178e-01, 1.47058824e-02, 2.48868782e-02,
          7.35294148e-02, 1.47058824e-02, 4.86425348e-02, 6.67420849e-02,
          8.14479664e-02, 4.97737564e-02, 7.23981932e-02, 7.80543014e-02,
          4.41176482e-02, 7.91855231e-02, 9.16289613e-02, 7.23981932e-02,
          2.27375567e-01, 2.03619912e-01, 2.81674206e-01, 2.87330329e-01,
          2.83936650e-01, 2.46606335e-01, 2.27375567e-01, 2.42081463e-01,
          2.44343907e-01, 1.67420819e-01, 2.76018113e-01, 1.54977381e-01,
          2.54524887e-01, 3.14479649e-01, 1.85520366e-01, 8.14479649e-01 ]
      - [ 0., 3.18471342e-03, 5.41401282e-02, 1.05095543e-01,
          9.55414027e-02, 1.13057323e-01, 1.06687896e-01, 4.77707013e-03,
          1.24203824e-01, 9.71337557e-02, 9.71337557e-02, 4.77707013e-03,
          0., 1.59235671e-02, 7.00636953e-02, 1.08280256e-01,
          1.62420392e-01, 3.20063680e-01, 3.23248416e-01, 1.94267511e-01,
          2.19745219e-01, 2.29299366e-01, 3.28025460e-01, 2.22929940e-01,
          3.18471342e-01, 3.08917195e-01, 2.11783439e-01, 2.70700634e-01,
          2.37261146e-01, 2.80254781e-01, 4.14012730e-01, 5.85987270e-01 ]
      - [ 0., 3.18471342e-03, 5.41401282e-02, 1.05095543e-01,
          9.55414027e-02, 1.13057323e-01, 1.06687896e-01, 4.77707013e-03,
          1.24203824e-01, 9.71337557e-02, 9.71337557e-02, 4.77707013e-03,
          0., 1.59235671e-02, 7.00636953e-02, 1.08280256e-01,
          1.62420392e-01, 3.20063680e-01, 3.23248416e-01, 1.94267511e-01,
          2.19745219e-01, 2.29299366e-01, 3.28025460e-01, 2.22929940e-01,
          3.18471342e-01, 3.08917195e-01, 2.11783439e-01, 2.70700634e-01,
          2.37261146e-01, 2.80254781e-01, 4.14012730e-01, 5.85987270e-01 ]
      - [ 0., 3.18471342e-03, 5.41401282e-02, 1.05095543e-01,
          9.55414027e-02, 1.13057323e-01, 1.06687896e-01, 4.77707013e-03,
          1.24203824e-01, 9.71337557e-02, 9.71337557e-02, 4.77707013e-03,
          0., 1.59235671e-02, 7.00636953e-02, 1.08280256e-01,
          1.62420392e-01, 3.20063680e-01, 3.23248416e-01, 1.94267511e-01,
          2.19745219e-01, 2.29299366e-01, 3.28025460e-01, 2.22929940e-01,
          3.18471342e-01, 3.08917195e-01, 2.11783439e-01, 2.70700634e-01,
          2.37261146e-01, 2.80254781e-01, 4.14012730e-01, 5.85987270e-01 ]
      - [ 0., 3.18471342e-03, 5.41401282e-02, 1.05095543e-01,
          9.55414027e-02, 1.13057323e-01, 1.06687896e-01, 4.77707013e-03,
          1.24203824e-01, 9.71337557e-02, 9.71337557e-02, 4.77707013e-03,
          0., 1.59235671e-02, 7.00636953e-02, 1.08280256e-01,
          1.62420392e-01, 3.20063680e-01, 3.23248416e-01, 1.94267511e-01,
          2.19745219e-01, 2.29299366e-01, 3.28025460e-01, 2.22929940e-01,
          3.18471342e-01, 3.08917195e-01, 2.11783439e-01, 2.70700634e-01,
          2.37261146e-01, 2.80254781e-01, 4.14012730e-01, 5.85987270e-01 ]
      - [ 0., 3.23101785e-03, 4.68497574e-02, 1.06623590e-01,
          8.56219679e-02, 1.24394186e-01, 1.09854601e-01, 2.10016146e-02,
          9.36995149e-02, 1.26009688e-01, 1.16316639e-01, 3.23101766e-02,
          0., 0., 4.03877236e-02, 9.36995149e-02, 1.56704366e-01,
          3.40872377e-01, 3.68336022e-01, 1.34087235e-01, 1.79321483e-01,
          2.53634900e-01, 3.13408732e-01, 2.53634900e-01, 3.34410340e-01,
          3.42487872e-01, 2.13247165e-01, 2.84329563e-01, 2.19709203e-01,
          2.82714069e-01, 4.76575106e-01, 5.23424864e-01 ]
      - [ 0., 3.23101785e-03, 4.68497574e-02, 1.06623590e-01,
          8.56219679e-02, 1.24394186e-01, 1.09854601e-01, 2.10016146e-02,
          9.36995149e-02, 1.26009688e-01, 1.16316639e-01, 3.23101766e-02,
          0., 0., 4.03877236e-02, 9.36995149e-02, 1.56704366e-01,
          3.40872377e-01, 3.68336022e-01, 1.34087235e-01, 1.79321483e-01,
          2.53634900e-01, 3.13408732e-01, 2.53634900e-01, 3.34410340e-01,
          3.42487872e-01, 2.13247165e-01, 2.84329563e-01, 2.19709203e-01,
          2.82714069e-01, 4.76575106e-01, 5.23424864e-01 ]
      - [ 0., 3.23101785e-03, 4.68497574e-02, 1.06623590e-01,
          8.56219679e-02, 1.24394186e-01, 1.09854601e-01, 2.10016146e-02,
          9.36995149e-02, 1.26009688e-01, 1.16316639e-01, 3.23101766e-02,
          0., 0., 4.03877236e-02, 9.36995149e-02, 1.56704366e-01,
          3.40872377e-01, 3.68336022e-01, 1.34087235e-01, 1.79321483e-01,
          2.53634900e-01, 3.13408732e-01, 2.53634900e-01, 3.34410340e-01,
          3.42487872e-01, 2.13247165e-01, 2.84329563e-01, 2.19709203e-01,
          2.82714069e-01, 4.76575106e-01, 5.23424864e-01 ]
      - [ 0., 2.78551527e-03, 3.89972143e-02, 8.91364887e-02,
          7.66016692e-02, 1.22562677e-01, 1.14206128e-01, 4.59610038e-02,
          9.05292481e-02, 1.26740947e-01, 1.07242338e-01, 2.78551541e-02,
          0., 8.35654605e-03, 5.29247895e-02, 9.61002782e-02,
          1.30919218e-01, 3.59331489e-01, 3.52367699e-01, 1.57381609e-01,
          1.67130917e-01, 2.60445684e-01, 3.13370466e-01, 2.59052932e-01,
          3.25905293e-01, 3.30083549e-01, 2.01949865e-01, 2.88300842e-01,
          2.25626737e-01, 2.84122556e-01, 4.70752090e-01, 5.29247880e-01 ]
      - [ 0., 2.78551527e-03, 3.89972143e-02, 8.91364887e-02,
          7.66016692e-02, 1.22562677e-01, 1.14206128e-01, 4.59610038e-02,
          9.05292481e-02, 1.26740947e-01, 1.07242338e-01, 2.78551541e-02,
          0., 8.35654605e-03, 5.29247895e-02, 9.61002782e-02,
          1.30919218e-01, 3.59331489e-01, 3.52367699e-01, 1.57381609e-01,
          1.67130917e-01, 2.60445684e-01, 3.13370466e-01, 2.59052932e-01,
          3.25905293e-01, 3.30083549e-01, 2.01949865e-01, 2.88300842e-01,
          2.25626737e-01, 2.84122556e-01, 4.70752090e-01, 5.29247880e-01 ]
      - [ 0., 3.18979262e-03, 5.42264767e-02, 1.05263159e-01,
          9.56937820e-02, 1.13237642e-01, 1.06858052e-01, 4.78468882e-03,
          1.24401912e-01, 9.72886756e-02, 9.72886756e-02, 4.78468882e-03,
          0., 1.59489624e-02, 6.85805455e-02, 1.08452953e-01,
          1.62679434e-01, 3.20574164e-01, 3.23763967e-01, 1.92982465e-01,
          2.20095694e-01, 2.29665071e-01, 3.26953739e-01, 2.23285496e-01,
          3.18979263e-01, 3.09409887e-01, 2.12121218e-01, 2.71132380e-01,
          2.37639546e-01, 2.79106855e-01, 4.14673030e-01, 5.85326970e-01 ]
      - [ 9.05511826e-02, 9.25196856e-02, 9.84251946e-02, 9.84251946e-02,
          6.79133832e-02, 3.54330726e-02, 2.85433065e-02, 5.21653555e-02,
          5.90551198e-02, 3.05118114e-02, 3.83858271e-02, 5.21653555e-02,
          4.82283458e-02, 7.18503967e-02, 7.18503967e-02, 6.39763772e-02,
          3.79921257e-01, 1.84055120e-01, 1.80118114e-01, 2.55905509e-01,
          2.65748024e-01, 2.30314970e-01, 2.37204731e-01, 2.66732275e-01,
          2.28346467e-01, 2.05708653e-01, 2.86417335e-01, 2.77559042e-01,
          2.09645674e-01, 2.26377964e-01, 1.32874012e-01, 8.67125988e-01 ]
      - [ 4.03309204e-02, 5.06721810e-02, 6.10134453e-02, 8.58324692e-02,
          8.06618407e-02, 6.82523251e-02, 5.48086874e-02, 7.13547021e-02,
          5.48086874e-02, 3.92967947e-02, 5.68769388e-02, 7.34229609e-02,
          7.03205764e-02, 8.16959664e-02, 6.41158223e-02, 4.65356782e-02,
          2.37849012e-01, 2.75077552e-01, 2.24405378e-01, 2.62668043e-01,
          2.46122032e-01, 2.39917263e-01, 2.36814886e-01, 2.77145803e-01,
          2.11995870e-01, 2.50258535e-01, 2.39917263e-01, 2.73009300e-01,
          2.46122032e-01, 2.40951404e-01, 2.19234750e-01, 7.80765235e-01 ]
      - [ 8.13008100e-02, 8.49141851e-02, 8.22041556e-02, 8.49141851e-02,
          6.14272803e-02, 3.34236659e-02, 3.61336954e-02, 6.23306222e-02,
          6.14272803e-02, 3.43270116e-02, 3.52303535e-02, 5.69105707e-02,
          5.96205965e-02, 7.94941261e-02, 8.31075013e-02, 6.32339641e-02,
          3.33333343e-01, 1.93315268e-01, 1.87895209e-01, 2.85456181e-01,
          2.63775975e-01, 2.32158989e-01, 2.36675709e-01, 2.67389357e-01,
          2.13188797e-01, 2.14995489e-01, 2.61065930e-01, 2.65582651e-01,
          2.34869018e-01, 2.38482386e-01, 1.39114723e-01, 8.60885262e-01 ]
      - [ 8.34097192e-02, 7.14940429e-02, 6.69110939e-02, 6.59945011e-02,
          5.86617775e-02, 4.76626940e-02, 5.59120066e-02, 7.33272210e-02,
          6.50779083e-02, 3.84967923e-02, 3.48304324e-02, 5.59120066e-02,
          6.14115484e-02, 7.33272210e-02, 7.97433555e-02, 6.78276792e-02,
          2.87809372e-01, 2.35563695e-01, 1.94317132e-01, 2.82309800e-01,
          2.68560946e-01, 2.30980754e-01, 2.37396896e-01, 2.63061404e-01,
          2.33730525e-01, 2.21814841e-01, 2.61228234e-01, 2.62144834e-01,
          2.38313466e-01, 2.38313466e-01, 1.76901922e-01, 8.23098063e-01 ]
      - [ 8.15850776e-03, 3.03030312e-02, 5.01165502e-02, 8.39160830e-02,
          1.02564104e-01, 9.20745954e-02, 6.29370660e-02, 7.69230798e-02,
          6.41025677e-02, 3.37995328e-02, 6.41025677e-02, 7.80885816e-02,
          7.92540759e-02, 8.27505812e-02, 5.36130518e-02, 3.72960381e-02,
          1.72494173e-01, 3.34498852e-01, 2.40093246e-01, 2.52913743e-01,
          2.54079252e-01, 2.38927737e-01, 2.30769232e-01, 2.76223779e-01,
          2.01631710e-01, 2.59906769e-01, 2.33100235e-01, 2.73892790e-01,
          2.59906769e-01, 2.33100235e-01, 2.52913773e-01, 7.47086227e-01 ]
      - [ 7.79625773e-02, 6.34095669e-02, 5.40540554e-02, 5.09355515e-02,
          7.69230798e-02, 6.23700619e-02, 6.96465671e-02, 8.73180851e-02,
          6.75675645e-02, 4.05405387e-02, 4.26195413e-02, 6.44490644e-02,
          4.46985438e-02, 5.19750528e-02, 7.90020823e-02, 6.65280670e-02,
          2.46361747e-01, 2.96257794e-01, 2.15176702e-01, 2.42203742e-01,
          2.67151773e-01, 2.18295217e-01, 2.45322242e-01, 2.69230783e-01,
          2.49480247e-01, 2.05821201e-01, 2.80665278e-01, 2.61954248e-01,
          2.04781696e-01, 2.52598763e-01, 2.15176702e-01, 7.84823298e-01 ]
      - [ 7.59615377e-02, 7.11538494e-02, 7.30769262e-02, 8.46153870e-02,
          7.01923072e-02, 4.71153855e-02, 5.38461544e-02, 6.53846189e-02,
          6.25000000e-02, 3.46153863e-02, 4.80769239e-02, 6.25000000e-02,
          5.28846160e-02, 6.63461536e-02, 7.59615377e-02, 5.57692312e-02,
          3.04807693e-01, 2.36538470e-01, 2.07692310e-01, 2.50961542e-01,
          2.61538446e-01, 2.19230771e-01, 2.50961542e-01, 2.68269241e-01,
          2.26923078e-01, 2.25961536e-01, 2.64423072e-01, 2.76923090e-01,
          2.16346160e-01, 2.42307693e-01, 1.83653846e-01, 8.16346169e-01 ]
      - [ 8.91783535e-02, 8.51703435e-02, 8.01603198e-02, 8.21643323e-02,
          7.41482973e-02, 4.10821661e-02, 5.51102199e-02, 6.91382736e-02,
          5.81162311e-02, 3.00601199e-02, 4.20841686e-02, 5.21042086e-02,
          3.40681374e-02, 6.21242486e-02, 8.31663311e-02, 6.21242486e-02,
          3.36673349e-01, 2.39478961e-01, 1.82364732e-01, 2.41482973e-01,
          2.55511016e-01, 2.18436882e-01, 2.60521054e-01, 2.65531063e-01,
          2.34468937e-01, 2.01402813e-01, 2.89579153e-01, 2.86573142e-01,
          1.84368730e-01, 2.39478961e-01, 1.68336675e-01, 8.31663311e-01 ]
      - [ 8.12685862e-02, 7.43310228e-02, 8.32507461e-02, 9.01883021e-02,
          7.23488629e-02, 5.45094162e-02, 4.55896929e-02, 7.43310228e-02,
          5.94648160e-02, 3.76610495e-02, 4.26164530e-02, 6.14469759e-02,
          5.05450927e-02, 5.64915761e-02, 6.73934594e-02, 4.85629328e-02,
          3.29038650e-01, 2.46778995e-01, 2.01189294e-01, 2.22993061e-01,
          2.63627350e-01, 2.22993061e-01, 2.38850355e-01, 2.74529219e-01,
          2.26957381e-01, 2.23984137e-01, 2.82457888e-01, 2.93359756e-01,
          2.04162538e-01, 2.20019817e-01, 1.80376619e-01, 8.19623411e-01 ]
      - [ 8.69565234e-02, 8.33333358e-02, 8.42391327e-02, 8.69565234e-02,
          6.34057969e-02, 4.25724648e-02, 4.16666679e-02, 6.25000000e-02,
          5.52536249e-02, 3.35144922e-02, 4.25724648e-02, 5.79710156e-02,
          5.52536249e-02, 6.70289844e-02, 7.60869533e-02, 6.06884062e-02,
          3.41485500e-01, 2.10144937e-01, 1.89311594e-01, 2.59057969e-01,
          2.60869563e-01, 2.26449281e-01, 2.44565219e-01, 2.68115938e-01,
          2.32789859e-01, 2.17391312e-01, 2.76268125e-01, 2.75362313e-01,
          2.11050719e-01, 2.37318844e-01, 1.60326093e-01, 8.39673936e-01 ]
      - [ 4.86111119e-02, 1.31944448e-01, 1.30208328e-01, 4.16666679e-02,
          1.14583336e-01, 2.95138881e-02, 2.25694440e-02, 1.07638888e-01,
          1.11111112e-01, 6.94444450e-03, 1.38888890e-02, 1.09375000e-01,
          4.51388881e-02, 1.90972220e-02, 3.47222239e-02, 3.29861119e-02,
          3.52430552e-01, 2.74305552e-01, 2.41319448e-01, 1.31944448e-01,
          3.19444448e-01, 1.87500000e-01, 2.01388881e-01, 2.91666657e-01,
          1.25000000e-01, 1.16319448e-01, 3.24652791e-01, 3.02083313e-01,
          1.82291672e-01, 1.90972224e-01, 7.29166642e-02, 9.27083313e-01 ]
      - [ 6.70886040e-02, 1.12658225e-01, 1.16455697e-01, 7.46835470e-02,
          9.62025300e-02, 5.69620244e-02, 5.31645566e-02, 1.02531649e-01,
          8.73417705e-02, 0., 0., 9.49367061e-02, 6.70886040e-02, 0.,
          5.06329117e-03, 6.58227876e-02, 3.70886087e-01, 3.08860749e-01,
          1.82278484e-01, 1.37974679e-01, 3.17721516e-01, 1.69620246e-01,
          1.74683541e-01, 3.37974697e-01, 1.89873412e-01, 1.94936708e-01,
          3.32911372e-01, 3.46835434e-01, 1.54430375e-01, 1.65822789e-01,
          1.10126585e-01, 8.89873385e-01 ]
      - [ 9.25449878e-02, 1.15681231e-01, 1.09254502e-01, 6.55526966e-02,
          1.04113109e-01, 7.71208256e-02, 7.32647851e-02, 1.06683806e-01,
          7.58354738e-02, 0., 0., 8.48329067e-02, 4.11311053e-02, 0., 0.,
          5.39845750e-02, 3.83033425e-01, 3.61182511e-01, 1.60668373e-01,
          9.51156765e-02, 3.13624680e-01, 1.92802057e-01, 1.82519287e-01,
          3.11053991e-01, 2.23650396e-01, 1.79948583e-01, 3.89460146e-01,
          3.54755789e-01, 1.16966575e-01, 1.38817489e-01, 1.50385618e-01,
          8.49614382e-01 ]
      - [ 6.85111955e-02, 1.22529641e-01, 1.31752312e-01, 9.88142267e-02,
          1.00131750e-01, 3.95256914e-02, 3.29380780e-02, 9.88142267e-02,
          9.35441405e-02, 0., 0., 1.04084320e-01, 6.85111955e-02, 0.,
          2.63504614e-03, 3.82081680e-02, 4.21607375e-01, 2.71409750e-01,
          1.97628468e-01, 1.09354407e-01, 3.30698282e-01, 1.62055328e-01,
          1.67325437e-01, 3.39920938e-01, 1.46245062e-01, 2.00263500e-01,
          3.30698282e-01, 3.62318844e-01, 1.62055343e-01, 1.44927531e-01,
          7.24637657e-02, 9.27536249e-01 ]
      - [ 4.88126650e-02, 9.63060707e-02, 1.08179420e-01, 8.44327211e-02,
          1.06860161e-01, 6.59630597e-02, 5.93667552e-02, 1.01583116e-01,
          9.36675444e-02, 0., 0., 1.02902375e-01, 7.91556761e-02, 0., 0.,
          5.27704470e-02, 3.37730885e-01, 3.33773077e-01, 1.96569920e-01,
          1.31926119e-01, 3.28496039e-01, 1.62269130e-01, 1.67546183e-01,
          3.41688663e-01, 1.67546168e-01, 2.22955152e-01, 3.17941964e-01,
          3.53561997e-01, 1.72823220e-01, 1.55672818e-01, 1.25329822e-01,
          8.74670208e-01 ]
      - [ 7.86082447e-02, 1.14690721e-01, 9.66494828e-02, 5.41237108e-02,
          1.01804122e-01, 7.21649453e-02, 7.98969045e-02, 1.09536082e-01,
          9.02061835e-02, 0., 0., 9.14948434e-02, 4.25257720e-02, 0., 0.,
          6.82989657e-02, 3.44072163e-01, 3.63402069e-01, 1.81701034e-01,
          1.10824734e-01, 3.13144326e-01, 1.86855674e-01, 1.76546395e-01,
          3.23453605e-01, 2.19072163e-01, 1.76546395e-01, 3.67268026e-01,
          3.40206176e-01, 1.32731959e-01, 1.59793809e-01, 1.52061850e-01,
          8.47938120e-01 ]
      - [ 6.15595058e-02, 1.19015045e-01, 1.34062931e-01, 1.02599181e-01,
          1.09439127e-01, 4.37756516e-02, 4.10396717e-02, 1.02599181e-01,
          8.61833096e-02, 0., 0., 1.01231188e-01, 6.01915196e-02, 0., 0.,
          3.83036919e-02, 4.17236656e-01, 2.96853632e-01, 1.87414497e-01,
          9.84952152e-02, 3.17373455e-01, 1.62790701e-01, 1.75102606e-01,
          3.44733238e-01, 1.43638849e-01, 2.03830376e-01, 3.33789319e-01,
          3.80300969e-01, 1.46374822e-01, 1.39534876e-01, 8.48153234e-02,
          9.15184677e-01 ]
      - [ 8.60927179e-02, 1.32450327e-01, 1.21854305e-01, 7.81456977e-02,
          9.66887400e-02, 6.49006590e-02, 5.96026480e-02, 9.93377492e-02,
          8.21192041e-02, 0., 0., 9.00662243e-02, 3.97351012e-02, 0., 0.,
          4.90066223e-02, 4.18543041e-01, 3.20529789e-01, 1.72185421e-01,
          8.87417197e-02, 3.04635763e-01, 1.97350979e-01, 1.81456953e-01,
          3.16556305e-01, 2.00000003e-01, 1.77483439e-01, 3.80132437e-01,
          3.58940393e-01, 1.21854305e-01, 1.39072850e-01, 1.24503307e-01,
          8.75496686e-01 ]
      - [ 8.86391997e-02, 1.21098630e-01, 9.86267179e-02, 4.36953790e-02,
          1.14856429e-01, 4.86891381e-02, 8.73907581e-02, 1.03620477e-01,
          8.73907581e-02, 3.74531839e-03, 0., 8.23970065e-02,
          3.49563062e-02, 4.99375770e-03, 0., 7.99001232e-02,
          3.52059931e-01, 3.54556799e-01, 1.73533082e-01, 1.19850188e-01,
          3.25842679e-01, 1.78526849e-01, 1.86017483e-01, 3.09612989e-01,
          2.17228457e-01, 1.69787765e-01, 3.73283386e-01, 3.33333343e-01,
          1.31086141e-01, 1.62297130e-01, 1.39825210e-01, 8.60174775e-01 ]
      - [ 8.89212862e-02, 1.19533531e-01, 1.12244897e-01, 5.97667657e-02,
          1.02040820e-01, 5.10204099e-02, 5.83090372e-02, 1.13702625e-01,
          8.16326514e-02, 0., 0., 8.60058293e-02, 4.37317789e-02, 0., 0.,
          8.30903798e-02, 3.80466491e-01, 3.25072885e-01, 1.67638481e-01,
          1.26822159e-01, 3.16326529e-01, 1.70553938e-01, 1.70553938e-01,
          3.42565596e-01, 2.23032072e-01, 1.61807582e-01, 3.61516058e-01,
          3.44023317e-01, 1.25364423e-01, 1.69096202e-01, 1.09329447e-01,
          8.90670538e-01 ]
      - [ 1.01226993e-01, 9.81595069e-02, 1.07361965e-01, 1.10429451e-01,
          6.13496937e-02, 0., 0., 6.13496937e-02, 6.44171759e-02, 0., 0.,
          6.59509227e-02, 5.67484647e-02, 1.07361965e-01, 1.07361965e-01,
          5.82822077e-02, 4.17177916e-01, 1.22699387e-01, 1.30368099e-01,
          3.29754591e-01, 2.83742338e-01, 2.05521464e-01, 2.14723930e-01,
          2.96012282e-01, 1.59509197e-01, 1.67177916e-01, 2.60736197e-01,
          2.79141098e-01, 2.28527606e-01, 2.31595099e-01, 0., 1. ]
      - [ 1.01226993e-01, 9.81595069e-02, 1.07361965e-01, 1.10429451e-01,
          6.13496937e-02, 0., 0., 6.13496937e-02, 6.44171759e-02, 0., 0.,
          6.59509227e-02, 5.67484647e-02, 1.07361965e-01, 1.07361965e-01,
          5.82822077e-02, 4.17177916e-01, 1.22699387e-01, 1.30368099e-01,
          3.29754591e-01, 2.83742338e-01, 2.05521464e-01, 2.14723930e-01,
          2.96012282e-01, 1.59509197e-01, 1.67177916e-01, 2.60736197e-01,
          2.79141098e-01, 2.28527606e-01, 2.31595099e-01, 0., 1. ]
      - [ 1.01226993e-01, 9.81595069e-02, 1.07361965e-01, 1.10429451e-01,
          6.13496937e-02, 0., 0., 6.13496937e-02, 6.44171759e-02, 0., 0.,
          6.59509227e-02, 5.67484647e-02, 1.07361965e-01, 1.07361965e-01,
          5.82822077e-02, 4.17177916e-01, 1.22699387e-01, 1.30368099e-01,
          3.29754591e-01, 2.83742338e-01, 2.05521464e-01, 2.14723930e-01,
          2.96012282e-01, 1.59509197e-01, 1.67177916e-01, 2.60736197e-01,
          2.79141098e-01, 2.28527606e-01, 2.31595099e-01, 0., 1. ]
      - [ 1.01226993e-01, 9.81595069e-02, 1.07361965e-01, 1.10429451e-01,
          6.13496937e-02, 0., 0., 6.13496937e-02, 6.44171759e-02, 0., 0.,
          6.59509227e-02, 5.67484647e-02, 1.07361965e-01, 1.07361965e-01,
          5.82822077e-02, 4.17177916e-01, 1.22699387e-01, 1.30368099e-01,
          3.29754591e-01, 2.83742338e-01, 2.05521464e-01, 2.14723930e-01,
          2.96012282e-01, 1.59509197e-01, 1.67177916e-01, 2.60736197e-01,
          2.79141098e-01, 2.28527606e-01, 2.31595099e-01, 0., 1. ]
      - [ 1.01226993e-01, 9.81595069e-02, 1.07361965e-01, 1.10429451e-01,
          6.13496937e-02, 0., 0., 6.13496937e-02, 6.44171759e-02, 0., 0.,
          6.59509227e-02, 5.67484647e-02, 1.07361965e-01, 1.07361965e-01,
          5.82822077e-02, 4.17177916e-01, 1.22699387e-01, 1.30368099e-01,
          3.29754591e-01, 2.83742338e-01, 2.05521464e-01, 2.14723930e-01,
          2.96012282e-01, 1.59509197e-01, 1.67177916e-01, 2.60736197e-01,
          2.79141098e-01, 2.28527606e-01, 2.31595099e-01, 0., 1. ]
      - [ 9.98463929e-02, 9.83102918e-02, 1.07526883e-01, 1.10599078e-01,
          6.14439324e-02, 0., 0., 6.14439324e-02, 6.45161271e-02, 0., 0.,
          6.60522282e-02, 5.68356365e-02, 1.07526883e-01, 1.07526883e-01,
          5.83717376e-02, 4.16282654e-01, 1.22887865e-01, 1.30568355e-01,
          3.30261141e-01, 2.82642096e-01, 2.05837175e-01, 2.15053767e-01,
          2.96466976e-01, 1.58218130e-01, 1.67434722e-01, 2.59600610e-01,
          2.79569894e-01, 2.28878647e-01, 2.31950849e-01, 0., 1. ]
      - [ 9.98463929e-02, 9.83102918e-02, 1.07526883e-01, 1.10599078e-01,
          6.14439324e-02, 0., 0., 6.14439324e-02, 6.45161271e-02, 0., 0.,
          6.60522282e-02, 5.68356365e-02, 1.07526883e-01, 1.07526883e-01,
          5.83717376e-02, 4.16282654e-01, 1.22887865e-01, 1.30568355e-01,
          3.30261141e-01, 2.82642096e-01, 2.05837175e-01, 2.15053767e-01,
          2.96466976e-01, 1.58218130e-01, 1.67434722e-01, 2.59600610e-01,
          2.79569894e-01, 2.28878647e-01, 2.31950849e-01, 0., 1. ]
      - [ 9.98463929e-02, 9.83102918e-02, 1.07526883e-01, 1.10599078e-01,
          6.14439324e-02, 0., 0., 6.14439324e-02, 6.45161271e-02, 0., 0.,
          6.60522282e-02, 5.68356365e-02, 1.07526883e-01, 1.07526883e-01,
          5.83717376e-02, 4.16282654e-01, 1.22887865e-01, 1.30568355e-01,
          3.30261141e-01, 2.82642096e-01, 2.05837175e-01, 2.15053767e-01,
          2.96466976e-01, 1.58218130e-01, 1.67434722e-01, 2.59600610e-01,
          2.79569894e-01, 2.28878647e-01, 2.31950849e-01, 0., 1. ]
      - [ 9.98463929e-02, 9.83102918e-02, 1.07526883e-01, 1.10599078e-01,
          6.14439324e-02, 0., 0., 6.14439324e-02, 6.45161271e-02, 0., 0.,
          6.60522282e-02, 5.68356365e-02, 1.07526883e-01, 1.07526883e-01,
          5.83717376e-02, 4.16282654e-01, 1.22887865e-01, 1.30568355e-01,
          3.30261141e-01, 2.82642096e-01, 2.05837175e-01, 2.15053767e-01,
          2.96466976e-01, 1.58218130e-01, 1.67434722e-01, 2.59600610e-01,
          2.79569894e-01, 2.28878647e-01, 2.31950849e-01, 0., 1. ]
      - [ 6.06653616e-02, 7.33855218e-02, 7.72994161e-02, 8.21917802e-02,
          7.92563632e-02, 4.79452051e-02, 4.10958901e-02, 7.82778859e-02,
          5.87084144e-02, 3.91389430e-03, 9.78473574e-03, 6.94716275e-02,
          6.06653616e-02, 9.78473574e-02, 9.78473574e-02, 6.16438352e-02,
          2.93542087e-01, 2.46575341e-01, 1.41878664e-01, 3.18003923e-01,
          2.59295493e-01, 2.23091975e-01, 2.26027399e-01, 2.91585118e-01,
          1.80039138e-01, 1.87866926e-01, 2.61252463e-01, 2.78864980e-01,
          2.21135020e-01, 2.38747552e-01, 1.02739722e-01, 8.97260308e-01 ]
      - [ 1.15340255e-01, 1.10726647e-01, 1.15340255e-01, 1.10726647e-01,
          7.15109557e-02, 3.69088799e-02, 2.99884658e-02, 6.92041516e-02,
          6.92041516e-02, 3.46020758e-02, 2.30680499e-02, 6.92041516e-02,
          6.45905435e-02, 1.03806229e-02, 9.22721997e-03, 5.99769317e-02,
          4.52133805e-01, 2.07612455e-01, 1.96078435e-01, 1.44175321e-01,
          3.20645899e-01, 1.92618221e-01, 1.77623987e-01, 3.09111893e-01,
          2.35294119e-01, 2.39907727e-01, 3.34486723e-01, 3.25259507e-01,
          1.78777397e-01, 1.61476359e-01, 1.24567471e-01, 8.75432551e-01 ]
      - [ 1.15340255e-01, 1.10726647e-01, 1.15340255e-01, 1.10726647e-01,
          7.15109557e-02, 3.69088799e-02, 2.99884658e-02, 6.92041516e-02,
          6.92041516e-02, 3.46020758e-02, 2.30680499e-02, 6.92041516e-02,
          6.45905435e-02, 1.03806229e-02, 9.22721997e-03, 5.99769317e-02,
          4.52133805e-01, 2.07612455e-01, 1.96078435e-01, 1.44175321e-01,
          3.20645899e-01, 1.92618221e-01, 1.77623987e-01, 3.09111893e-01,
          2.35294119e-01, 2.39907727e-01, 3.34486723e-01, 3.25259507e-01,
          1.78777397e-01, 1.61476359e-01, 1.24567471e-01, 8.75432551e-01 ]
      - [ 1.15340255e-01, 1.10726647e-01, 1.15340255e-01, 1.10726647e-01,
          7.15109557e-02, 3.69088799e-02, 2.99884658e-02, 6.92041516e-02,
          6.92041516e-02, 3.46020758e-02, 2.30680499e-02, 6.92041516e-02,
          6.45905435e-02, 1.03806229e-02, 9.22721997e-03, 5.99769317e-02,
          4.52133805e-01, 2.07612455e-01, 1.96078435e-01, 1.44175321e-01,
          3.20645899e-01, 1.92618221e-01, 1.77623987e-01, 3.09111893e-01,
          2.35294119e-01, 2.39907727e-01, 3.34486723e-01, 3.25259507e-01,
          1.78777397e-01, 1.61476359e-01, 1.24567471e-01, 8.75432551e-01 ]
      - [ 1.15340255e-01, 1.10726647e-01, 1.15340255e-01, 1.10726647e-01,
          7.15109557e-02, 3.69088799e-02, 2.99884658e-02, 6.92041516e-02,
          6.92041516e-02, 3.46020758e-02, 2.30680499e-02, 6.92041516e-02,
          6.45905435e-02, 1.03806229e-02, 9.22721997e-03, 5.99769317e-02,
          4.52133805e-01, 2.07612455e-01, 1.96078435e-01, 1.44175321e-01,
          3.20645899e-01, 1.92618221e-01, 1.77623987e-01, 3.09111893e-01,
          2.35294119e-01, 2.39907727e-01, 3.34486723e-01, 3.25259507e-01,
          1.78777397e-01, 1.61476359e-01, 1.24567471e-01, 8.75432551e-01 ]
      - [ 1.15340255e-01, 1.10726647e-01, 1.15340255e-01, 1.10726647e-01,
          7.15109557e-02, 3.69088799e-02, 2.99884658e-02, 6.92041516e-02,
          6.92041516e-02, 3.46020758e-02, 2.30680499e-02, 6.92041516e-02,
          6.45905435e-02, 1.03806229e-02, 9.22721997e-03, 5.99769317e-02,
          4.52133805e-01, 2.07612455e-01, 1.96078435e-01, 1.44175321e-01,
          3.20645899e-01, 1.92618221e-01, 1.77623987e-01, 3.09111893e-01,
          2.35294119e-01, 2.39907727e-01, 3.34486723e-01, 3.25259507e-01,
          1.78777397e-01, 1.61476359e-01, 1.24567471e-01, 8.75432551e-01 ]
      - [ 1.15340255e-01, 1.10726647e-01, 1.15340255e-01, 1.10726647e-01,
          7.15109557e-02, 3.69088799e-02, 2.99884658e-02, 6.92041516e-02,
          6.92041516e-02, 3.46020758e-02, 2.30680499e-02, 6.92041516e-02,
          6.45905435e-02, 1.03806229e-02, 9.22721997e-03, 5.99769317e-02,
          4.52133805e-01, 2.07612455e-01, 1.96078435e-01, 1.44175321e-01,
          3.20645899e-01, 1.92618221e-01, 1.77623987e-01, 3.09111893e-01,
          2.35294119e-01, 2.39907727e-01, 3.34486723e-01, 3.25259507e-01,
          1.78777397e-01, 1.61476359e-01, 1.24567471e-01, 8.75432551e-01 ]
      - [ 1.15340255e-01, 1.10726647e-01, 1.15340255e-01, 1.10726647e-01,
          7.15109557e-02, 3.69088799e-02, 2.99884658e-02, 6.92041516e-02,
          6.92041516e-02, 3.46020758e-02, 2.30680499e-02, 6.92041516e-02,
          6.45905435e-02, 1.03806229e-02, 9.22721997e-03, 5.99769317e-02,
          4.52133805e-01, 2.07612455e-01, 1.96078435e-01, 1.44175321e-01,
          3.20645899e-01, 1.92618221e-01, 1.77623987e-01, 3.09111893e-01,
          2.35294119e-01, 2.39907727e-01, 3.34486723e-01, 3.25259507e-01,
          1.78777397e-01, 1.61476359e-01, 1.24567471e-01, 8.75432551e-01 ]
      - [ 1.15340255e-01, 1.10726647e-01, 1.15340255e-01, 1.10726647e-01,
          7.15109557e-02, 3.69088799e-02, 2.99884658e-02, 6.92041516e-02,
          6.92041516e-02, 3.46020758e-02, 2.30680499e-02, 6.92041516e-02,
          6.45905435e-02, 1.03806229e-02, 9.22721997e-03, 5.99769317e-02,
          4.52133805e-01, 2.07612455e-01, 1.96078435e-01, 1.44175321e-01,
          3.20645899e-01, 1.92618221e-01, 1.77623987e-01, 3.09111893e-01,
          2.35294119e-01, 2.39907727e-01, 3.34486723e-01, 3.25259507e-01,
          1.78777397e-01, 1.61476359e-01, 1.24567471e-01, 8.75432551e-01 ]
      - [ 1.15340255e-01, 1.10726647e-01, 1.15340255e-01, 1.10726647e-01,
          7.15109557e-02, 3.69088799e-02, 2.99884658e-02, 6.92041516e-02,
          6.92041516e-02, 3.46020758e-02, 2.30680499e-02, 6.92041516e-02,
          6.45905435e-02, 1.03806229e-02, 9.22721997e-03, 5.99769317e-02,
          4.52133805e-01, 2.07612455e-01, 1.96078435e-01, 1.44175321e-01,
          3.20645899e-01, 1.92618221e-01, 1.77623987e-01, 3.09111893e-01,
          2.35294119e-01, 2.39907727e-01, 3.34486723e-01, 3.25259507e-01,
          1.78777397e-01, 1.61476359e-01, 1.24567471e-01, 8.75432551e-01 ]
      - [ 9.21610147e-02, 9.85169485e-02, 1.05932206e-01, 1.04872882e-01,
          8.15677941e-02, 6.88559338e-02, 4.76694927e-02, 8.15677941e-02,
          6.35593235e-02, 4.23728824e-02, 2.11864412e-02, 6.35593235e-02,
          4.76694927e-02, 2.11864412e-02, 1.05932206e-02, 4.87288125e-02,
          4.01483059e-01, 2.79661000e-01, 1.90677971e-01, 1.28177971e-01,
          2.84957618e-01, 2.30932206e-01, 1.85381353e-01, 2.98728824e-01,
          2.30932206e-01, 2.42584750e-01, 3.41101706e-01, 3.40042382e-01,
          1.74788147e-01, 1.44067794e-01, 1.80084750e-01, 8.19915235e-01 ]
      - [ 1.22580647e-01, 1.35483876e-01, 1.35483876e-01, 1.33333340e-01,
          8.60215053e-02, 6.45161271e-02, 2.15053763e-02, 0.,
          8.60215053e-02, 6.45161271e-02, 2.15053763e-02, 0.,
          6.88172057e-02, 4.73118275e-02, 1.29032256e-02, 0.,
          5.26881754e-01, 1.72043011e-01, 1.72043011e-01, 1.29032254e-01,
          3.63440871e-01, 3.11827958e-01, 1.91397861e-01, 1.33333340e-01,
          2.08602145e-01, 2.88172036e-01, 4.08602148e-01, 2.90322602e-01,
          2.66666651e-01, 3.44086029e-02, 1.72043011e-01, 8.27957034e-01 ]
      - [ 1.22580647e-01, 1.35483876e-01, 1.35483876e-01, 1.33333340e-01,
          8.60215053e-02, 6.45161271e-02, 2.15053763e-02, 0.,
          8.60215053e-02, 6.45161271e-02, 2.15053763e-02, 0.,
          6.88172057e-02, 4.73118275e-02, 1.29032256e-02, 0.,
          5.26881754e-01, 1.72043011e-01, 1.72043011e-01, 1.29032254e-01,
          3.63440871e-01, 3.11827958e-01, 1.91397861e-01, 1.33333340e-01,
          2.08602145e-01, 2.88172036e-01, 4.08602148e-01, 2.90322602e-01,
          2.66666651e-01, 3.44086029e-02, 1.72043011e-01, 8.27957034e-01 ]
      - [ 1.22621566e-01, 1.33192390e-01, 1.41649053e-01, 1.22621566e-01,
          8.66807625e-02, 4.86257933e-02, 2.74841432e-02, 0.,
          8.87949243e-02, 6.34249449e-02, 4.22832966e-02, 0.,
          7.18816072e-02, 2.95983087e-02, 2.11416483e-02, 0.,
          5.20084560e-01, 1.62790701e-01, 1.94503158e-01, 1.22621566e-01,
          3.69978845e-01, 2.74841428e-01, 2.32558146e-01, 1.22621566e-01,
          2.13530660e-01, 2.85412252e-01, 3.91120523e-01, 2.91754752e-01,
          2.53699780e-01, 6.34249449e-02, 1.81818172e-01, 8.18181813e-01 ]
      - [ 1.14973262e-01, 1.06951870e-01, 8.95721912e-02, 7.88770020e-02,
          9.09090936e-02, 9.09090936e-02, 8.82352963e-02, 1.06951870e-01,
          6.68449178e-02, 4.27807495e-02, 1.33689838e-02, 0.,
          5.34759350e-02, 4.54545468e-02, 1.06951874e-02, 0.,
          3.90374333e-01, 3.77005339e-01, 1.22994654e-01, 1.09625667e-01,
          3.26203197e-01, 2.86096275e-01, 2.01871663e-01, 1.85828865e-01,
          2.19251335e-01, 2.63368994e-01, 4.03743327e-01, 3.63636374e-01,
          2.08556145e-01, 2.40641721e-02, 2.35294119e-01, 7.64705896e-01 ]
      - [ 8.06010962e-02, 9.56284180e-02, 1.10655740e-01, 1.28415301e-01,
          1.02459013e-01, 9.15300548e-02, 7.37704933e-02, 5.46448082e-02,
          8.19672123e-02, 4.78142090e-02, 2.73224041e-02, 0.,
          6.96721300e-02, 2.45901644e-02, 1.09289614e-02, 0.,
          4.15300548e-01, 3.22404385e-01, 1.57103822e-01, 1.05191253e-01,
          3.34699452e-01, 2.59562850e-01, 2.22677603e-01, 1.83060110e-01,
          1.99453562e-01, 3.19672137e-01, 3.70218575e-01, 3.67486358e-01,
          2.24043712e-01, 3.82513665e-02, 2.40437165e-01, 7.59562850e-01 ]
      - [ 1.22222222e-01, 1.09722219e-01, 8.47222209e-02, 5.97222224e-02,
          1.00000001e-01, 1.00000001e-01, 9.72222239e-02, 1.05555557e-01,
          6.94444478e-02, 5.55555560e-02, 1.38888892e-03, 0.,
          4.72222231e-02, 4.58333343e-02, 1.38888892e-03, 0.,
          3.76388878e-01, 4.02777791e-01, 1.26388893e-01, 9.44444463e-02,
          3.38888884e-01, 3.11111122e-01, 1.84722230e-01, 1.65277779e-01,
          2.23611116e-01, 2.59722233e-01, 4.31944430e-01, 3.47222209e-01,
          2.18055561e-01, 2.77777785e-03, 2.54166663e-01, 7.45833337e-01 ]
      - [ 4.67571653e-02, 6.33484200e-02, 8.29562619e-02, 1.05580695e-01,
          1.37254909e-01, 1.32730022e-01, 9.65309218e-02, 6.33484200e-02,
          9.04977396e-02, 4.52488698e-02, 4.37405743e-02, 0.,
          7.23981932e-02, 9.04977415e-03, 1.05580697e-02, 0.,
          2.98642546e-01, 4.29864287e-01, 1.79487184e-01, 9.20060351e-02,
          3.46908003e-01, 2.50377089e-01, 2.33785823e-01, 1.68929115e-01,
          2.23227769e-01, 3.19758683e-01, 3.80090505e-01, 3.48416299e-01,
          2.17194572e-01, 5.42986430e-02, 3.18250388e-01, 6.81749642e-01 ]
      - [ 7.70218223e-02, 8.98587927e-02, 1.02695763e-01, 1.20667525e-01,
          1.09114252e-01, 9.88446698e-02, 8.08729157e-02, 7.06033409e-02,
          7.70218223e-02, 3.85109112e-02, 2.56739408e-02, 0.,
          6.80359453e-02, 2.82413345e-02, 1.28369704e-02, 0.,
          3.90243888e-01, 3.59435171e-01, 1.41206682e-01, 1.09114252e-01,
          3.31193835e-01, 2.55455703e-01, 2.22079590e-01, 1.91270858e-01,
          2.01540440e-01, 3.08087289e-01, 3.74839544e-01, 3.74839544e-01,
          2.11810008e-01, 3.85109112e-02, 2.43902445e-01, 7.56097555e-01 ]
      - [ 9.46666673e-02, 1.10666670e-01, 1.19999997e-01, 1.29333332e-01,
          9.73333344e-02, 9.86666679e-02, 6.93333298e-02, 5.99999987e-02,
          6.66666701e-02, 5.33333346e-02, 1.33333337e-02, 0.,
          5.06666675e-02, 3.06666661e-02, 5.33333328e-03, 0.,
          4.54666674e-01, 3.25333327e-01, 1.33333340e-01, 8.66666660e-02,
          3.09333324e-01, 2.93333352e-01, 2.07999989e-01, 1.89333335e-01,
          2.06666663e-01, 3.02666664e-01, 4.01333332e-01, 3.78666669e-01,
          2.01333344e-01, 1.86666660e-02, 2.34666660e-01, 7.65333354e-01 ]
      - [ 1.14513978e-01, 9.85352844e-02, 7.98934773e-02, 7.45672435e-02,
          9.45406109e-02, 9.32090580e-02, 9.85352844e-02, 1.11850865e-01,
          6.65778965e-02, 6.65778965e-02, 1.33155789e-02, 0.,
          4.52729687e-02, 3.59520651e-02, 6.65778946e-03, 0.,
          3.67509991e-01, 3.98135811e-01, 1.46471366e-01, 8.78828242e-02,
          3.20905447e-01, 2.94274300e-01, 1.98402137e-01, 1.86418116e-01,
          2.21038610e-01, 2.84953386e-01, 4.00798917e-01, 3.64846885e-01,
          2.14380831e-01, 1.99733675e-02, 2.71637827e-01, 7.28362203e-01 ]
      - [ 3.26975472e-02, 1.07629426e-01, 1.07629426e-01, 4.08719331e-02,
          8.44686627e-02, 9.53678507e-03, 0., 8.71934593e-02,
          8.71934593e-02, 1.08991824e-02, 4.90463227e-02, 8.58310610e-02,
          4.49591279e-02, 4.35967296e-02, 1.28065392e-01, 8.03814679e-02,
          2.88828343e-01, 1.81198910e-01, 2.32970029e-01, 2.97002733e-01,
          2.49318793e-01, 1.71662122e-01, 2.84741133e-01, 2.94277906e-01,
          1.71662122e-01, 9.67302471e-02, 2.34332427e-01, 2.35694826e-01,
          1.86648503e-01, 3.43324244e-01, 6.94822893e-02, 9.30517673e-01 ]
      - [ 3.26975472e-02, 1.07629426e-01, 1.07629426e-01, 4.08719331e-02,
          8.44686627e-02, 9.53678507e-03, 0., 8.71934593e-02,
          8.71934593e-02, 1.08991824e-02, 4.90463227e-02, 8.58310610e-02,
          4.49591279e-02, 4.35967296e-02, 1.28065392e-01, 8.03814679e-02,
          2.88828343e-01, 1.81198910e-01, 2.32970029e-01, 2.97002733e-01,
          2.49318793e-01, 1.71662122e-01, 2.84741133e-01, 2.94277906e-01,
          1.71662122e-01, 9.67302471e-02, 2.34332427e-01, 2.35694826e-01,
          1.86648503e-01, 3.43324244e-01, 6.94822893e-02, 9.30517673e-01 ]
      - [ 3.26975472e-02, 1.07629426e-01, 1.07629426e-01, 4.08719331e-02,
          8.44686627e-02, 9.53678507e-03, 0., 8.71934593e-02,
          8.71934593e-02, 1.08991824e-02, 4.90463227e-02, 8.58310610e-02,
          4.49591279e-02, 4.35967296e-02, 1.28065392e-01, 8.03814679e-02,
          2.88828343e-01, 1.81198910e-01, 2.32970029e-01, 2.97002733e-01,
          2.49318793e-01, 1.71662122e-01, 2.84741133e-01, 2.94277906e-01,
          1.71662122e-01, 9.67302471e-02, 2.34332427e-01, 2.35694826e-01,
          1.86648503e-01, 3.43324244e-01, 6.94822893e-02, 9.30517673e-01 ]
      - [ 3.26975472e-02, 1.07629426e-01, 1.07629426e-01, 4.08719331e-02,
          8.44686627e-02, 9.53678507e-03, 0., 8.71934593e-02,
          8.71934593e-02, 1.08991824e-02, 4.90463227e-02, 8.58310610e-02,
          4.49591279e-02, 4.35967296e-02, 1.28065392e-01, 8.03814679e-02,
          2.88828343e-01, 1.81198910e-01, 2.32970029e-01, 2.97002733e-01,
          2.49318793e-01, 1.71662122e-01, 2.84741133e-01, 2.94277906e-01,
          1.71662122e-01, 9.67302471e-02, 2.34332427e-01, 2.35694826e-01,
          1.86648503e-01, 3.43324244e-01, 6.94822893e-02, 9.30517673e-01 ]
      - [ 3.26975472e-02, 1.07629426e-01, 1.07629426e-01, 4.08719331e-02,
          8.44686627e-02, 9.53678507e-03, 0., 8.71934593e-02,
          8.71934593e-02, 1.08991824e-02, 4.90463227e-02, 8.58310610e-02,
          4.49591279e-02, 4.35967296e-02, 1.28065392e-01, 8.03814679e-02,
          2.88828343e-01, 1.81198910e-01, 2.32970029e-01, 2.97002733e-01,
          2.49318793e-01, 1.71662122e-01, 2.84741133e-01, 2.94277906e-01,
          1.71662122e-01, 9.67302471e-02, 2.34332427e-01, 2.35694826e-01,
          1.86648503e-01, 3.43324244e-01, 6.94822893e-02, 9.30517673e-01 ]
      - [ 3.26975472e-02, 1.07629426e-01, 1.07629426e-01, 4.08719331e-02,
          8.44686627e-02, 9.53678507e-03, 0., 8.71934593e-02,
          8.71934593e-02, 1.08991824e-02, 4.90463227e-02, 8.58310610e-02,
          4.49591279e-02, 4.35967296e-02, 1.28065392e-01, 8.03814679e-02,
          2.88828343e-01, 1.81198910e-01, 2.32970029e-01, 2.97002733e-01,
          2.49318793e-01, 1.71662122e-01, 2.84741133e-01, 2.94277906e-01,
          1.71662122e-01, 9.67302471e-02, 2.34332427e-01, 2.35694826e-01,
          1.86648503e-01, 3.43324244e-01, 6.94822893e-02, 9.30517673e-01 ]
      - [ 3.26975472e-02, 1.07629426e-01, 1.07629426e-01, 4.08719331e-02,
          8.44686627e-02, 9.53678507e-03, 0., 8.71934593e-02,
          8.71934593e-02, 1.08991824e-02, 4.90463227e-02, 8.58310610e-02,
          4.49591279e-02, 4.35967296e-02, 1.28065392e-01, 8.03814679e-02,
          2.88828343e-01, 1.81198910e-01, 2.32970029e-01, 2.97002733e-01,
          2.49318793e-01, 1.71662122e-01, 2.84741133e-01, 2.94277906e-01,
          1.71662122e-01, 9.67302471e-02, 2.34332427e-01, 2.35694826e-01,
          1.86648503e-01, 3.43324244e-01, 6.94822893e-02, 9.30517673e-01 ]
      - [ 3.26975472e-02, 1.07629426e-01, 1.07629426e-01, 4.08719331e-02,
          8.44686627e-02, 9.53678507e-03, 0., 8.71934593e-02,
          8.71934593e-02, 1.08991824e-02, 4.90463227e-02, 8.58310610e-02,
          4.49591279e-02, 4.35967296e-02, 1.28065392e-01, 8.03814679e-02,
          2.88828343e-01, 1.81198910e-01, 2.32970029e-01, 2.97002733e-01,
          2.49318793e-01, 1.71662122e-01, 2.84741133e-01, 2.94277906e-01,
          1.71662122e-01, 9.67302471e-02, 2.34332427e-01, 2.35694826e-01,
          1.86648503e-01, 3.43324244e-01, 6.94822893e-02, 9.30517673e-01 ]
      - [ 3.26975472e-02, 1.07629426e-01, 1.07629426e-01, 4.08719331e-02,
          8.44686627e-02, 9.53678507e-03, 0., 8.71934593e-02,
          8.71934593e-02, 1.08991824e-02, 4.90463227e-02, 8.58310610e-02,
          4.49591279e-02, 4.35967296e-02, 1.28065392e-01, 8.03814679e-02,
          2.88828343e-01, 1.81198910e-01, 2.32970029e-01, 2.97002733e-01,
          2.49318793e-01, 1.71662122e-01, 2.84741133e-01, 2.94277906e-01,
          1.71662122e-01, 9.67302471e-02, 2.34332427e-01, 2.35694826e-01,
          1.86648503e-01, 3.43324244e-01, 6.94822893e-02, 9.30517673e-01 ]
      - [ 7.56880715e-02, 1.00917429e-01, 1.14678897e-01, 7.45412856e-02,
          8.25688094e-02, 4.35779803e-02, 3.44036706e-02, 8.71559605e-02,
          7.68348649e-02, 0., 8.14220160e-02, 8.83027539e-02,
          4.24311943e-02, 0., 6.19266070e-02, 3.55504602e-02,
          3.65825683e-01, 2.47706413e-01, 2.46559635e-01, 1.39908254e-01,
          2.77522951e-01, 1.44495413e-01, 2.92431176e-01, 2.85550475e-01,
          2.36238524e-01, 1.51376158e-01, 3.02752286e-01, 3.10779810e-01,
          1.19266063e-01, 2.67201841e-01, 1.59403667e-01, 8.40596318e-01 ]
      - [ 1.06250003e-01, 1.10937499e-01, 1.10937499e-01, 1.09375000e-01,
          0., 6.25000000e-02, 0., 0., 0., 6.25000000e-02, 0., 0.,
          1.01562500e-01, 1.17187500e-01, 1.10937499e-01, 1.07812501e-01,
          4.37500000e-01, 6.25000000e-02, 6.25000000e-02, 4.37500000e-01,
          2.07812503e-01, 3.53125006e-01, 2.21874997e-01, 2.17187494e-01,
          2.76562512e-01, 2.73437500e-01, 2.79687494e-01, 2.20312506e-01,
          2.81250000e-01, 2.18750000e-01, 1.25000000e-01, 8.75000000e-01 ]
      - [ 1.06250003e-01, 1.10937499e-01, 1.10937499e-01, 1.09375000e-01,
          0., 6.25000000e-02, 0., 0., 0., 6.25000000e-02, 0., 0.,
          1.01562500e-01, 1.17187500e-01, 1.10937499e-01, 1.07812501e-01,
          4.37500000e-01, 6.25000000e-02, 6.25000000e-02, 4.37500000e-01,
          2.07812503e-01, 3.53125006e-01, 2.21874997e-01, 2.17187494e-01,
          2.76562512e-01, 2.73437500e-01, 2.79687494e-01, 2.20312506e-01,
          2.81250000e-01, 2.18750000e-01, 1.25000000e-01, 8.75000000e-01 ]
      - [ 1.06250003e-01, 1.10937499e-01, 1.10937499e-01, 1.09375000e-01,
          0., 6.25000000e-02, 0., 0., 0., 6.25000000e-02, 0., 0.,
          1.01562500e-01, 1.17187500e-01, 1.10937499e-01, 1.07812501e-01,
          4.37500000e-01, 6.25000000e-02, 6.25000000e-02, 4.37500000e-01,
          2.07812503e-01, 3.53125006e-01, 2.21874997e-01, 2.17187494e-01,
          2.76562512e-01, 2.73437500e-01, 2.79687494e-01, 2.20312506e-01,
          2.81250000e-01, 2.18750000e-01, 1.25000000e-01, 8.75000000e-01 ]
      - [ 1.06250003e-01, 1.10937499e-01, 1.10937499e-01, 1.09375000e-01,
          0., 6.25000000e-02, 0., 0., 0., 6.25000000e-02, 0., 0.,
          1.01562500e-01, 1.17187500e-01, 1.10937499e-01, 1.07812501e-01,
          4.37500000e-01, 6.25000000e-02, 6.25000000e-02, 4.37500000e-01,
          2.07812503e-01, 3.53125006e-01, 2.21874997e-01, 2.17187494e-01,
          2.76562512e-01, 2.73437500e-01, 2.79687494e-01, 2.20312506e-01,
          2.81250000e-01, 2.18750000e-01, 1.25000000e-01, 8.75000000e-01 ]
      - [ 1.06250003e-01, 1.10937499e-01, 1.10937499e-01, 1.09375000e-01,
          0., 6.25000000e-02, 0., 0., 0., 6.25000000e-02, 0., 0.,
          1.01562500e-01, 1.17187500e-01, 1.10937499e-01, 1.07812501e-01,
          4.37500000e-01, 6.25000000e-02, 6.25000000e-02, 4.37500000e-01,
